{"type":"LSTM","options":{"inputSize":57,"inputRange":57,"hiddenLayers":[20,20],"outputSize":57,"decayRate":0.999,"smoothEps":1e-8,"regc":0.000001,"clipval":5,"maxPredictionLength":100,"dataFormatter":{"values":["Give me the summary","1","What's the summary?","How is everything loking like?","Give me an update of things","How are the product sales statistics looking?","Give me an overview of sales statistics","What do you have for the day?","How is my day looking like?","Which brand has the highest sales?","What about the lowest?","0","How about the lowest?","Brand with highest sales","What about the one with lowest sales?","Brand with lowest sales","Top selling brand","Least selling brand","Brand with maximum sales","Brand with minimum sales","Which year had the highest sales","Which year had least sales","Year with minimum sales","Year with least sales","Which year had lowest sales?","Which year had maximum sales?","Which year had minimum sales?","Which year had the most highest sales?","Which year had the most less sales?","What about the sales for this year?","What about sales for 2020?","What about sales for 2019","What about sales for last year?","What about sales for previous year?","What about sales for past year?","What about sales for next year?","What about sales for 2021?","What about sales for year before this?","Among which year sales was the least?","Most selling year","Least selling year","Maximum selling year","Minimum selling year","Which income group contributed highest to the sales?","Which income group contributed maximum to the sales?","Which income group contributed minimum to the sales?","Which income group contributed least to the sales?","Which age group contributed highest to the sales?","Which age group contributed maximum to the sales?","Which age group contributed minimum to the sales?","Which age group contributed least to the sales?","Among all brands, who sold the highest?","Among all brands, who sold second highest?","Among all brands, who sold third highest?","Among all brands, who sold fourth highest?","Among all brands, who sold fifth highest?","Among all age groups, who sold the highest?","Among all age groups, who sold second highest?","Among all age groups, who sold third highest?","Among all age groups, who sold fourth highest?","Among all age groups, who sold fifth highest?","Among all income groups, who sold the highest?","Among all income groups, who sold second highest?","Among all income groups, who sold third highest?","Among all income groups, who sold fourth highest?","Among all income groups, who sold fifth highest?","Among all years, which year saw the third highest sales?","Among all years, which year saw the fourth highest sales?","Among all years, which year saw the second highest sales?","Among all years, which year saw the fifth highest sales?","How does sales of Dell and Samsung vary?","How does sales of Lenovo and Samsung differ?","Whose sales is highest: Lenovo or Samsung?","Among Canon and Apple, who sold more?","Among Apple, Canon, Lenovo and Samsung, whose sales was the highest?","Among Apple, Canon, Lenovo and Samsung, whose sales was the least?","Off Apple, Canon and Acer, who has the highest sales percentage","Off Apple, Canon and Acer, who has the least sales percentage","How does sales vary between age group 25-30 and 30-35?","How does sales vary between age group 30-35 and 35-40?","How does sales vary between age groups 40-50 and greater than 50?","Off age groups 25-30 and 30 to 35 who has the highest sales?","Off age groups 40-50, 30-35 and 35-40 who has the highest sales?","How does sales vary between income groups 60000-80000 and 80000-100000?","How does sales vary between income groups 60000-80000, 150000-200000 and 80000-100000?","Off income groups 60000-80000, 80000-10000 and 150000-200000 who has the highest sales?","Off income groups 60000-80000, 80000-10000 and 150000-200000 who has the least sales?","How does sales differ between 2019, 2018 and 2017","How does sales vary between 2016, 2017, 2018 and 2019?","How does sales vary between this year and last year?","How does sales differ between this year and previous year?","How does sales vary between current year and previous year?","Off 2016 and 2017, which year had the highest sales?","Off 2016, 2017 and 2018, which year had the least sales?","Show me more functions","Show me more choices","What else we can do?","Show me something more","Show me more to do","Show me more options","Show me other options","Show me some additional things to do","Get me additional options","What are some other options","Give me more options","Show me something different","First Message","FirstMessage","Get me statistics for sales by age group","Sales by age group","Show me sales by age group","Show me sales from age group less than 25","Sales from age group 25-30","Sales from age group 30-35","What is the sales from age group 35-40","Give me the sales from 40-50 age group","What's the sales from age group greater than 50","What is the contribution of sales from age group 40-50","Show me the contribution of sales from age group 35-40","25-30 age group sales","Sales of 30 to 35 age group","Sales of 35 to 40 age group","Greater than 50 age group sales","Sales for all age groups","Sales for age groups 25-30, 30-35, 35-40 and greater than 50","Get me the sales for age groups 25-30 and 30-35","Show me sales for age groups 25 to 30, 30 to 35, 35 to 40 and greater than 50","Show me sales for 25-30 and 30-35 age groups","Show me sales for 25-30, 30-35 and 35-40 age groups","Get me sales for 25 to 30 and 30 to 35 age groups","Show me sales for 25 to 30, 30 to 35 and 35 to 40 age groups","Get me statistics for sales by income group","Sales by income group","Show me sales by income group","Show me sales from age group greater than 200000","Sales from income group 60000-80000","Sales from income group 80000-100000","What is the sales from income group 10000-150000","Give me the sales from 150000-200000 income group","What's the sales from income group greater than 200000","What is the contribution of sales from income group 100000 to 150000","Show me the contribution of sales from income group 150000-200000","100000-150000 income group sales","Sales of 150000-200000 income group","Sales of greater than 200000 income group","150000 to 200000 income group sales","Sales for all income groups","Sales for income groups 100000-150000, 150000-200000 and greater than 200000","Get me the sales for income groups 100000-150000 and 150000-200000","Show me sales for income groups 100000-150000, 150000-200000 and greater than 200000","Show me sales for 100000-150000 and 150000-200000 income groups","Show me sales for 100000-150000, 150000-200000 and greater than 200000 income groups","Get me sales for 25 to 30 and 30 to 35 income groups","Show me sales for 25 to 30, 30 to 35 and 35 to 40 income groups","Get me statistics for sales by year","Sales by year","Show me sales by year","Show me sales for 2019","Show me sales for the year 2018","Show me sales for 2015","Show me sales for 2016, 2015, 2017 and 2019","Show me sales for all years","2016 sales report","2017 and 2018 sales","Give me the sales for the years 2017 and 2018","Show me sales for the previous year","Show me sales for the next year","Give me sales for the last two years","Show me the sales report for this year and last year","Total sales for this year and last year","Get me statistics for sales by brand","Sales by brand","Show me sales by brand","Show me sales for Lenovo","Get me sales for Apple","Show me sales satistics for Acer","Show me sales for Lenovo, Apple and Acer","Show me sales for all brands","Get me sales for Lenovo, Apple, Acer, Dell, Sony and Canon","How about Apple product sales?","Give me sales for Lenovo and Acer","Get me sales for Lenovo","How is Lenovo sales?","How are Lenovo and Apple sales?","What about the least one?","What about the minimum one?","How about the least selling one?","What about the least selling one?","Get me the same for minimum one","Show me the same for least one","Get me the same for least one","What about the one with maximum sales?","What about the one with minimum sales?","How about the one having minimum sales?","Which is the second highest one?","Which is the third highest one?","One with maximum sales?","One with minimum sales?","One with highest sales?","One with lowest sales?","Which is the second last one?","Which is the third last one?","Which is the fourth last one?","Which is the fourth highest one?","Which is the second maximum one?","Which is the third maximum one?","Which is the fourth maximum one?","Which is the fifth maximum one?","Which is the fifth highest one?","How about for 2018?","What about the same for this year and last year?","How about for 2019?","How about for last two years?","What about for the previous two years?","Minimum selling one","Maximum selling one","Highest selling one","Lowest selling on","Which was the highest?","Which was the lowest?","Which was the greatest?","How about for this year?","How about for 2016?","What about for 2017, 2018 and 2019?","Wat's for 2019?","What's for this and last years?","What's for this year and last year?","What's for 2016?","Which contributed the least?","Which ciontributed the minimum?","Which contributed the maximum?","Which contributed the greatest?","Which contributed the highest?","Which is the second highest contributor?","Which is the third highest contributor?","Which is the fourth highest contributor?","Which is the fifth highest contributor?","Which is the second, third, fourth and fifth highest contributors?","Which is the second and fifth highest contributors?","Which is the first least contributor?","Which is the second least contributor?","Which is the third least contributor?","Which is the second and third least contributors?","What about Apple and Samsung?","What about Acer and Apple?","What about Canon and Apple?","Whose is the least?","Who is the lowest?","Who is the highest?","Who has the minimum?","Who has the maximum?","Who has the greatest?","Who has the lowest percentage?","Who has the least percentage?","Who has the maximum percentage?","Who has the minimum percentage?","What about 35-40 and 40-50?","How about 25-30, 30 to 35 and 35-40?","How about 150000-200000 and 80000-100000","What about 60000-80000, 150000-200000?","How about 2018 and 2019?","What about 2016 and 2017?","Show me by brand","Show me by income group","Show me by age group","How about for 2017, 2018 and 2019?","What about for 2016 and 2017?","Show me the same for 2017","Get me the same for 2016","Get me the same for 2016 and 2017","What about about for last year?","How about the same for last two years?","What about for the previous year?"],"indexTable":{"0":29,"1":13,"2":35,"3":47,"4":48,"5":45,"6":49,"7":51,"8":50,"9":36,"G":0,"i":1,"v":2,"e":3," ":4,"m":5,"t":6,"h":7,"s":8,"u":9,"a":10,"r":11,"y":12,"W":14,"'":15,"?":16,"H":17,"o":18,"w":19,"n":20,"g":21,"l":22,"k":23,"p":24,"d":25,"f":26,"c":27,"b":28,"B":30,"T":31,"L":32,"x":33,"Y":34,"A":37,"M":38,",":39,"D":40,"S":41,":":42,"C":43,"O":44,"-":46," ":52,"F":53,"stop-input":54,"start-output":55,"unrecognized":56},"characterTable":{"0":"G","1":"i","2":"v","3":"e","4":" ","5":"m","6":"t","7":"h","8":"s","9":"u","10":"a","11":"r","12":"y","13":"1","14":"W","15":"'","16":"?","17":"H","18":"o","19":"w","20":"n","21":"g","22":"l","23":"k","24":"p","25":"d","26":"f","27":"c","28":"b","29":"0","30":"B","31":"T","32":"L","33":"x","34":"Y","35":"2","36":"9","37":"A","38":"M","39":",","40":"D","41":"S","42":":","43":"C","44":"O","45":"5","46":"-","47":"3","48":"4","49":"6","50":"8","51":"7","52":" ","53":"F","54":null,"55":null,"56":null},"characters":["G","i","v","e"," ","m","t","h","s","u","a","r","y","1","W","'","?","H","o","w","n","g","l","k","p","d","f","c","b","0","B","T","L","x","Y","2","9","A","M",",","D","S",":","C","O","5","-","3","4","6","8","7"," ","F","stop-input","start-output","unrecognized"],"specialIndexes":[54,55,56]}},"input":{"rows":58,"columns":57,"weights":{"0":13.74057674407959,"1":-6.5241546630859375,"2":6.598650932312012,"3":-13.819692611694336,"4":-12.672144889831543,"5":12.262271881103516,"6":-10.338252067565918,"7":12.64931583404541,"8":-12.89227294921875,"9":-14.466365814208984,"10":-7.648588180541992,"11":-4.174052715301514,"12":-3.82657527923584,"13":-14.054883003234863,"14":13.33433723449707,"15":13.634779930114746,"16":-12.561480522155762,"17":0.6038479804992676,"18":-2.3837709426879883,"19":-13.846596717834473,"20":12.149377822875977,"21":-13.378230094909668,"22":4.24592399597168,"23":14.613608360290527,"24":10.09667682647705,"25":9.470972061157227,"26":-13.365668296813965,"27":13.978996276855469,"28":-13.797178268432617,"29":-15.307430267333984,"30":10.969625473022461,"31":9.89197063446045,"32":11.396974563598633,"33":12.430266380310059,"34":12.086142539978027,"35":-10.618631362915039,"36":3.3885650634765625,"37":-13.617372512817383,"38":-11.474550247192383,"39":2.966379404067993,"40":11.278606414794922,"41":-11.91197681427002,"42":-13.150899887084961,"43":-10.527009010314941,"44":-13.780991554260254,"45":4.144149303436279,"46":14.631372451782227,"47":9.265997886657715,"48":11.000391960144043,"49":12.952661514282227,"50":-7.381431579589844,"51":-5.319904804229736,"52":15.854576110839844,"53":13.33873462677002,"54":-8.863482475280762,"55":-7.723106384277344,"56":-14.238664627075195,"57":-0.5996566414833069,"58":-2.170912265777588,"59":0.25455939769744873,"60":-1.773033618927002,"61":3.24790096282959,"62":-0.6968302130699158,"63":-0.9806783199310303,"64":-0.016572555527091026,"65":0.7162482738494873,"66":2.3101606369018555,"67":-1.888962984085083,"68":1.2786985635757446,"69":0.38501545786857605,"70":-0.7860795259475708,"71":-1.4528824090957642,"72":3.4318413734436035,"73":0.7782714366912842,"74":0.26396772265434265,"75":-2.4598278999328613,"76":2.372453212738037,"77":-1.5130606889724731,"78":1.780096173286438,"79":-0.7274612188339233,"80":-0.7034955024719238,"81":-1.9847078323364258,"82":-3.1655540466308594,"83":1.6732820272445679,"84":1.462352991104126,"85":-1.3191674947738647,"86":-2.5876083374023438,"87":2.174811840057373,"88":3.66337513923645,"89":-3.322148323059082,"90":-1.3377094268798828,"91":-3.0722227096557617,"92":1.5851248502731323,"93":2.7230498790740967,"94":-1.0681877136230469,"95":-1.88238525390625,"96":-1.1383894681930542,"97":1.5900664329528809,"98":1.398485779762268,"99":0.5628681182861328,"100":-2.24831223487854,"101":-1.9608683586120605,"102":-0.6658749580383301,"103":1.2033261060714722,"104":1.163375735282898,"105":0.40036556124687195,"106":-0.7099564075469971,"107":-1.2732282876968384,"108":0.5031555891036987,"109":1.0997780561447144,"110":0.03316274657845497,"111":2.399242639541626,"112":-1.7621935606002808,"113":2.1366961002349854,"114":16.971370697021484,"115":10.753976821899414,"116":-13.311056137084961,"117":13.354399681091309,"118":-13.715006828308105,"119":-14.402538299560547,"120":15.810441017150879,"121":14.725517272949219,"122":-14.645689964294434,"123":-13.580205917358398,"124":13.116111755371094,"125":-16.8238582611084,"126":13.073434829711914,"127":14.706817626953125,"128":16.085962295532227,"129":-14.906752586364746,"130":15.662105560302734,"131":-13.056685447692871,"132":13.594768524169922,"133":12.977581977844238,"134":13.325837135314941,"135":-16.539228439331055,"136":-13.86425495147705,"137":15.313796997070312,"138":-13.979104995727539,"139":-14.620214462280273,"140":-17.834726333618164,"141":-13.07573127746582,"142":14.232145309448242,"143":-14.114903450012207,"144":-14.5302152633667,"145":-14.317580223083496,"146":14.598442077636719,"147":15.153441429138184,"148":13.458247184753418,"149":-16.329713821411133,"150":13.770597457885742,"151":12.075785636901855,"152":-13.715205192565918,"153":14.561745643615723,"154":-12.646053314208984,"155":-13.569478034973145,"156":14.722020149230957,"157":13.778177261352539,"158":17.005542755126953,"159":14.442169189453125,"160":-13.993009567260742,"161":-17.13802719116211,"162":-14.455039978027344,"163":12.016653060913086,"164":13.58602523803711,"165":14.986404418945312,"166":16.06520652770996,"167":14.819884300231934,"168":-13.859139442443848,"169":-15.442415237426758,"170":-14.502182960510254,"171":-113.62447357177734,"172":120.21035766601562,"173":131.43206787109375,"174":-124.85531616210938,"175":114.63870239257812,"176":-121.60127258300781,"177":100.77019500732422,"178":-112.05374145507812,"179":-105.02814483642578,"180":128.38816833496094,"181":-132.68234252929688,"182":-127.72256469726562,"183":-114.78138732910156,"184":127.93501281738281,"185":-114.37950897216797,"186":-125.10293579101562,"187":106.2496566772461,"188":124.21178436279297,"189":-111.94330596923828,"190":111.59056854248047,"191":-127.06401824951172,"192":-122.18827819824219,"193":-102.92369079589844,"194":-123.25325012207031,"195":-101.36920166015625,"196":122.74071502685547,"197":-123.16234588623047,"198":-121.62496948242188,"199":136.2986297607422,"200":115.19854736328125,"201":-127.7362060546875,"202":-120.75460815429688,"203":134.77676391601562,"204":-123.81615447998047,"205":103.39439392089844,"206":115.85552978515625,"207":108.05415344238281,"208":107.82975769042969,"209":-112.21724700927734,"210":-109.25860595703125,"211":130.1468505859375,"212":82.47763061523438,"213":-125.80663299560547,"214":-113.56725311279297,"215":-113.72740936279297,"216":116.91316223144531,"217":136.03492736816406,"218":-126.04917907714844,"219":-125.07052612304688,"220":108.60205841064453,"221":110.66777801513672,"222":104.98538208007812,"223":62.216644287109375,"224":-123.94857788085938,"225":-128.0504150390625,"226":-96.2977294921875,"227":-77.90185546875,"228":-15.525432586669922,"229":-13.751327514648438,"230":-13.408669471740723,"231":-14.719339370727539,"232":-13.433135986328125,"233":-14.811803817749023,"234":-15.994097709655762,"235":14.1980562210083,"236":-14.108970642089844,"237":15.159505844116211,"238":14.128527641296387,"239":14.54947566986084,"240":-14.387713432312012,"241":-14.720407485961914,"242":-15.216096878051758,"243":-10.68759822845459,"244":-14.880840301513672,"245":-14.185582160949707,"246":14.072102546691895,"247":-13.859495162963867,"248":-15.895509719848633,"249":14.913684844970703,"250":14.605826377868652,"251":13.599681854248047,"252":15.032108306884766,"253":-14.362622261047363,"254":15.467784881591797,"255":15.173290252685547,"256":-14.129682540893555,"257":13.315289497375488,"258":-14.02805233001709,"259":-13.121572494506836,"260":-14.816553115844727,"261":-12.943378448486328,"262":-14.591153144836426,"263":-12.910063743591309,"264":-13.718502044677734,"265":14.11127758026123,"266":14.675578117370605,"267":14.69972038269043,"268":-13.52115249633789,"269":-15.3287353515625,"270":13.439002990722656,"271":-13.893120765686035,"272":13.754048347473145,"273":13.065218925476074,"274":-14.416352272033691,"275":15.429019927978516,"276":-13.939208030700684,"277":-14.337905883789062,"278":-14.921270370483398,"279":15.447916030883789,"280":-15.329418182373047,"281":13.466127395629883,"282":14.813844680786133,"283":14.248950004577637,"284":15.802053451538086,"285":-21.942138671875,"286":-27.332530975341797,"287":-29.569786071777344,"288":-2.139101028442383,"289":-0.23782622814178467,"290":30.30596160888672,"291":-6.359283924102783,"292":0.775442361831665,"293":-14.185163497924805,"294":-2.840484142303467,"295":-13.318958282470703,"296":29.563810348510742,"297":-6.504699230194092,"298":-26.881412506103516,"299":-20.028621673583984,"300":12.969115257263184,"301":-25.91434097290039,"302":-28.093158721923828,"303":-0.9581544399261475,"304":15.118423461914062,"305":0.5559497475624084,"306":12.744723320007324,"307":-20.03825569152832,"308":25.5732421875,"309":5.794609069824219,"310":7.197146892547607,"311":31.302982330322266,"312":13.647052764892578,"313":-23.678918838500977,"314":19.454374313354492,"315":3.438586711883545,"316":-16.625919342041016,"317":4.394678592681885,"318":11.781745910644531,"319":-6.943615436553955,"320":-26.44866943359375,"321":31.111473083496094,"322":20.4752140045166,"323":19.773998260498047,"324":-6.443154811859131,"325":-29.730205535888672,"326":-0.6681032180786133,"327":31.00444793701172,"328":-20.618724822998047,"329":-2.2886624336242676,"330":18.79661750793457,"331":-12.270792007446289,"332":10.77855110168457,"333":13.521328926086426,"334":1.2329766750335693,"335":21.423809051513672,"336":8.585533142089844,"337":0.33709537982940674,"338":27.61269760131836,"339":31.603376388549805,"340":-6.813128471374512,"341":6.803088665008545,"342":-31.1207275390625,"343":-16.867286682128906,"344":-34.876163482666016,"345":-31.67637825012207,"346":-17.82327651977539,"347":31.38317108154297,"348":-39.09986877441406,"349":-32.65705108642578,"350":30.383975982666016,"351":16.972713470458984,"352":-20.09518814086914,"353":32.03662109375,"354":-15.534404754638672,"355":13.998796463012695,"356":16.706571578979492,"357":14.879430770874023,"358":-31.142501831054688,"359":-27.70658302307129,"360":-15.478076934814453,"361":-19.319259643554688,"362":-17.323617935180664,"363":-31.89566421508789,"364":-16.036415100097656,"365":30.206581115722656,"366":17.473337173461914,"367":33.949893951416016,"368":31.21276092529297,"369":16.270784378051758,"370":-38.45409393310547,"371":-15.40196418762207,"372":-15.41628646850586,"373":-33.84053421020508,"374":32.31804275512695,"375":17.063507080078125,"376":-14.119644165039062,"377":-33.31876754760742,"378":-32.79800796508789,"379":-17.872394561767578,"380":32.449005126953125,"381":30.69188690185547,"382":-31.82006072998047,"383":-17.050926208496094,"384":-35.55951690673828,"385":-15.815996170043945,"386":15.312068939208984,"387":-20.44019317626953,"388":24.27691650390625,"389":31.512887954711914,"390":-7.474830627441406,"391":33.7220573425293,"392":31.354900360107422,"393":-31.29113006591797,"394":16.443288803100586,"395":30.99761199951172,"396":31.65000343322754,"397":-16.38041877746582,"398":0.6217201948165894,"399":-7.234046936035156,"400":7.824135780334473,"401":-5.584410667419434,"402":-9.524686813354492,"403":-13.3161039352417,"404":5.528585910797119,"405":10.44401741027832,"406":-9.754654884338379,"407":13.848542213439941,"408":-3.3716776371002197,"409":1.0330275297164917,"410":1.5171775817871094,"411":-5.376684188842773,"412":11.932366371154785,"413":0.42121729254722595,"414":12.638166427612305,"415":-13.774667739868164,"416":15.219655990600586,"417":10.197017669677734,"418":16.090913772583008,"419":-13.047673225402832,"420":-3.816168785095215,"421":17.052780151367188,"422":8.669572830200195,"423":15.269720077514648,"424":-12.621137619018555,"425":-16.52867317199707,"426":14.522737503051758,"427":-13.094989776611328,"428":7.073593616485596,"429":14.141310691833496,"430":-8.918320655822754,"431":12.91856861114502,"432":19.390684127807617,"433":19.605939865112305,"434":14.722298622131348,"435":11.123150825500488,"436":13.52093505859375,"437":15.54458236694336,"438":16.33114242553711,"439":-7.736360549926758,"440":-5.864912033081055,"441":-17.769304275512695,"442":-15.28475570678711,"443":-0.8105975389480591,"444":1.806222677230835,"445":-5.802518844604492,"446":-11.852453231811523,"447":-11.00325870513916,"448":-2.70732045173645,"449":-12.132969856262207,"450":-13.743046760559082,"451":23.45953369140625,"452":13.502129554748535,"453":12.757034301757812,"454":11.338607788085938,"455":17.65839385986328,"456":-32.87529754638672,"457":43.8529167175293,"458":-3.555182456970215,"459":-27.95325469970703,"460":11.087783813476562,"461":-18.611879348754883,"462":4.247917175292969,"463":-0.5392552018165588,"464":2.1757187843322754,"465":-5.146825790405273,"466":-29.452075958251953,"467":10.035627365112305,"468":-29.90439224243164,"469":-4.30765962600708,"470":-36.91453170776367,"471":28.393280029296875,"472":-26.354869842529297,"473":32.162139892578125,"474":-5.977544784545898,"475":3.0937440395355225,"476":-1.589900255203247,"477":18.538818359375,"478":20.783828735351562,"479":-8.047240257263184,"480":21.936498641967773,"481":-6.157533168792725,"482":18.459041595458984,"483":0.8694872856140137,"484":-7.475237846374512,"485":39.46674346923828,"486":34.80841064453125,"487":34.4345703125,"488":37.634986877441406,"489":-12.201171875,"490":-3.1691250801086426,"491":24.259429931640625,"492":26.10494613647461,"493":-19.64282989501953,"494":27.602598190307617,"495":23.057188034057617,"496":15.912569999694824,"497":-27.76274871826172,"498":-24.344480514526367,"499":6.708689212799072,"500":-34.059593200683594,"501":-23.70552635192871,"502":2.837800979614258,"503":7.168099403381348,"504":20.847637176513672,"505":-35.52621841430664,"506":-40.27754592895508,"507":29.262601852416992,"508":-9.464491844177246,"509":2.8220601081848145,"510":25.555377960205078,"511":-38.74746322631836,"512":26.220840454101562,"513":13.546256065368652,"514":-29.3128662109375,"515":-14.336820602416992,"516":-13.822423934936523,"517":-13.162435531616211,"518":-15.716197967529297,"519":-14.562005043029785,"520":10.565264701843262,"521":-15.19598388671875,"522":-16.715007781982422,"523":13.421635627746582,"524":14.02397346496582,"525":-3.591928720474243,"526":-13.6419095993042,"527":14.614030838012695,"528":-14.918937683105469,"529":11.566892623901367,"530":-15.047582626342773,"531":-14.00070571899414,"532":-11.81496810913086,"533":10.667319297790527,"534":14.155684471130371,"535":-14.692197799682617,"536":-13.24025821685791,"537":-15.693897247314453,"538":9.835150718688965,"539":-4.513739585876465,"540":-6.869121551513672,"541":-7.818435192108154,"542":-15.365108489990234,"543":1.2194335460662842,"544":-9.831564903259277,"545":-12.123291015625,"546":-13.588837623596191,"547":-12.941781997680664,"548":-14.140819549560547,"549":0.0139457480981946,"550":-12.04581356048584,"551":13.587398529052734,"552":-12.650031089782715,"553":13.068060874938965,"554":-17.526153564453125,"555":15.532123565673828,"556":23.625654220581055,"557":7.806816101074219,"558":14.811359405517578,"559":12.961400032043457,"560":14.808109283447266,"561":14.965730667114258,"562":-12.867783546447754,"563":-12.431855201721191,"564":9.703792572021484,"565":15.20479965209961,"566":-14.52556037902832,"567":-14.406510353088379,"568":12.769421577453613,"569":-14.383986473083496,"570":-14.074707984924316,"571":-14.087248802185059,"572":25.362207412719727,"573":-9.878791809082031,"574":26.0709171295166,"575":-21.840551376342773,"576":-25.167848587036133,"577":23.50287437438965,"578":22.00865364074707,"579":-17.001728057861328,"580":22.45551300048828,"581":23.215818405151367,"582":-14.406729698181152,"583":-17.27712631225586,"584":-24.476804733276367,"585":-22.910737991333008,"586":-24.169588088989258,"587":-22.78765106201172,"588":-23.6112003326416,"589":24.212968826293945,"590":-18.412803649902344,"591":-7.842615127563477,"592":-22.069351196289062,"593":2.8276283740997314,"594":-16.14960479736328,"595":22.532062530517578,"596":-14.222671508789062,"597":-9.559288024902344,"598":23.600038528442383,"599":-22.14845848083496,"600":-19.809083938598633,"601":-22.596555709838867,"602":20.149635314941406,"603":16.356813430786133,"604":-16.872844696044922,"605":21.4053897857666,"606":8.819751739501953,"607":-21.71479606628418,"608":-6.659007549285889,"609":23.286745071411133,"610":24.310245513916016,"611":21.129329681396484,"612":-17.08017349243164,"613":-22.070438385009766,"614":24.071533203125,"615":-24.360492706298828,"616":-23.374526977539062,"617":-20.468570709228516,"618":-18.31171417236328,"619":-16.577295303344727,"620":-22.130706787109375,"621":-17.15757942199707,"622":23.385868072509766,"623":-24.92008399963379,"624":23.79704475402832,"625":-5.65402364730835,"626":23.085920333862305,"627":31.201072692871094,"628":23.320852279663086,"629":-12.571501731872559,"630":0.42015814781188965,"631":37.5432243347168,"632":10.870528221130371,"633":11.973129272460938,"634":-23.13898277282715,"635":-16.751832962036133,"636":-19.031391143798828,"637":30.04582977294922,"638":-35.70620346069336,"639":-3.282304286956787,"640":8.949304580688477,"641":33.83442687988281,"642":18.95406723022461,"643":31.660476684570312,"644":8.169187545776367,"645":-37.988624572753906,"646":23.04218292236328,"647":22.29488754272461,"648":-21.029508590698242,"649":33.75811767578125,"650":-15.555971145629883,"651":-28.47999382019043,"652":-25.98583221435547,"653":-22.7581787109375,"654":-5.6654839515686035,"655":-31.486793518066406,"656":11.021855354309082,"657":22.189605712890625,"658":27.451919555664062,"659":-14.920574188232422,"660":36.66714096069336,"661":11.9896821975708,"662":24.770273208618164,"663":24.645793914794922,"664":-4.027036190032959,"665":36.14194107055664,"666":12.207643508911133,"667":26.118549346923828,"668":23.097373962402344,"669":-10.812320709228516,"670":-12.237460136413574,"671":-14.541119575500488,"672":-37.21591567993164,"673":34.23314666748047,"674":-21.448434829711914,"675":33.36554718017578,"676":-26.956954956054688,"677":-25.08418846130371,"678":21.499197006225586,"679":36.74685287475586,"680":-29.5037784576416,"681":-28.328105926513672,"682":-34.90656661987305,"683":-6.342839241027832,"684":4.715384006500244,"685":-28.34510040283203,"686":-0.2989823520183563,"687":0.4262707233428955,"688":16.311655044555664,"689":-4.656087398529053,"690":-17.132205963134766,"691":27.300161361694336,"692":-10.528103828430176,"693":-24.385499954223633,"694":-13.059453010559082,"695":-3.3896124362945557,"696":-5.417260646820068,"697":-17.100051879882812,"698":6.635912895202637,"699":-2.854876756668091,"700":-12.88541030883789,"701":-7.962718963623047,"702":3.5476503372192383,"703":13.183928489685059,"704":-13.728182792663574,"705":-4.176534652709961,"706":-0.5514216423034668,"707":-18.214099884033203,"708":-6.815774440765381,"709":18.996259689331055,"710":-17.354581832885742,"711":-4.9006524085998535,"712":4.4499711990356445,"713":-22.688949584960938,"714":-10.468204498291016,"715":12.783597946166992,"716":13.838315963745117,"717":29.60076141357422,"718":25.105661392211914,"719":-9.912535667419434,"720":16.63402557373047,"721":18.227519989013672,"722":-3.339463472366333,"723":-6.6580119132995605,"724":18.92377281188965,"725":-5.175394058227539,"726":8.0963134765625,"727":-14.838737487792969,"728":14.711403846740723,"729":19.032175064086914,"730":0.6223336458206177,"731":14.839290618896484,"732":-4.469463348388672,"733":-22.196331024169922,"734":-21.460067749023438,"735":2.986625909805298,"736":3.8704400062561035,"737":-11.391064643859863,"738":16.068578720092773,"739":16.453115463256836,"740":-7.53339958190918,"741":-9.976304054260254,"742":-6.446756362915039,"743":12.905893325805664,"744":12.809894561767578,"745":13.939062118530273,"746":-3.373784303665161,"747":-13.58533763885498,"748":13.769088745117188,"749":-15.184062957763672,"750":-13.681543350219727,"751":-4.430842399597168,"752":-7.200716018676758,"753":12.755058288574219,"754":-14.746764183044434,"755":-12.057236671447754,"756":-10.482059478759766,"757":13.840156555175781,"758":-12.754742622375488,"759":8.628918647766113,"760":-13.972097396850586,"761":0.35522890090942383,"762":-12.289507865905762,"763":-12.460246086120605,"764":14.362236022949219,"765":-13.933754920959473,"766":12.811051368713379,"767":-13.440465927124023,"768":13.292816162109375,"769":13.0087890625,"770":-13.662484169006348,"771":-13.964045524597168,"772":13.43020248413086,"773":-10.358918190002441,"774":12.683056831359863,"775":-13.909546852111816,"776":-13.853754997253418,"777":-14.051081657409668,"778":10.918478965759277,"779":-14.446906089782715,"780":-14.37958812713623,"781":5.507150173187256,"782":13.85093879699707,"783":14.727946281433105,"784":12.409390449523926,"785":-12.0698823928833,"786":12.431801795959473,"787":-14.518264770507812,"788":14.22277545928955,"789":12.794892311096191,"790":12.084404945373535,"791":12.70771598815918,"792":-9.485769271850586,"793":-6.1529717445373535,"794":-14.004651069641113,"795":-12.207344055175781,"796":3.3248329162597656,"797":-15.412700653076172,"798":-14.208270072937012,"799":-13.439624786376953,"800":-14.425605773925781,"801":-15.16512680053711,"802":-13.886589050292969,"803":-3.0508360862731934,"804":2.7080776691436768,"805":-8.914567947387695,"806":14.253173828125,"807":12.389471054077148,"808":15.109725952148438,"809":13.473365783691406,"810":-14.704472541809082,"811":8.135526657104492,"812":14.330912590026855,"813":13.211729049682617,"814":-12.843659400939941,"815":13.76844310760498,"816":7.783397674560547,"817":9.64201545715332,"818":-7.73992919921875,"819":12.294463157653809,"820":8.409286499023438,"821":14.972940444946289,"822":13.5029296875,"823":-14.276773452758789,"824":13.687872886657715,"825":12.236360549926758,"826":-14.49681282043457,"827":-15.239646911621094,"828":-14.60957145690918,"829":-15.313121795654297,"830":14.582137107849121,"831":-6.146273612976074,"832":-14.116259574890137,"833":-12.889636039733887,"834":-12.017334938049316,"835":15.083892822265625,"836":13.46282958984375,"837":13.016637802124023,"838":-13.041108131408691,"839":-11.48304557800293,"840":-2.242500066757202,"841":-15.630376815795898,"842":14.692987442016602,"843":-12.679651260375977,"844":-13.19199275970459,"845":13.66434383392334,"846":-12.335829734802246,"847":-14.260400772094727,"848":13.334338188171387,"849":13.610231399536133,"850":-12.717148780822754,"851":14.23293685913086,"852":13.32172679901123,"853":-14.593082427978516,"854":-5.060963153839111,"855":-46.507572174072266,"856":-46.42839050292969,"857":46.35060501098633,"858":46.429405212402344,"859":45.5537109375,"860":-46.34918975830078,"861":-46.295318603515625,"862":-46.19013595581055,"863":-46.473297119140625,"864":46.49216842651367,"865":46.500858306884766,"866":46.50017166137695,"867":45.466793060302734,"868":-46.371768951416016,"869":46.3950080871582,"870":46.116451263427734,"871":46.446651458740234,"872":46.42703628540039,"873":46.455902099609375,"874":46.40827560424805,"875":46.41789627075195,"876":46.32716751098633,"877":46.36932373046875,"878":46.48886489868164,"879":46.418548583984375,"880":-46.397891998291016,"881":46.50290298461914,"882":46.283172607421875,"883":-46.49027633666992,"884":46.400020599365234,"885":-46.502174377441406,"886":-46.48869323730469,"887":-37.51575469970703,"888":-46.35514831542969,"889":-46.41328811645508,"890":-45.90594482421875,"891":-46.39711380004883,"892":46.486122131347656,"893":46.416603088378906,"894":-43.4668083190918,"895":-46.515743255615234,"896":46.3583984375,"897":46.49041748046875,"898":-46.41819381713867,"899":46.43441390991211,"900":-46.35679626464844,"901":-46.41969299316406,"902":46.442955017089844,"903":-45.70903396606445,"904":-46.486846923828125,"905":46.0709228515625,"906":46.46371078491211,"907":-46.454166412353516,"908":46.401153564453125,"909":46.50364685058594,"910":-46.3797721862793,"911":-45.09354019165039,"912":-288.0198669433594,"913":-286.40435791015625,"914":286.2667541503906,"915":287.87103271484375,"916":285.39801025390625,"917":-287.51422119140625,"918":-226.81939697265625,"919":287.2915344238281,"920":-287.6685485839844,"921":287.9053649902344,"922":288.00787353515625,"923":287.83477783203125,"924":287.3053894042969,"925":-287.62493896484375,"926":-285.61865234375,"927":287.5125427246094,"928":287.8597717285156,"929":287.97650146484375,"930":287.6031188964844,"931":287.16351318359375,"932":287.8689880371094,"933":256.45147705078125,"934":285.48919677734375,"935":287.9267883300781,"936":287.8741760253906,"937":-287.8759765625,"938":286.57684326171875,"939":285.030517578125,"940":-286.9143981933594,"941":287.5364074707031,"942":-287.9939270019531,"943":-288.00140380859375,"944":-286.85711669921875,"945":-285.294921875,"946":-287.8671569824219,"947":287.5923156738281,"948":-287.8790588378906,"949":287.9405517578125,"950":283.5157470703125,"951":-286.7630615234375,"952":-288.01605224609375,"953":281.66156005859375,"954":287.80126953125,"955":-287.95452880859375,"956":287.9852294921875,"957":-287.4116516113281,"958":-287.98101806640625,"959":287.8932800292969,"960":-282.3716125488281,"961":-286.9281311035156,"962":287.8986511230469,"963":287.8598937988281,"964":-287.9884033203125,"965":287.9690856933594,"966":287.94134521484375,"967":-287.7646484375,"968":-248.101806640625,"969":-14.370645523071289,"970":-14.320178985595703,"971":14.390345573425293,"972":14.405969619750977,"973":14.317667961120605,"974":-14.311738967895508,"975":-14.386359214782715,"976":14.298967361450195,"977":-14.380188941955566,"978":14.323980331420898,"979":14.382048606872559,"980":14.349044799804688,"981":14.300185203552246,"982":-14.374017715454102,"983":14.32073974609375,"984":-14.285005569458008,"985":14.34302043914795,"986":14.359888076782227,"987":14.347129821777344,"988":-14.308978080749512,"989":-14.380060195922852,"990":14.298194885253906,"991":-14.304901123046875,"992":14.329666137695312,"993":14.289780616760254,"994":14.288264274597168,"995":14.407994270324707,"996":14.337349891662598,"997":14.374076843261719,"998":-14.334406852722168,"999":-14.30233097076416,"1000":-14.344554901123047,"1001":5.29020881652832,"1002":-14.367226600646973,"1003":-14.307807922363281,"1004":-14.37881851196289,"1005":-14.378870964050293,"1006":14.343985557556152,"1007":-14.397841453552246,"1008":-14.309530258178711,"1009":-14.323486328125,"1010":14.374738693237305,"1011":14.32550048828125,"1012":-14.22138786315918,"1013":14.367778778076172,"1014":14.296435356140137,"1015":-14.349847793579102,"1016":14.412449836730957,"1017":-14.327070236206055,"1018":-13.94709587097168,"1019":14.355029106140137,"1020":14.27754020690918,"1021":-14.31641674041748,"1022":14.37036418914795,"1023":-12.439167976379395,"1024":-14.311908721923828,"1025":-14.355694770812988,"1026":-14.863006591796875,"1027":16.045162200927734,"1028":-15.835799217224121,"1029":15.903555870056152,"1030":-15.444189071655273,"1031":-6.21579647064209,"1032":15.842884063720703,"1033":-15.214336395263672,"1034":-15.050348281860352,"1035":-15.199504852294922,"1036":15.829168319702148,"1037":15.714427947998047,"1038":16.01371192932129,"1039":16.086959838867188,"1040":-15.8316650390625,"1041":-16.107898712158203,"1042":-16.14789581298828,"1043":-15.19820785522461,"1044":16.042123794555664,"1045":-8.5410737991333,"1046":15.850822448730469,"1047":-16.144668579101562,"1048":-14.418712615966797,"1049":15.208656311035156,"1050":-15.13718032836914,"1051":15.644821166992188,"1052":15.166507720947266,"1053":-16.04130744934082,"1054":-15.151405334472656,"1055":15.148393630981445,"1056":15.103876113891602,"1057":-16.16644859313965,"1058":16.054241180419922,"1059":-16.026718139648438,"1060":15.8168306350708,"1061":-16.179746627807617,"1062":-16.037872314453125,"1063":15.7611083984375,"1064":15.470663070678711,"1065":-13.521684646606445,"1066":-15.87444019317627,"1067":15.167815208435059,"1068":14.463356971740723,"1069":16.033193588256836,"1070":-7.315211296081543,"1071":15.691593170166016,"1072":16.070083618164062,"1073":11.319456100463867,"1074":15.202938079833984,"1075":15.387950897216797,"1076":15.797408103942871,"1077":-16.16800308227539,"1078":-8.525825500488281,"1079":15.877659797668457,"1080":15.21627426147461,"1081":16.088300704956055,"1082":8.28782844543457,"1083":-7.606091499328613,"1084":7.888016223907471,"1085":-8.344621658325195,"1086":8.246468544006348,"1087":-8.025469779968262,"1088":1.434150218963623,"1089":8.296981811523438,"1090":-8.161663055419922,"1091":-8.111793518066406,"1092":-8.292689323425293,"1093":8.22140121459961,"1094":7.9989213943481445,"1095":8.253318786621094,"1096":8.092164039611816,"1097":-7.955996036529541,"1098":-8.127195358276367,"1099":-7.943104267120361,"1100":-8.295591354370117,"1101":8.221993446350098,"1102":1.0683354139328003,"1103":8.310795783996582,"1104":-8.255292892456055,"1105":-7.68543815612793,"1106":8.266749382019043,"1107":-8.214621543884277,"1108":7.432474136352539,"1109":8.157244682312012,"1110":-8.119010925292969,"1111":-8.212807655334473,"1112":7.939835071563721,"1113":8.001276016235352,"1114":-8.244908332824707,"1115":7.908196449279785,"1116":-7.97285795211792,"1117":8.206168174743652,"1118":-8.234917640686035,"1119":-8.104301452636719,"1120":8.201581954956055,"1121":7.925671577453613,"1122":-7.637624740600586,"1123":-8.266573905944824,"1124":8.227670669555664,"1125":7.9668869972229,"1126":7.994043827056885,"1127":0.7497394680976868,"1128":8.203573226928711,"1129":7.936811447143555,"1130":3.860172748565674,"1131":8.051032066345215,"1132":8.142525672912598,"1133":8.166934967041016,"1134":-8.345646858215332,"1135":1.0846316814422607,"1136":8.216412544250488,"1137":7.977277755737305,"1138":8.027471542358398,"1139":-0.7579268217086792,"1140":22.692110061645508,"1141":-22.808794021606445,"1142":26.369251251220703,"1143":22.70050621032715,"1144":26.40409278869629,"1145":-25.772281646728516,"1146":22.668107986450195,"1147":-23.72043800354004,"1148":-23.617788314819336,"1149":26.277313232421875,"1150":-26.25878143310547,"1151":-22.95753288269043,"1152":-26.362062454223633,"1153":-26.108919143676758,"1154":22.679855346679688,"1155":25.971416473388672,"1156":22.782867431640625,"1157":-22.763517379760742,"1158":-25.870676040649414,"1159":-26.01346206665039,"1160":-26.46041488647461,"1161":-22.791906356811523,"1162":-22.702117919921875,"1163":-26.37224578857422,"1164":26.247316360473633,"1165":26.165422439575195,"1166":-24.794923782348633,"1167":25.921010971069336,"1168":-22.94768524169922,"1169":25.92595672607422,"1170":26.0231990814209,"1171":-22.659482955932617,"1172":-22.817853927612305,"1173":22.75839614868164,"1174":-25.649253845214844,"1175":-22.674543380737305,"1176":-24.013408660888672,"1177":-26.27389907836914,"1178":26.21733856201172,"1179":-22.705013275146484,"1180":26.335386276245117,"1181":22.719451904296875,"1182":22.69980812072754,"1183":-22.8991756439209,"1184":22.93903923034668,"1185":-26.323015213012695,"1186":25.136638641357422,"1187":-22.951255798339844,"1188":26.206241607666016,"1189":-26.187519073486328,"1190":-25.98094940185547,"1191":-22.76766586303711,"1192":22.76606559753418,"1193":-26.27036476135254,"1194":26.231903076171875,"1195":25.440082550048828,"1196":-22.64116668701172,"1197":14.316147804260254,"1198":-14.389742851257324,"1199":13.867512702941895,"1200":14.349123001098633,"1201":-14.29562759399414,"1202":14.319647789001465,"1203":14.34634780883789,"1204":14.225557327270508,"1205":-14.359683990478516,"1206":14.26298999786377,"1207":-14.116311073303223,"1208":-14.27861499786377,"1209":-14.357779502868652,"1210":-14.372607231140137,"1211":14.313192367553711,"1212":14.40996265411377,"1213":14.418841361999512,"1214":13.745917320251465,"1215":-14.318483352661133,"1216":14.372435569763184,"1217":-14.205580711364746,"1218":14.404440879821777,"1219":-14.321097373962402,"1220":-14.226737976074219,"1221":14.293354988098145,"1222":-14.409457206726074,"1223":-14.300704002380371,"1224":14.325210571289062,"1225":14.253459930419922,"1226":-14.334512710571289,"1227":-14.222549438476562,"1228":14.408541679382324,"1229":-14.314209938049316,"1230":14.334510803222656,"1231":-14.234477043151855,"1232":14.397100448608398,"1233":14.349390029907227,"1234":-14.293399810791016,"1235":-14.402270317077637,"1236":-14.33327865600586,"1237":14.217795372009277,"1238":-14.321895599365234,"1239":14.360722541809082,"1240":-14.316595077514648,"1241":14.370784759521484,"1242":14.314810752868652,"1243":-14.381290435791016,"1244":-14.247421264648438,"1245":-14.288192749023438,"1246":-14.208734512329102,"1247":-14.280905723571777,"1248":14.347430229187012,"1249":14.399421691894531,"1250":-14.372509956359863,"1251":-14.222687721252441,"1252":-14.386357307434082,"1253":-14.384605407714844,"1254":15.625473022460938,"1255":-13.07685661315918,"1256":13.59351921081543,"1257":15.519161224365234,"1258":-15.674545288085938,"1259":-13.442461967468262,"1260":13.187808990478516,"1261":13.6777982711792,"1262":-11.159297943115234,"1263":13.638442993164062,"1264":-13.295771598815918,"1265":-15.511951446533203,"1266":-10.98193645477295,"1267":-9.979447364807129,"1268":15.650023460388184,"1269":10.983565330505371,"1270":13.00013542175293,"1271":13.47703742980957,"1272":-10.97169303894043,"1273":-13.468557357788086,"1274":-13.65079116821289,"1275":10.911783218383789,"1276":-13.13919448852539,"1277":-13.700921058654785,"1278":13.698649406433105,"1279":-12.573844909667969,"1280":-15.577522277832031,"1281":10.954065322875977,"1282":13.557744979858398,"1283":-15.618724822998047,"1284":-15.644100189208984,"1285":10.949962615966797,"1286":-13.040358543395996,"1287":13.137561798095703,"1288":-13.712944030761719,"1289":10.765780448913574,"1290":10.89189338684082,"1291":-13.708680152893066,"1292":-15.418517112731934,"1293":-13.04098129272461,"1294":13.701666831970215,"1295":-13.663094520568848,"1296":12.961019515991211,"1297":-12.977577209472656,"1298":13.069608688354492,"1299":-13.378915786743164,"1300":-11.070133209228516,"1301":-15.632068634033203,"1302":-15.634239196777344,"1303":-13.654353141784668,"1304":-13.623197555541992,"1305":10.984024047851562,"1306":13.023185729980469,"1307":-13.620196342468262,"1308":-15.612113952636719,"1309":-10.93863582611084,"1310":-13.017892837524414,"1311":-10.666881561279297,"1312":14.308305740356445,"1313":14.393989562988281,"1314":-9.913056373596191,"1315":-14.378758430480957,"1316":-3.562140941619873,"1317":-10.386308670043945,"1318":-6.034173488616943,"1319":-14.400314331054688,"1320":-8.514004707336426,"1321":-10.979903221130371,"1322":10.546473503112793,"1323":-4.737777233123779,"1324":-4.3299689292907715,"1325":-11.103864669799805,"1326":-6.0788092613220215,"1327":-8.107295989990234,"1328":14.316178321838379,"1329":-11.995100975036621,"1330":-6.799440383911133,"1331":-7.196695327758789,"1332":7.1634321212768555,"1333":10.539105415344238,"1334":-14.340120315551758,"1335":-13.341856002807617,"1336":14.400101661682129,"1337":8.978535652160645,"1338":-14.377044677734375,"1339":-3.8535213470458984,"1340":6.176322937011719,"1341":14.314494132995605,"1342":7.698901176452637,"1343":14.356399536132812,"1344":-9.106663703918457,"1345":13.00047779083252,"1346":14.38160514831543,"1347":-3.9389700889587402,"1348":6.418340682983398,"1349":10.535083770751953,"1350":10.00721263885498,"1351":7.770864486694336,"1352":14.366525650024414,"1353":-14.315458297729492,"1354":14.375616073608398,"1355":-14.420852661132812,"1356":-14.393152236938477,"1357":14.317131996154785,"1358":5.183315277099609,"1359":14.335721015930176,"1360":-6.385435104370117,"1361":14.376317024230957,"1362":-14.322782516479492,"1363":-6.782470703125,"1364":-7.311666488647461,"1365":10.18924617767334,"1366":5.689903259277344,"1367":11.0174560546875,"1368":32.6314582824707,"1369":32.746158599853516,"1370":-32.769222259521484,"1371":32.821937561035156,"1372":-32.78654098510742,"1373":32.798709869384766,"1374":32.50565719604492,"1375":32.71978759765625,"1376":32.406707763671875,"1377":32.56589889526367,"1378":32.779579162597656,"1379":32.40521240234375,"1380":32.7355842590332,"1381":32.71767807006836,"1382":-32.46744155883789,"1383":-32.20166778564453,"1384":30.592945098876953,"1385":-32.774803161621094,"1386":32.72746276855469,"1387":-32.69445037841797,"1388":32.803096771240234,"1389":-32.7808723449707,"1390":-32.524566650390625,"1391":32.252227783203125,"1392":-32.77968215942383,"1393":32.492183685302734,"1394":-32.71836853027344,"1395":-32.6930046081543,"1396":32.739017486572266,"1397":-32.76823425292969,"1398":-32.79643630981445,"1399":-32.78557205200195,"1400":-32.580169677734375,"1401":-31.943157196044922,"1402":32.721771240234375,"1403":-32.8143424987793,"1404":-27.158279418945312,"1405":32.527366638183594,"1406":-32.742000579833984,"1407":-32.205657958984375,"1408":-32.75759506225586,"1409":-32.50143814086914,"1410":-31.61849594116211,"1411":32.68368148803711,"1412":32.7932243347168,"1413":32.538997650146484,"1414":32.621578216552734,"1415":-32.81836700439453,"1416":-32.769309997558594,"1417":32.39310836791992,"1418":32.80223083496094,"1419":-32.731849670410156,"1420":-31.2635498046875,"1421":32.80397415161133,"1422":-32.66999053955078,"1423":-16.77448272705078,"1424":-32.71221923828125,"1425":-31.094593048095703,"1426":34.52223205566406,"1427":-30.242088317871094,"1428":42.29948043823242,"1429":-37.978694915771484,"1430":34.33562088012695,"1431":-35.92132568359375,"1432":35.795955657958984,"1433":34.177520751953125,"1434":-98.96078491210938,"1435":31.988346099853516,"1436":33.620033264160156,"1437":37.27780532836914,"1438":35.37853240966797,"1439":-33.69268035888672,"1440":-35.36006164550781,"1441":-36.26902389526367,"1442":31.026451110839844,"1443":35.46883773803711,"1444":-39.105262756347656,"1445":57.80122756958008,"1446":-31.589689254760742,"1447":34.16848373413086,"1448":-34.79450607299805,"1449":44.696022033691406,"1450":38.62807083129883,"1451":-29.933746337890625,"1452":-34.21860885620117,"1453":34.636962890625,"1454":-41.77463912963867,"1455":-34.24465560913086,"1456":-33.63081359863281,"1457":31.60953712463379,"1458":-35.066864013671875,"1459":49.97060775756836,"1460":36.38191604614258,"1461":31.372678756713867,"1462":34.749393463134766,"1463":-40.96327590942383,"1464":37.14356231689453,"1465":-34.51319885253906,"1466":-30.76148223876953,"1467":-37.549652099609375,"1468":35.63214874267578,"1469":64.83209228515625,"1470":32.29597091674805,"1471":37.352535247802734,"1472":-36.16702651977539,"1473":88.73284149169922,"1474":32.507713317871094,"1475":32.354217529296875,"1476":-38.97488784790039,"1477":-33.66423034667969,"1478":32.59803009033203,"1479":-35.10944747924805,"1480":47.93950653076172,"1481":35.19832229614258,"1482":-14.216398239135742,"1483":14.36855697631836,"1484":14.34709358215332,"1485":-14.299357414245605,"1486":14.241947174072266,"1487":-14.303141593933105,"1488":-14.332289695739746,"1489":-14.268054008483887,"1490":-14.202937126159668,"1491":14.301447868347168,"1492":-14.251131057739258,"1493":14.3319730758667,"1494":-14.328353881835938,"1495":-14.219287872314453,"1496":-14.30949592590332,"1497":14.227910995483398,"1498":-14.23259162902832,"1499":14.339061737060547,"1500":-14.255977630615234,"1501":13.902569770812988,"1502":-14.324033737182617,"1503":14.290252685546875,"1504":14.27507495880127,"1505":-14.295969009399414,"1506":14.34489631652832,"1507":-13.896206855773926,"1508":14.26038646697998,"1509":14.295550346374512,"1510":14.313899040222168,"1511":14.281543731689453,"1512":14.202095031738281,"1513":14.249464988708496,"1514":-14.227413177490234,"1515":14.358854293823242,"1516":-14.35205364227295,"1517":14.350146293640137,"1518":14.343198776245117,"1519":-14.314798355102539,"1520":14.252530097961426,"1521":14.300628662109375,"1522":14.294876098632812,"1523":-14.345101356506348,"1524":-14.347516059875488,"1525":14.249156951904297,"1526":-14.250893592834473,"1527":-14.275181770324707,"1528":-14.275492668151855,"1529":14.299636840820312,"1530":14.288722038269043,"1531":-14.250370025634766,"1532":-14.301653861999512,"1533":14.363836288452148,"1534":-14.303556442260742,"1535":-14.2288818359375,"1536":14.23925495147705,"1537":-14.259439468383789,"1538":14.3277587890625,"1539":0.7058054208755493,"1540":-1.1215969324111938,"1541":-0.4149935841560364,"1542":0.10519267618656158,"1543":-0.46281611919403076,"1544":-0.41148149967193604,"1545":0.8114604949951172,"1546":0.43653249740600586,"1547":4.883335113525391,"1548":2.096859931945801,"1549":-1.6028733253479004,"1550":0.6026782393455505,"1551":0.3741586208343506,"1552":0.8277961015701294,"1553":0.7275756597518921,"1554":0.14926065504550934,"1555":1.307447910308838,"1556":-0.1762649565935135,"1557":-0.39110642671585083,"1558":1.5021135807037354,"1559":0.1937781274318695,"1560":0.26821744441986084,"1561":-0.37663495540618896,"1562":-0.38288527727127075,"1563":-0.6380378007888794,"1564":-0.7425862550735474,"1565":-1.2863702774047852,"1566":-0.6531994342803955,"1567":3.549571990966797,"1568":-0.4853328466415405,"1569":0.30901193618774414,"1570":-0.7328058481216431,"1571":0.5945712924003601,"1572":-1.1494768857955933,"1573":-0.5088074207305908,"1574":-0.6872575283050537,"1575":-0.9664500951766968,"1576":-1.5133975744247437,"1577":0.5899884700775146,"1578":-0.8896740078926086,"1579":1.221230387687683,"1580":0.6153681874275208,"1581":0.5510193109512329,"1582":0.7876177430152893,"1583":-0.5932608246803284,"1584":-0.1521957367658615,"1585":0.7484609484672546,"1586":-1.6640801429748535,"1587":-0.22602194547653198,"1588":-1.2690352201461792,"1589":-0.1062687337398529,"1590":-0.8213953375816345,"1591":-1.297502040863037,"1592":0.0007511564181186259,"1593":-0.7524309754371643,"1594":0.9276400804519653,"1595":-0.019197357818484306,"1596":28.30225944519043,"1597":-37.447818756103516,"1598":9.185810089111328,"1599":24.48637580871582,"1600":-27.9390811920166,"1601":-15.197093963623047,"1602":-6.508292198181152,"1603":91.69132995605469,"1604":-73.65806579589844,"1605":18.948686599731445,"1606":26.257627487182617,"1607":-109.36833953857422,"1608":-9.06760025024414,"1609":30.393272399902344,"1610":55.38410568237305,"1611":10.247542381286621,"1612":47.02463912963867,"1613":13.211250305175781,"1614":28.140161514282227,"1615":-61.93022155761719,"1616":-9.312479972839355,"1617":16.450759887695312,"1618":-6.284078121185303,"1619":23.433198928833008,"1620":9.629552841186523,"1621":-47.77091979980469,"1622":-46.93783187866211,"1623":9.563237190246582,"1624":17.73769187927246,"1625":-29.334430694580078,"1626":-34.977989196777344,"1627":10.313109397888184,"1628":-25.915830612182617,"1629":47.08778381347656,"1630":-13.96501636505127,"1631":7.604795455932617,"1632":-11.00844669342041,"1633":-11.816963195800781,"1634":-24.871240615844727,"1635":4.451752185821533,"1636":11.904816627502441,"1637":-10.241077423095703,"1638":-9.898115158081055,"1639":-1.6999852657318115,"1640":28.78243637084961,"1641":-8.730873107910156,"1642":-12.322802543640137,"1643":3.0473480224609375,"1644":-31.84076499938965,"1645":40.623558044433594,"1646":-10.687556266784668,"1647":9.994470596313477,"1648":24.701858520507812,"1649":-8.5194091796875,"1650":-30.817169189453125,"1651":-108.36324310302734,"1652":-25.22884178161621,"1653":7.308261871337891,"1654":-35.990604400634766,"1655":5.78582763671875,"1656":35.93461608886719,"1657":-7.387905597686768,"1658":1.2931573390960693,"1659":35.83870315551758,"1660":7.145177841186523,"1661":-35.964115142822266,"1662":7.205799579620361,"1663":-6.84913444519043,"1664":-7.249603748321533,"1665":-36.218475341796875,"1666":-35.96498489379883,"1667":7.427233695983887,"1668":35.971092224121094,"1669":36.04105758666992,"1670":6.373140335083008,"1671":-36.04804229736328,"1672":15.729330062866211,"1673":-7.129322528839111,"1674":35.8502311706543,"1675":-35.92596435546875,"1676":-7.207304954528809,"1677":7.323983192443848,"1678":-36.06648254394531,"1679":-7.315432071685791,"1680":36.021183013916016,"1681":7.244784355163574,"1682":-7.6181745529174805,"1683":-6.998935222625732,"1684":36.02998352050781,"1685":-36.06327438354492,"1686":36.06561279296875,"1687":-7.201587677001953,"1688":35.511592864990234,"1689":35.942283630371094,"1690":-7.199086666107178,"1691":-36.24116516113281,"1692":-35.962459564208984,"1693":7.159183502197266,"1694":-7.296372413635254,"1695":35.84270477294922,"1696":-36.13454055786133,"1697":8.704985618591309,"1698":3.496209144592285,"1699":-35.9799690246582,"1700":-7.178182601928711,"1701":-7.373541355133057,"1702":-7.045280933380127,"1703":-7.172787666320801,"1704":36.02345657348633,"1705":36.019065856933594,"1706":-8.872150421142578,"1707":-7.193434715270996,"1708":-36.08150100708008,"1709":-36.021907806396484,"1710":1.1823530197143555,"1711":0.8585407733917236,"1712":-1.6062119007110596,"1713":8.035187721252441,"1714":-9.085132598876953,"1715":-0.6724061965942383,"1716":-2.332432746887207,"1717":2.287644863128662,"1718":0.8191964030265808,"1719":1.6541736125946045,"1720":-2.5296294689178467,"1721":-10.456344604492188,"1722":7.419625759124756,"1723":7.0484843254089355,"1724":-0.8659254908561707,"1725":-5.618102550506592,"1726":-1.4504845142364502,"1727":2.4708850383758545,"1728":5.829595565795898,"1729":-1.2206987142562866,"1730":-6.392388820648193,"1731":2.115152597427368,"1732":-6.409006118774414,"1733":-0.07704854011535645,"1734":0.6967331767082214,"1735":1.0906312465667725,"1736":-0.7558792233467102,"1737":-5.367825508117676,"1738":0.814019501209259,"1739":-17.184892654418945,"1740":-5.123235702514648,"1741":2.523083448410034,"1742":1.4352730512619019,"1743":-4.147387981414795,"1744":2.195608377456665,"1745":16.69489288330078,"1746":-1.0664855241775513,"1747":-3.368809461593628,"1748":2.8539175987243652,"1749":3.740673542022705,"1750":-1.8599010705947876,"1751":-0.6741328835487366,"1752":-1.7470993995666504,"1753":1.7322421073913574,"1754":-3.1807398796081543,"1755":2.502774953842163,"1756":1.1314972639083862,"1757":-6.473060607910156,"1758":-5.270936489105225,"1759":-1.5355912446975708,"1760":-5.370110511779785,"1761":-2.0245766639709473,"1762":-0.5393785238265991,"1763":4.171361446380615,"1764":-7.419744968414307,"1765":-0.7937742471694946,"1766":4.153449058532715,"1767":24.53936767578125,"1768":-24.508403778076172,"1769":24.494661331176758,"1770":-24.592628479003906,"1771":24.596298217773438,"1772":24.531591415405273,"1773":-24.518375396728516,"1774":-24.576465606689453,"1775":-24.6130313873291,"1776":-24.596960067749023,"1777":-24.554180145263672,"1778":-24.597806930541992,"1779":-24.546600341796875,"1780":-24.541112899780273,"1781":24.492517471313477,"1782":24.50510025024414,"1783":24.494182586669922,"1784":-24.57180404663086,"1785":-24.497940063476562,"1786":-24.536649703979492,"1787":24.575801849365234,"1788":24.577756881713867,"1789":-24.554039001464844,"1790":24.561328887939453,"1791":-24.495716094970703,"1792":-24.512659072875977,"1793":24.54174041748047,"1794":24.54161262512207,"1795":-24.55898666381836,"1796":-24.588815689086914,"1797":24.502546310424805,"1798":24.57924461364746,"1799":-24.506757736206055,"1800":24.524301528930664,"1801":-24.532024383544922,"1802":-24.573070526123047,"1803":24.543872833251953,"1804":-24.61435890197754,"1805":24.524471282958984,"1806":-24.512630462646484,"1807":24.53278160095215,"1808":24.587995529174805,"1809":24.557262420654297,"1810":-24.57174301147461,"1811":24.537517547607422,"1812":-24.561222076416016,"1813":24.56794548034668,"1814":24.526466369628906,"1815":24.52890968322754,"1816":-24.544769287109375,"1817":-24.52406883239746,"1818":24.522857666015625,"1819":24.5822811126709,"1820":-24.576765060424805,"1821":24.535707473754883,"1822":-24.526615142822266,"1823":-24.506431579589844,"1824":-160.3890380859375,"1825":164.90513610839844,"1826":206.47882080078125,"1827":-184.5576629638672,"1828":181.80801391601562,"1829":-181.15806579589844,"1830":-177.2150115966797,"1831":161.57313537597656,"1832":168.80958557128906,"1833":189.9631805419922,"1834":-231.02500915527344,"1835":156.71109008789062,"1836":124.17990112304688,"1837":168.32005310058594,"1838":-160.27407836914062,"1839":-107.7117691040039,"1840":-165.49600219726562,"1841":186.4341583251953,"1842":145.39239501953125,"1843":94.1007080078125,"1844":-187.97207641601562,"1845":166.98471069335938,"1846":169.8015899658203,"1847":-197.36895751953125,"1848":201.28036499023438,"1849":172.2073516845703,"1850":-189.78565979003906,"1851":-132.46766662597656,"1852":174.08192443847656,"1853":159.6725616455078,"1854":-149.77406311035156,"1855":190.16790771484375,"1856":158.93722534179688,"1857":-147.90679931640625,"1858":-212.02194213867188,"1859":172.24098205566406,"1860":147.12452697753906,"1861":133.15391540527344,"1862":-171.8797607421875,"1863":170.80368041992188,"1864":198.89044189453125,"1865":-180.5091552734375,"1866":-178.07553100585938,"1867":164.11767578125,"1868":-169.60191345214844,"1869":-203.38458251953125,"1870":-164.84365844726562,"1871":155.755126953125,"1872":-179.88693237304688,"1873":50.25446701049805,"1874":120.29853820800781,"1875":178.6077880859375,"1876":-171.3650360107422,"1877":34.05869674682617,"1878":-171.70538330078125,"1879":170.43453979492188,"1880":175.71484375,"1881":-118.55319213867188,"1882":118.54953002929688,"1883":118.46786499023438,"1884":-118.52052307128906,"1885":118.51676940917969,"1886":-118.51730346679688,"1887":-118.51789855957031,"1888":-118.55975341796875,"1889":-118.47203826904297,"1890":-118.43128967285156,"1891":118.44398498535156,"1892":-118.48336791992188,"1893":-118.47763061523438,"1894":-118.52435302734375,"1895":-118.44609069824219,"1896":118.54472351074219,"1897":-118.46874237060547,"1898":118.48114013671875,"1899":-118.505859375,"1900":118.54133605957031,"1901":-118.484130859375,"1902":118.4918212890625,"1903":118.54464721679688,"1904":118.55123901367188,"1905":-118.45089721679688,"1906":-118.5084228515625,"1907":118.53031921386719,"1908":118.56343078613281,"1909":-118.44914245605469,"1910":-118.50289916992188,"1911":118.51959228515625,"1912":118.44332885742188,"1913":118.50283813476562,"1914":-118.49557495117188,"1915":-118.4769287109375,"1916":118.51620483398438,"1917":118.48725891113281,"1918":-118.54560852050781,"1919":118.56015014648438,"1920":118.46278381347656,"1921":118.43659973144531,"1922":118.51296997070312,"1923":118.54843139648438,"1924":-118.45285034179688,"1925":-118.51805877685547,"1926":-118.51885986328125,"1927":118.49508666992188,"1928":118.44364929199219,"1929":118.43981170654297,"1930":118.5435791015625,"1931":118.54591369628906,"1932":118.47219848632812,"1933":118.47946166992188,"1934":-118.47834777832031,"1935":118.44305419921875,"1936":-118.49211120605469,"1937":118.45460510253906,"1938":-57.708194732666016,"1939":-57.689910888671875,"1940":46.165985107421875,"1941":-46.29119110107422,"1942":57.691471099853516,"1943":-46.08622360229492,"1944":-52.125885009765625,"1945":-57.78800964355469,"1946":-57.764305114746094,"1947":-57.78669357299805,"1948":-46.027496337890625,"1949":57.771202087402344,"1950":-57.794898986816406,"1951":-57.73969268798828,"1952":46.034141540527344,"1953":57.69845962524414,"1954":-57.794612884521484,"1955":-57.7908935546875,"1956":-57.71342849731445,"1957":57.726234436035156,"1958":57.77738952636719,"1959":57.7908935546875,"1960":-57.73688888549805,"1961":57.72870635986328,"1962":-57.75873565673828,"1963":-57.750553131103516,"1964":57.67931365966797,"1965":57.74515914916992,"1966":-57.71284484863281,"1967":57.785648345947266,"1968":57.74248504638672,"1969":57.70195007324219,"1970":-57.78339767456055,"1971":57.78814697265625,"1972":-45.92256546020508,"1973":57.77745819091797,"1974":57.7660026550293,"1975":57.697872161865234,"1976":46.791507720947266,"1977":-57.788238525390625,"1978":46.01877975463867,"1979":57.78232192993164,"1980":57.76426315307617,"1981":-57.7817497253418,"1982":-57.70777130126953,"1983":-46.492523193359375,"1984":-57.72810745239258,"1985":57.71112060546875,"1986":57.67680740356445,"1987":-47.424068450927734,"1988":-45.851871490478516,"1989":57.70025634765625,"1990":57.7032585144043,"1991":-48.33638000488281,"1992":57.77653121948242,"1993":-57.79462432861328,"1994":-57.73567581176758,"1995":-0.5668554902076721,"1996":0.602409839630127,"1997":0.8863945603370667,"1998":-0.6239047646522522,"1999":0.6734514236450195,"2000":-0.5541011691093445,"2001":-0.6699078679084778,"2002":0.43682006001472473,"2003":0.561726987361908,"2004":0.6334954500198364,"2005":-1.0314453840255737,"2006":0.586891770362854,"2007":0.22214874625205994,"2008":0.5543103814125061,"2009":-0.5114679932594299,"2010":-0.25946834683418274,"2011":-0.5039690136909485,"2012":0.8011302947998047,"2013":0.3866155445575714,"2014":0.20738013088703156,"2015":-0.6827634572982788,"2016":0.6204858422279358,"2017":0.5517472624778748,"2018":-0.7884617447853088,"2019":0.9188665151596069,"2020":0.6524000763893127,"2021":-0.6797813773155212,"2022":-0.36363810300827026,"2023":0.4909442663192749,"2024":0.615231990814209,"2025":-0.4589957296848297,"2026":0.6440089344978333,"2027":0.5538002252578735,"2028":-0.37970924377441406,"2029":-0.8931416869163513,"2030":0.6446549296379089,"2031":0.4821726679801941,"2032":0.39436426758766174,"2033":-0.532215416431427,"2034":0.4417573809623718,"2035":0.7486178874969482,"2036":-0.7009364366531372,"2037":-0.6755319833755493,"2038":0.46669241786003113,"2039":-0.5455685257911682,"2040":-0.7977260947227478,"2041":-0.620309591293335,"2042":0.5758684873580933,"2043":-0.5441204905509949,"2044":0.11438100785017014,"2045":0.3387492895126343,"2046":0.7571504712104797,"2047":-0.4977656900882721,"2048":0.14694613218307495,"2049":-0.5532206296920776,"2050":0.4201612174510956,"2051":0.6009483337402344,"2052":-14.302061080932617,"2053":13.099327087402344,"2054":14.287271499633789,"2055":-14.099308013916016,"2056":14.27738094329834,"2057":14.084173202514648,"2058":-14.363421440124512,"2059":-14.327667236328125,"2060":14.268752098083496,"2061":14.196285247802734,"2062":-14.234319686889648,"2063":14.367774963378906,"2064":-12.556523323059082,"2065":-14.30732536315918,"2066":-14.304519653320312,"2067":14.255054473876953,"2068":-14.339851379394531,"2069":14.176464080810547,"2070":-14.260839462280273,"2071":-13.919907569885254,"2072":-14.237140655517578,"2073":14.333697319030762,"2074":14.19837760925293,"2075":-14.2523775100708,"2076":14.307404518127441,"2077":14.252397537231445,"2078":14.277946472167969,"2079":14.269465446472168,"2080":-13.871813774108887,"2081":14.298709869384766,"2082":14.011577606201172,"2083":14.28104305267334,"2084":-14.305265426635742,"2085":-14.142598152160645,"2086":-14.23104190826416,"2087":14.318376541137695,"2088":12.595086097717285,"2089":-14.214714050292969,"2090":14.180465698242188,"2091":-14.259410858154297,"2092":13.847728729248047,"2093":-5.010231018066406,"2094":-14.36821174621582,"2095":-8.198465347290039,"2096":-14.314461708068848,"2097":-14.225350379943848,"2098":13.745241165161133,"2099":14.368189811706543,"2100":14.229194641113281,"2101":-14.225753784179688,"2102":-14.120625495910645,"2103":-14.230106353759766,"2104":-14.304412841796875,"2105":-14.27462387084961,"2106":14.18516731262207,"2107":14.212278366088867,"2108":14.361091613769531,"2109":-4.128241062164307,"2110":-196.1155242919922,"2111":3.8132901191711426,"2112":-3.68656063079834,"2113":3.752025604248047,"2114":-79.00576782226562,"2115":-3.874138832092285,"2116":8.83375072479248,"2117":5.739421367645264,"2118":-22.33269500732422,"2119":-4.356865406036377,"2120":3.662476062774658,"2121":-3.960437297821045,"2122":-3.7523441314697266,"2123":6.058156490325928,"2124":3.9817891120910645,"2125":196.16815185546875,"2126":3.746641159057617,"2127":-3.708557605743408,"2128":-9.414291381835938,"2129":-3.7154226303100586,"2130":60.349388122558594,"2131":4.799283981323242,"2132":-3.723863124847412,"2133":3.84586238861084,"2134":6.878694534301758,"2135":33.545013427734375,"2136":3.908647060394287,"2137":53.13261032104492,"2138":10.59780216217041,"2139":118.489501953125,"2140":3.639951705932617,"2141":4.263958930969238,"2142":-23.562591552734375,"2143":-4.480108737945557,"2144":3.830522060394287,"2145":11.538517951965332,"2146":-4.1348490715026855,"2147":4.951998233795166,"2148":25.664836883544922,"2149":3.784759521484375,"2150":-11.980157852172852,"2151":-10.862861633300781,"2152":-4.335430145263672,"2153":-3.9589807987213135,"2154":-4.273283004760742,"2155":7.358717441558838,"2156":4.073191165924072,"2157":3.6775219440460205,"2158":11.690948486328125,"2159":-3.920161247253418,"2160":50.16466522216797,"2161":-32.68727111816406,"2162":-3.795693874359131,"2163":6.034780025482178,"2164":-18.761966705322266,"2165":3.786710739135742,"2166":-66.0860595703125,"2167":63.38995361328125,"2168":42.88283157348633,"2169":-52.83607482910156,"2170":54.279727935791016,"2171":-54.5240592956543,"2172":-56.53556823730469,"2173":65.230224609375,"2174":61.18992614746094,"2175":50.21556091308594,"2176":-33.61984634399414,"2177":68.50961303710938,"2178":84.72106170654297,"2179":61.50318145751953,"2180":-66.1546859741211,"2181":-84.71710205078125,"2182":-62.9586067199707,"2183":51.90924072265625,"2184":76.03924560546875,"2185":84.80448913574219,"2186":-51.20441818237305,"2187":62.228515625,"2188":60.73973083496094,"2189":-46.96527862548828,"2190":45.19025802612305,"2191":59.207611083984375,"2192":-50.37391662597656,"2193":-84.71013641357422,"2194":58.11008834838867,"2195":66.47168731689453,"2196":-73.0703353881836,"2197":50.17887496948242,"2198":66.974853515625,"2199":-74.30496215820312,"2200":-40.682586669921875,"2201":59.17607116699219,"2202":74.82049560546875,"2203":84.72673797607422,"2204":-59.37683868408203,"2205":59.998619079589844,"2206":46.314544677734375,"2207":-54.941123962402344,"2208":-56.113773345947266,"2209":63.81419372558594,"2210":-60.805381774902344,"2211":-44.24814987182617,"2212":-63.461177825927734,"2213":69.21063232421875,"2214":-55.186248779296875,"2215":84.79742431640625,"2216":84.78018188476562,"2217":55.899356842041016,"2218":-59.60319519042969,"2219":84.71697998046875,"2220":-59.53810119628906,"2221":60.31824493408203,"2222":57.251617431640625,"2223":19.523509979248047,"2224":-19.944520950317383,"2225":-19.34084129333496,"2226":19.21933364868164,"2227":-19.074893951416016,"2228":19.092161178588867,"2229":19.094850540161133,"2230":-19.176780700683594,"2231":-19.915687561035156,"2232":-20.035587310791016,"2233":20.181621551513672,"2234":-19.756824493408203,"2235":19.456897735595703,"2236":18.807432174682617,"2237":20.2058162689209,"2238":-19.151548385620117,"2239":19.643089294433594,"2240":-19.480844497680664,"2241":19.18598747253418,"2242":19.927011489868164,"2243":19.169404983520508,"2244":-19.606075286865234,"2245":-19.181819915771484,"2246":19.868465423583984,"2247":-19.17196273803711,"2248":-19.939851760864258,"2249":19.594249725341797,"2250":-19.200103759765625,"2251":-19.59703826904297,"2252":-19.666799545288086,"2253":-19.83489990234375,"2254":-19.164356231689453,"2255":-19.693389892578125,"2256":20.061513900756836,"2257":19.122217178344727,"2258":-19.583175659179688,"2259":-15.859939575195312,"2260":19.904680252075195,"2261":-19.73693084716797,"2262":-19.32323455810547,"2263":-19.22310447692871,"2264":19.015522003173828,"2265":19.505985260009766,"2266":-20.2054500579834,"2267":19.995193481445312,"2268":19.72197151184082,"2269":-18.66802215576172,"2270":-18.914947509765625,"2271":-19.90862464904785,"2272":19.997533798217773,"2273":19.439239501953125,"2274":-19.359264373779297,"2275":19.971248626708984,"2276":19.300695419311523,"2277":-19.551170349121094,"2278":-20.23326301574707,"2279":-19.31618309020996,"2280":-37.30544662475586,"2281":-15.085315704345703,"2282":-16.6066837310791,"2283":20.073633193969727,"2284":-19.972030639648438,"2285":-2.620880603790283,"2286":17.789749145507812,"2287":-0.24674856662750244,"2288":-9.1735200881958,"2289":12.475704193115234,"2290":-14.509535789489746,"2291":16.317829132080078,"2292":-8.99245548248291,"2293":19.48307991027832,"2294":-16.56922721862793,"2295":-15.752694129943848,"2296":-28.046194076538086,"2297":-3.9572770595550537,"2298":16.39828872680664,"2299":-11.548046112060547,"2300":-15.108623504638672,"2301":14.411016464233398,"2302":-14.336895942687988,"2303":-11.332879066467285,"2304":9.090814590454102,"2305":16.642282485961914,"2306":12.594526290893555,"2307":-17.505102157592773,"2308":1.4326783418655396,"2309":16.186233520507812,"2310":-14.586518287658691,"2311":-15.891424179077148,"2312":16.36154556274414,"2313":-11.588796615600586,"2314":14.698384284973145,"2315":-15.88583755493164,"2316":-2.9640660285949707,"2317":18.3995304107666,"2318":-26.85968017578125,"2319":15.318611145019531,"2320":-18.095230102539062,"2321":12.681897163391113,"2322":11.795816421508789,"2323":14.454042434692383,"2324":-30.744285583496094,"2325":16.398839950561523,"2326":-16.237560272216797,"2327":18.127574920654297,"2328":-14.529312133789062,"2329":15.612903594970703,"2330":13.567216873168945,"2331":40.90745544433594,"2332":-16.419418334960938,"2333":14.523448944091797,"2334":11.993255615234375,"2335":16.540245056152344,"2336":14.903057098388672,"2337":-281.240234375,"2338":-281.45037841796875,"2339":281.71893310546875,"2340":-281.7696533203125,"2341":281.4773864746094,"2342":-281.3441467285156,"2343":-282.1241455078125,"2344":-281.6761169433594,"2345":-281.5944519042969,"2346":-281.57037353515625,"2347":-281.46746826171875,"2348":281.7322082519531,"2349":-281.6581115722656,"2350":-281.4656677246094,"2351":281.70263671875,"2352":281.3586120605469,"2353":-282.1611633300781,"2354":-282.01751708984375,"2355":-281.48248291015625,"2356":281.3919982910156,"2357":281.8287353515625,"2358":281.9458923339844,"2359":-281.75201416015625,"2360":281.2946472167969,"2361":-281.7313232421875,"2362":-281.7242126464844,"2363":281.2569274902344,"2364":281.46319580078125,"2365":-281.298828125,"2366":282.11175537109375,"2367":281.5442810058594,"2368":281.4486999511719,"2369":-281.92193603515625,"2370":281.8255920410156,"2371":-281.805908203125,"2372":281.71734619140625,"2373":281.69757080078125,"2374":280.40478515625,"2375":280.0788879394531,"2376":-281.913818359375,"2377":281.3121643066406,"2378":281.6860656738281,"2379":281.49188232421875,"2380":-281.73516845703125,"2381":-281.43853759765625,"2382":-281.0367431640625,"2383":-281.4424743652344,"2384":281.52716064453125,"2385":281.3066711425781,"2386":-282.27911376953125,"2387":-281.101806640625,"2388":281.3509216308594,"2389":281.2298583984375,"2390":-281.5107421875,"2391":281.6036376953125,"2392":-282.0014953613281,"2393":-281.1141662597656,"2394":14.0451021194458,"2395":-14.225324630737305,"2396":-14.132827758789062,"2397":-0.713687002658844,"2398":5.095970630645752,"2399":-13.868145942687988,"2400":13.819900512695312,"2401":-14.226120948791504,"2402":-11.458816528320312,"2403":13.106673240661621,"2404":-8.800825119018555,"2405":-13.776054382324219,"2406":14.184351921081543,"2407":14.212782859802246,"2408":11.70354175567627,"2409":5.245567798614502,"2410":-13.888267517089844,"2411":-14.261802673339844,"2412":11.93802547454834,"2413":11.201541900634766,"2414":14.130352973937988,"2415":-14.169100761413574,"2416":-14.312573432922363,"2417":11.985776901245117,"2418":-14.245380401611328,"2419":-14.19563102722168,"2420":-13.908772468566895,"2421":-14.162739753723145,"2422":-10.558734893798828,"2423":10.943583488464355,"2424":12.874267578125,"2425":7.334253311157227,"2426":-13.876620292663574,"2427":14.26580810546875,"2428":14.140942573547363,"2429":-14.16529369354248,"2430":-14.077916145324707,"2431":10.831392288208008,"2432":-14.210843086242676,"2433":-14.269073486328125,"2434":-14.176398277282715,"2435":11.74133586883545,"2436":8.208721160888672,"2437":14.169034004211426,"2438":-10.203883171081543,"2439":13.448216438293457,"2440":-14.182108879089355,"2441":8.841241836547852,"2442":-13.681536674499512,"2443":-14.280674934387207,"2444":14.151907920837402,"2445":-3.4270660877227783,"2446":-6.7899394035339355,"2447":14.20772933959961,"2448":12.210098266601562,"2449":-11.916877746582031,"2450":-13.386491775512695,"2451":-26.950576782226562,"2452":5.846164226531982,"2453":-13.187885284423828,"2454":6.139668941497803,"2455":-6.7567524909973145,"2456":-6.545740604400635,"2457":-41.76587677001953,"2458":6.601334571838379,"2459":6.35449743270874,"2460":70.5910415649414,"2461":460.4681701660156,"2462":34.706668853759766,"2463":6.380495548248291,"2464":5.961544036865234,"2465":-6.053744316101074,"2466":-46.63063049316406,"2467":-67.86354064941406,"2468":-33.784053802490234,"2469":5.972626686096191,"2470":66.669189453125,"2471":-58.96934127807617,"2472":-316.4934387207031,"2473":-26.804813385009766,"2474":-73.29231262207031,"2475":49.507633209228516,"2476":6.648028373718262,"2477":-4.541660308837891,"2478":-7.882325649261475,"2479":8.436984062194824,"2480":37.23023223876953,"2481":-6.4212188720703125,"2482":-218.27297973632812,"2483":88.80253601074219,"2484":-56.315834045410156,"2485":-27.61146354675293,"2486":45.33720016479492,"2487":16.500349044799805,"2488":-25.533475875854492,"2489":13.232819557189941,"2490":7.6110029220581055,"2491":-43.780517578125,"2492":-9.35268497467041,"2493":-6.886483669281006,"2494":9.055685043334961,"2495":-24.129680633544922,"2496":185.6533203125,"2497":-15.030818939208984,"2498":-5.7932209968566895,"2499":-5.877147674560547,"2500":61.87823486328125,"2501":190.26446533203125,"2502":-5.562276363372803,"2503":-6.316426753997803,"2504":5.951037883758545,"2505":-6.668924331665039,"2506":6.132126808166504,"2507":45.916255950927734,"2508":-205.32789611816406,"2509":-203.19186401367188,"2510":208.1518096923828,"2511":-31.748056411743164,"2512":31.47674560546875,"2513":65.1779556274414,"2514":-30.596179962158203,"2515":-198.47909545898438,"2516":-31.67157554626465,"2517":-221.7952117919922,"2518":-210.26222229003906,"2519":-149.20323181152344,"2520":-206.71578979492188,"2521":-31.204130172729492,"2522":31.20050811767578,"2523":233.46014404296875,"2524":-153.61126708984375,"2525":28.60987663269043,"2526":-32.21725845336914,"2527":-8.171929359436035,"2528":-31.312889099121094,"2529":205.88397216796875,"2530":183.35159301757812,"2531":-206.80978393554688,"2532":14.374738693237305,"2533":-173.6475372314453,"2534":31.29400634765625,"2535":30.98126220703125,"2536":-37.23352813720703,"2537":31.972501754760742,"2538":205.9978485107422,"2539":208.26968383789062,"2540":-3.7377820014953613,"2541":-165.29910278320312,"2542":5.8021697998046875,"2543":-108.30206298828125,"2544":-56.134361267089844,"2545":-30.994632720947266,"2546":31.48850440979004,"2547":-49.84445571899414,"2548":204.46478271484375,"2549":40.5507698059082,"2550":31.633434295654297,"2551":-26.558916091918945,"2552":2.8304336071014404,"2553":-31.407939910888672,"2554":5.047087669372559,"2555":203.37594604492188,"2556":31.307605743408203,"2557":-27.397525787353516,"2558":-234.48724365234375,"2559":153.2466583251953,"2560":31.918977737426758,"2561":-31.718944549560547,"2562":207.64630126953125,"2563":-3.656263589859009,"2564":3.9931602478027344,"2565":-5.006710052490234,"2566":-13.654366493225098,"2567":13.151060104370117,"2568":-13.03839111328125,"2569":13.801797866821289,"2570":-13.501468658447266,"2571":-13.816971778869629,"2572":-3.085111141204834,"2573":-13.702199935913086,"2574":-13.631518363952637,"2575":13.816973686218262,"2576":-0.41855478286743164,"2577":-7.240990161895752,"2578":-13.877836227416992,"2579":13.80749225616455,"2580":2.9264159202575684,"2581":4.869880676269531,"2582":2.1558125019073486,"2583":-13.807948112487793,"2584":13.74545955657959,"2585":-13.738652229309082,"2586":12.88200569152832,"2587":13.236963272094727,"2588":12.839241981506348,"2589":13.822309494018555,"2590":-12.693782806396484,"2591":-13.829928398132324,"2592":12.784842491149902,"2593":-0.7218411564826965,"2594":5.226666450500488,"2595":-13.829885482788086,"2596":12.976046562194824,"2597":2.9527435302734375,"2598":13.912397384643555,"2599":-5.6522440910339355,"2600":8.99087905883789,"2601":1.4536041021347046,"2602":0.22148901224136353,"2603":6.235292911529541,"2604":11.001121520996094,"2605":13.813671112060547,"2606":-13.859387397766113,"2607":-2.130631923675537,"2608":-13.770744323730469,"2609":11.131073951721191,"2610":-0.7526166439056396,"2611":-13.83671760559082,"2612":13.818081855773926,"2613":-13.528460502624512,"2614":12.734573364257812,"2615":5.275651931762695,"2616":12.885766983032227,"2617":13.370528221130371,"2618":-13.290008544921875,"2619":-7.5661163330078125,"2620":-13.835264205932617,"2621":13.638242721557617,"2622":-15.842251777648926,"2623":-14.668275833129883,"2624":11.77914047241211,"2625":-15.832832336425781,"2626":8.363801002502441,"2627":-19.76288604736328,"2628":-9.801006317138672,"2629":16.138011932373047,"2630":-9.154820442199707,"2631":-17.328216552734375,"2632":-6.43086051940918,"2633":6.010259628295898,"2634":18.155765533447266,"2635":-6.513227462768555,"2636":-14.056793212890625,"2637":13.364398002624512,"2638":-8.462042808532715,"2639":19.334836959838867,"2640":-20.324710845947266,"2641":9.334471702575684,"2642":-9.22570514678955,"2643":16.0919132232666,"2644":16.048599243164062,"2645":-18.363704681396484,"2646":9.050511360168457,"2647":14.158845901489258,"2648":-10.798247337341309,"2649":12.121184349060059,"2650":6.6856536865234375,"2651":-14.6029691696167,"2652":12.697650909423828,"2653":-13.670997619628906,"2654":7.709663391113281,"2655":10.111649513244629,"2656":22.433805465698242,"2657":14.471312522888184,"2658":6.412511825561523,"2659":17.264324188232422,"2660":12.431192398071289,"2661":16.683975219726562,"2662":9.349235534667969,"2663":16.839433670043945,"2664":-17.65264320373535,"2665":-4.203033924102783,"2666":19.05813980102539,"2667":21.197446823120117,"2668":0.1792539656162262,"2669":7.066111087799072,"2670":19.422954559326172,"2671":-6.1251139640808105,"2672":-5.558413982391357,"2673":2.863314151763916,"2674":20.39787483215332,"2675":-5.38423490524292,"2676":12.410520553588867,"2677":10.400003433227539,"2678":17.285459518432617,"2679":-3.226301670074463,"2680":3.23486590385437,"2681":-3.7239365577697754,"2682":-2.73966121673584,"2683":-3.6491267681121826,"2684":-2.950331687927246,"2685":2.1447689533233643,"2686":3.5509023666381836,"2687":3.2388453483581543,"2688":-2.7029857635498047,"2689":3.935039520263672,"2690":-2.6381020545959473,"2691":3.3497190475463867,"2692":3.8240866661071777,"2693":-3.2512221336364746,"2694":-3.3711657524108887,"2695":-3.2279298305511475,"2696":3.4020676612854004,"2697":3.8894433975219727,"2698":3.4343209266662598,"2699":-3.3102638721466064,"2700":-3.889981269836426,"2701":7.3133344650268555,"2702":3.260202407836914,"2703":-3.756744861602783,"2704":3.2062113285064697,"2705":-3.5080997943878174,"2706":-3.4023208618164062,"2707":3.491387367248535,"2708":-2.7281992435455322,"2709":-3.5455451011657715,"2710":-3.2686851024627686,"2711":3.0060081481933594,"2712":-1.2225643396377563,"2713":3.5135295391082764,"2714":3.2485177516937256,"2715":3.3647007942199707,"2716":3.5989010334014893,"2717":-4.0223212242126465,"2718":3.3634660243988037,"2719":-3.9036850929260254,"2720":-3.68764066696167,"2721":-3.3296878337860107,"2722":3.033853054046631,"2723":-3.102076530456543,"2724":3.1107723712921143,"2725":-3.573103904724121,"2726":-2.2222158908843994,"2727":-3.8638596534729004,"2728":3.9950454235076904,"2729":3.1379220485687256,"2730":3.257801055908203,"2731":-3.1077959537506104,"2732":3.817350387573242,"2733":-3.790501594543457,"2734":3.201756477355957,"2735":3.3005523681640625,"2736":-0.9035634994506836,"2737":-5.097018241882324,"2738":0.6084122061729431,"2739":-8.017618179321289,"2740":-14.024452209472656,"2741":-0.8257887959480286,"2742":-1.4264326095581055,"2743":-1.5708258152008057,"2744":-4.940925121307373,"2745":-0.8740785121917725,"2746":-0.3194133937358856,"2747":-0.46645957231521606,"2748":-0.9525188207626343,"2749":-3.4312729835510254,"2750":0.6526439785957336,"2751":1.0387237071990967,"2752":0.4687291979789734,"2753":-0.6851637959480286,"2754":14.476262092590332,"2755":0.9204784035682678,"2756":-0.8066872358322144,"2757":1.126930594444275,"2758":0.7564810514450073,"2759":0.673067033290863,"2760":-0.3816346824169159,"2761":-0.9589666128158569,"2762":0.5022455453872681,"2763":1.6098101139068604,"2764":-0.6770992279052734,"2765":0.9765673875808716,"2766":0.5370278358459473,"2767":3.857865333557129,"2768":-0.5918008089065552,"2769":5.517521381378174,"2770":-0.421375572681427,"2771":0.9371988773345947,"2772":0.4773194193840027,"2773":-0.4421555697917938,"2774":0.5377995371818542,"2775":-0.5489658117294312,"2776":0.6747158169746399,"2777":0.3561592102050781,"2778":0.509833812713623,"2779":-3.9508543014526367,"2780":-0.5466210246086121,"2781":-0.5529480576515198,"2782":-1.1996519565582275,"2783":-11.598146438598633,"2784":0.5975509881973267,"2785":-1.62934410572052,"2786":-0.47382211685180664,"2787":2.995551586151123,"2788":1.4719408750534058,"2789":-0.8450621962547302,"2790":0.8968139290809631,"2791":-1.9487074613571167,"2792":1.4222962856292725,"2793":-1.7796576023101807,"2794":14.408803939819336,"2795":1.7942674160003662,"2796":-0.5557479858398438,"2797":0.7427838444709778,"2798":2.531826972961426,"2799":-0.6018992066383362,"2800":14.39632511138916,"2801":-1.395973563194275,"2802":-2.0999462604522705,"2803":1.438078761100769,"2804":-1.0561530590057373,"2805":-0.6478067636489868,"2806":-0.7255902886390686,"2807":-2.7169113159179688,"2808":1.2133598327636719,"2809":1.5276196002960205,"2810":14.341191291809082,"2811":-0.7003403902053833,"2812":-1.9721193313598633,"2813":6.276459693908691,"2814":2.330125331878662,"2815":-1.1867833137512207,"2816":1.186666488647461,"2817":14.31623363494873,"2818":14.339705467224121,"2819":-2.569695472717285,"2820":0.5432383418083191,"2821":5.43113899230957,"2822":1.3518495559692383,"2823":5.147121906280518,"2824":0.9266901016235352,"2825":-0.6562133431434631,"2826":2.0347723960876465,"2827":-7.404577255249023,"2828":0.6806246042251587,"2829":1.2637680768966675,"2830":-14.35999870300293,"2831":1.0902220010757446,"2832":-13.86463737487793,"2833":2.010094404220581,"2834":-12.874170303344727,"2835":2.917344093322754,"2836":-2.176547050476074,"2837":-3.420748710632324,"2838":-1.1463528871536255,"2839":-1.5899372100830078,"2840":-1.6483523845672607,"2841":1.608218789100647,"2842":1.7994422912597656,"2843":0.8711850047111511,"2844":5.882111549377441,"2845":0.6905004382133484,"2846":0.8726385235786438,"2847":1.8419320583343506,"2848":-0.6303756833076477,"2849":-1.691854476928711,"2850":84.5610580444336,"2851":124.62045288085938,"2852":-23.94464874267578,"2853":33.53904342651367,"2854":-26.143709182739258,"2855":115.6993408203125,"2856":-7.26561975479126,"2857":124.32632446289062,"2858":106.2226333618164,"2859":29.568077087402344,"2860":116.89663696289062,"2861":1.73288094997406,"2862":94.7248764038086,"2863":21.702537536621094,"2864":-1.6193639039993286,"2865":-116.29134368896484,"2866":-34.992637634277344,"2867":123.80636596679688,"2868":76.86996459960938,"2869":-125.51061248779297,"2870":109.4440689086914,"2871":-116.25933074951172,"2872":-123.92366027832031,"2873":-6.3169755935668945,"2874":93.78705596923828,"2875":119.20419311523438,"2876":-108.65948486328125,"2877":-4.232642650604248,"2878":124.61076354980469,"2879":19.14392852783203,"2880":-120.62680053710938,"2881":-101.07781219482422,"2882":-15.553526878356934,"2883":-124.10055541992188,"2884":105.5886001586914,"2885":-111.62849426269531,"2886":1.8226735591888428,"2887":-14.243692398071289,"2888":-28.16262435913086,"2889":120.76522827148438,"2890":-17.567228317260742,"2891":-111.09076690673828,"2892":-106.3363037109375,"2893":125.54415893554688,"2894":19.589784622192383,"2895":33.02790451049805,"2896":12.608407974243164,"2897":-111.21025848388672,"2898":-105.82609558105469,"2899":99.0547866821289,"2900":122.71286010742188,"2901":-124.536376953125,"2902":-4.251007080078125,"2903":109.60110473632812,"2904":-116.46206665039062,"2905":15.891551971435547,"2906":-105.65973663330078,"2907":0.8389861583709717,"2908":-0.42679888010025024,"2909":-0.377406507730484,"2910":14.489522933959961,"2911":-5.067291736602783,"2912":-14.174962043762207,"2913":0.2682951092720032,"2914":0.23523715138435364,"2915":0.7644710540771484,"2916":-3.213931083679199,"2917":1.2403135299682617,"2918":-0.5712008476257324,"2919":0.4265000820159912,"2920":1.4902318716049194,"2921":2.611982822418213,"2922":-2.5948326587677,"2923":1.0011886358261108,"2924":-0.254961222410202,"2925":2.7533435821533203,"2926":1.167362928390503,"2927":7.928396224975586,"2928":-0.4638306498527527,"2929":-1.4219218492507935,"2930":-2.7049221992492676,"2931":-0.25325217843055725,"2932":-1.0662174224853516,"2933":3.2477803230285645,"2934":-0.35227257013320923,"2935":5.680259704589844,"2936":-0.524219810962677,"2937":-14.381783485412598,"2938":-1.0032864809036255,"2939":0.5803993940353394,"2940":-0.20700548589229584,"2941":0.542402446269989,"2942":-0.2733515202999115,"2943":-0.29831695556640625,"2944":0.35548192262649536,"2945":-3.0996997356414795,"2946":-14.40062141418457,"2947":-2.816920757293701,"2948":0.19629453122615814,"2949":0.24174991250038147,"2950":-1.0563642978668213,"2951":1.0450010299682617,"2952":14.404195785522461,"2953":0.2014307975769043,"2954":-0.3496563732624054,"2955":-0.42879346013069153,"2956":0.586791455745697,"2957":-2.60294771194458,"2958":-0.36085426807403564,"2959":-13.064214706420898,"2960":1.307454228401184,"2961":3.753316879272461,"2962":0.2514614164829254,"2963":-0.22326987981796265,"2964":14.408415794372559,"2965":8.292585372924805,"2966":14.396623611450195,"2967":14.416264533996582,"2968":-14.325128555297852,"2969":14.358345031738281,"2970":-14.31408977508545,"2971":-14.323872566223145,"2972":14.360662460327148,"2973":14.34184741973877,"2974":14.311741828918457,"2975":14.349723815917969,"2976":-14.409612655639648,"2977":14.321869850158691,"2978":-14.409317016601562,"2979":-14.326249122619629,"2980":14.334741592407227,"2981":5.741140842437744,"2982":14.420196533203125,"2983":-14.35899543762207,"2984":-14.363723754882812,"2985":12.010283470153809,"2986":12.987284660339355,"2987":-14.37301254272461,"2988":5.895576477050781,"2989":14.224909782409668,"2990":-14.39261245727539,"2991":12.844766616821289,"2992":14.374223709106445,"2993":14.314240455627441,"2994":-14.381758689880371,"2995":-14.393014907836914,"2996":14.35735034942627,"2997":14.322381973266602,"2998":-14.401193618774414,"2999":14.391022682189941,"3000":14.334737777709961,"3001":-5.447790145874023,"3002":-14.382946014404297,"3003":14.422530174255371,"3004":-14.387969017028809,"3005":-5.887875556945801,"3006":-6.929494380950928,"3007":12.652756690979004,"3008":14.321593284606934,"3009":14.30688762664795,"3010":-12.634112358093262,"3011":14.333096504211426,"3012":14.315801620483398,"3013":-14.397698402404785,"3014":13.222098350524902,"3015":14.340727806091309,"3016":-14.352325439453125,"3017":14.348771095275879,"3018":-14.35257625579834,"3019":-14.37729549407959,"3020":5.345832347869873,"3021":1.9059691429138184,"3022":2.9287869930267334,"3023":2.580381155014038,"3024":-2.207254409790039,"3025":7.885320663452148,"3026":-4.361715793609619,"3027":-2.492330551147461,"3028":3.9118146896362305,"3029":4.628665924072266,"3030":6.441812992095947,"3031":4.167601108551025,"3032":-5.429450988769531,"3033":-2.152970314025879,"3034":-14.400988578796387,"3035":1.9560878276824951,"3036":4.876815319061279,"3037":2.6585209369659424,"3038":1.6833813190460205,"3039":10.796110153198242,"3040":-2.9319686889648438,"3041":-2.359943389892578,"3042":14.109335899353027,"3043":6.909867763519287,"3044":-5.788978576660156,"3045":1.9989399909973145,"3046":14.360905647277832,"3047":-10.798823356628418,"3048":1.7582882642745972,"3049":14.368229866027832,"3050":-1.7592449188232422,"3051":-6.430540084838867,"3052":10.83821964263916,"3053":5.73206090927124,"3054":2.2130250930786133,"3055":-2.578596591949463,"3056":3.1928250789642334,"3057":3.26442551612854,"3058":-3.0943665504455566,"3059":-2.842913866043091,"3060":4.291676044464111,"3061":3.4751572608947754,"3062":-9.262733459472656,"3063":-14.325570106506348,"3064":14.38203239440918,"3065":-3.2274832725524902,"3066":-2.9625532627105713,"3067":14.349607467651367,"3068":-3.9447240829467773,"3069":14.388288497924805,"3070":-14.411243438720703,"3071":-3.5355467796325684,"3072":14.361625671386719,"3073":14.34243392944336,"3074":-1.679572582244873,"3075":-2.427563190460205,"3076":14.370854377746582,"3077":3.07371187210083,"3078":14.217370986938477,"3079":-14.372270584106445,"3080":-14.399589538574219,"3081":-14.201481819152832,"3082":-7.660347938537598,"3083":-14.219804763793945,"3084":14.313215255737305,"3085":-14.310912132263184,"3086":14.179780960083008,"3087":14.324101448059082,"3088":-14.209651947021484,"3089":-14.279884338378906,"3090":14.401074409484863,"3091":14.385109901428223,"3092":14.249056816101074,"3093":14.26025104522705,"3094":-14.348445892333984,"3095":-14.358147621154785,"3096":-11.625447273254395,"3097":-14.22622299194336,"3098":14.379731178283691,"3099":-14.319740295410156,"3100":-14.418912887573242,"3101":14.292155265808105,"3102":-14.331222534179688,"3103":-14.334569931030273,"3104":-14.216178894042969,"3105":-14.379359245300293,"3106":-14.341424942016602,"3107":-10.732994079589844,"3108":-14.32151985168457,"3109":-14.237083435058594,"3110":-11.118176460266113,"3111":14.31207275390625,"3112":14.295523643493652,"3113":-14.413348197937012,"3114":-14.334705352783203,"3115":-11.85827350616455,"3116":-14.350563049316406,"3117":-14.305156707763672,"3118":-14.390515327453613,"3119":-12.803885459899902,"3120":-14.285520553588867,"3121":14.340635299682617,"3122":9.80003833770752,"3123":13.458712577819824,"3124":-14.339651107788086,"3125":14.054253578186035,"3126":-14.337552070617676,"3127":-14.275757789611816,"3128":14.317643165588379,"3129":-14.27148723602295,"3130":12.564170837402344,"3131":14.32742977142334,"3132":14.297250747680664,"3133":-14.159224510192871,"3134":-14.268034934997559,"3135":-10.743449211120605,"3136":-25.671035766601562,"3137":-12.065457344055176,"3138":-21.99945640563965,"3139":-0.04626765474677086,"3140":21.0779972076416,"3141":2.6324849128723145,"3142":-27.654020309448242,"3143":3.15193510055542,"3144":-25.390480041503906,"3145":-0.938004732131958,"3146":-24.16465950012207,"3147":-26.88507080078125,"3148":-0.07121062278747559,"3149":2.1825485229492188,"3150":26.230417251586914,"3151":-1.5640599727630615,"3152":21.75126838684082,"3153":3.32460880279541,"3154":26.887414932250977,"3155":0.8112670183181763,"3156":17.11069679260254,"3157":15.162822723388672,"3158":27.716991424560547,"3159":7.262955665588379,"3160":-24.15816879272461,"3161":1.6856410503387451,"3162":5.888439178466797,"3163":-21.15524673461914,"3164":-5.26090145111084,"3165":26.34211540222168,"3166":20.250886917114258,"3167":-5.669544219970703,"3168":26.680500030517578,"3169":2.3792953491210938,"3170":11.793692588806152,"3171":19.115753173828125,"3172":-4.76066780090332,"3173":12.863382339477539,"3174":1.2501556873321533,"3175":4.457642078399658,"3176":-0.8129412531852722,"3177":-1.3369534015655518,"3178":-25.55085563659668,"3179":4.078347206115723,"3180":-26.659425735473633,"3181":0.3710027039051056,"3182":10.108894348144531,"3183":9.196277618408203,"3184":-0.59529709815979,"3185":-22.706787109375,"3186":22.603097915649414,"3187":26.244361877441406,"3188":6.046716213226318,"3189":26.80231285095215,"3190":-16.675966262817383,"3191":-1.364190697669983,"3192":13.684767723083496,"3193":14.391241073608398,"3194":13.978236198425293,"3195":13.434800148010254,"3196":14.497276306152344,"3197":-13.440025329589844,"3198":15.32760238647461,"3199":13.629989624023438,"3200":12.597834587097168,"3201":-15.612255096435547,"3202":-14.197578430175781,"3203":-14.49324893951416,"3204":13.974302291870117,"3205":-15.153331756591797,"3206":-13.962843894958496,"3207":12.652680397033691,"3208":14.143315315246582,"3209":4.279422283172607,"3210":13.886270523071289,"3211":12.487577438354492,"3212":14.456913948059082,"3213":-13.460592269897461,"3214":-13.676351547241211,"3215":-13.633605003356934,"3216":-14.57828426361084,"3217":13.593732833862305,"3218":-14.120434761047363,"3219":-13.95906925201416,"3220":13.843441009521484,"3221":14.770818710327148,"3222":14.74642276763916,"3223":14.881805419921875,"3224":-13.502026557922363,"3225":-13.989604949951172,"3226":13.816255569458008,"3227":14.700594902038574,"3228":2.7537779808044434,"3229":-13.593145370483398,"3230":-14.249015808105469,"3231":-13.997398376464844,"3232":14.032503128051758,"3233":14.407896041870117,"3234":14.57131576538086,"3235":13.589641571044922,"3236":-14.451496124267578,"3237":14.296375274658203,"3238":-15.310863494873047,"3239":-13.512988090515137,"3240":-9.170223236083984,"3241":15.072282791137695,"3242":14.501531600952148,"3243":-8.352216720581055,"3244":-13.905834197998047,"3245":-15.232280731201172,"3246":-13.902400970458984,"3247":-14.076818466186523,"3248":-14.449094772338867,"3249":0.03437693044543266,"3250":-0.005184621550142765,"3251":0.020843656733632088,"3252":-0.04957833141088486,"3253":-0.0024943011812865734,"3254":-0.01191558875143528,"3255":0.03840315714478493,"3256":0.041947923600673676,"3257":0.0194289218634367,"3258":-0.05229678377509117,"3259":-0.01810363121330738,"3260":-0.04125577211380005,"3261":-0.005891870707273483,"3262":0.05610309913754463,"3263":-0.03341658413410187,"3264":-0.019775202497839928,"3265":0.057049889117479324,"3266":0.04946538060903549,"3267":-0.02229176089167595,"3268":-0.056323543190956116,"3269":-0.005238196812570095,"3270":-0.059985801577568054,"3271":-0.02681434340775013,"3272":-0.058700501918792725,"3273":0.05489301681518555,"3274":0.030380845069885254,"3275":0.028991732746362686,"3276":0.02272982709109783,"3277":0.01737300679087639,"3278":-0.03246694803237915,"3279":-0.05172060430049896,"3280":-0.04262743145227432,"3281":0.05716843158006668,"3282":0.05753204599022865,"3283":0.025204073637723923,"3284":-0.04227577522397041,"3285":0.025485809892416,"3286":-0.032047417014837265,"3287":0.024025650694966316,"3288":-0.006315802689641714,"3289":-0.02728322148323059,"3290":0.05210205912590027,"3291":0.01951853185892105,"3292":-0.04195193946361542,"3293":-0.033203307539224625,"3294":0.056984007358551025,"3295":0.02951858937740326,"3296":-0.006590097211301327,"3297":0.03372679650783539,"3298":0.04380703344941139,"3299":0.04924197122454643,"3300":0.03799382597208023,"3301":0.03195173293352127,"3302":-0.003733246121555567,"3303":0.014191664755344391,"3304":0.04630368575453758,"3305":0.05445453152060509}},"hiddenLayers":[{"inputMatrix":{"rows":20,"columns":57,"weights":{"0":-12.828484535217285,"1":17.694664001464844,"2":-15.481063842773438,"3":14.872014999389648,"4":-15.013006210327148,"5":12.547398567199707,"6":13.395010948181152,"7":-14.960227966308594,"8":-19.289960861206055,"9":-14.291563034057617,"10":14.07607650756836,"11":15.8313570022583,"12":13.326027870178223,"13":11.665053367614746,"14":-15.212560653686523,"15":-13.623193740844727,"16":-14.031258583068848,"17":-17.040802001953125,"18":15.596630096435547,"19":18.258869171142578,"20":13.96328353881836,"21":-14.607775688171387,"22":-17.543378829956055,"23":15.212169647216797,"24":-13.66689682006836,"25":9.831927299499512,"26":13.703975677490234,"27":-14.213798522949219,"28":-13.816384315490723,"29":14.632636070251465,"30":17.612422943115234,"31":-15.262992858886719,"32":18.64391326904297,"33":-13.452352523803711,"34":12.75412654876709,"35":-13.996920585632324,"36":-15.365306854248047,"37":14.68583869934082,"38":15.33956527709961,"39":-14.204405784606934,"40":-15.49608039855957,"41":13.83474349975586,"42":17.47053337097168,"43":14.796257019042969,"44":12.701812744140625,"45":12.876461029052734,"46":11.126686096191406,"47":-12.079504013061523,"48":12.058211326599121,"49":13.063995361328125,"50":15.677936553955078,"51":-14.714041709899902,"52":9.487981796264648,"53":14.575940132141113,"54":15.201257705688477,"55":17.78710174560547,"56":-12.971613883972168,"57":-14.30575942993164,"58":-3.560296058654785,"59":14.338228225708008,"60":-14.365912437438965,"61":14.345969200134277,"62":11.750757217407227,"63":-14.293142318725586,"64":-13.973233222961426,"65":11.665464401245117,"66":14.083008766174316,"67":-14.33145809173584,"68":14.29690933227539,"69":-6.02081823348999,"70":-14.302719116210938,"71":-14.222211837768555,"72":14.201148986816406,"73":-14.33165168762207,"74":14.227141380310059,"75":-14.300552368164062,"76":-14.054024696350098,"77":-14.253707885742188,"78":14.299525260925293,"79":14.067201614379883,"80":-14.309183120727539,"81":14.077092170715332,"82":14.308818817138672,"83":14.301737785339355,"84":14.299788475036621,"85":-12.248711585998535,"86":14.06307601928711,"87":14.340163230895996,"88":14.168721199035645,"89":-11.247899055480957,"90":-14.334505081176758,"91":-14.286227226257324,"92":14.284132957458496,"93":-12.805150032043457,"94":-14.241114616394043,"95":14.317621231079102,"96":-14.191221237182617,"97":14.069316864013672,"98":14.042502403259277,"99":-11.625391006469727,"100":-13.362991333007812,"101":-14.230929374694824,"102":-14.274922370910645,"103":14.324605941772461,"104":14.01848030090332,"105":14.327388763427734,"106":-14.338187217712402,"107":-14.322685241699219,"108":-14.37848949432373,"109":-14.319840431213379,