{"type":"LSTM","options":{"inputSize":57,"inputRange":57,"hiddenLayers":[20,20],"outputSize":57,"decayRate":0.999,"smoothEps":1e-8,"regc":0.000001,"clipval":5,"maxPredictionLength":100,"dataFormatter":{"values":["Give me the summary","1","What's the summary?","How is everything loking like?","Give me an update of things","How are the product sales statistics looking?","Give me an overview of sales statistics","What do you have for the day?","How is my day looking like?","Which brand has the highest sales?","What about the lowest?","0","How about the lowest?","Brand with highest sales","What about the one with lowest sales?","Brand with lowest sales","Top selling brand","Least selling brand","Brand with maximum sales","Brand with minimum sales","Which year had the highest sales","Which year had least sales","Year with minimum sales","Year with least sales","Which year had lowest sales?","Which year had maximum sales?","Which year had minimum sales?","Which year had the most highest sales?","Which year had the most less sales?","What about the sales for this year?","What about sales for 2020?","What about sales for 2019","What about sales for last year?","What about sales for previous year?","What about sales for past year?","What about sales for next year?","What about sales for 2021?","What about sales for year before this?","Among which year sales was the least?","Most selling year","Least selling year","Maximum selling year","Minimum selling year","Which income group contributed highest to the sales?","Which income group contributed maximum to the sales?","Which income group contributed minimum to the sales?","Which income group contributed least to the sales?","Which age group contributed highest to the sales?","Which age group contributed maximum to the sales?","Which age group contributed minimum to the sales?","Which age group contributed least to the sales?","Among all brands, who sold the highest?","Among all brands, who sold second highest?","Among all brands, who sold third highest?","Among all brands, who sold fourth highest?","Among all brands, who sold fifth highest?","Among all age groups, who sold the highest?","Among all age groups, who sold second highest?","Among all age groups, who sold third highest?","Among all age groups, who sold fourth highest?","Among all age groups, who sold fifth highest?","Among all income groups, who sold the highest?","Among all income groups, who sold second highest?","Among all income groups, who sold third highest?","Among all income groups, who sold fourth highest?","Among all income groups, who sold fifth highest?","Among all years, which year saw the third highest sales?","Among all years, which year saw the fourth highest sales?","Among all years, which year saw the second highest sales?","Among all years, which year saw the fifth highest sales?","How does sales of Dell and Samsung vary?","How does sales of Lenovo and Samsung differ?","Whose sales is highest: Lenovo or Samsung?","Among Canon and Apple, who sold more?","Among Apple, Canon, Lenovo and Samsung, whose sales was the highest?","Among Apple, Canon, Lenovo and Samsung, whose sales was the least?","Off Apple, Canon and Acer, who has the highest sales percentage","Off Apple, Canon and Acer, who has the least sales percentage","How does sales vary between age group 25-30 and 30-35?","How does sales vary between age group 30-35 and 35-40?","How does sales vary between age groups 40-50 and greater than 50?","Off age groups 25-30 and 30 to 35 who has the highest sales?","Off age groups 40-50, 30-35 and 35-40 who has the highest sales?","How does sales vary between income groups 60000-80000 and 80000-100000?","How does sales vary between income groups 60000-80000, 150000-200000 and 80000-100000?","Off income groups 60000-80000, 80000-10000 and 150000-200000 who has the highest sales?","Off income groups 60000-80000, 80000-10000 and 150000-200000 who has the least sales?","How does sales differ between 2019, 2018 and 2017","How does sales vary between 2016, 2017, 2018 and 2019?","How does sales vary between this year and last year?","How does sales differ between this year and previous year?","How does sales vary between current year and previous year?","Off 2016 and 2017, which year had the highest sales?","Off 2016, 2017 and 2018, which year had the least sales?","Show me more functions","Show me more choices","What else we can do?","Show me something more","Show me more to do","Show me more options","Show me other options","Show me some additional things to do","Get me additional options","What are some other options","Give me more options","Show me something different","First Message","FirstMessage","Get me statistics for sales by age group","Sales by age group","Show me sales by age group","Show me sales from age group less than 25","Sales from age group 25-30","Sales from age group 30-35","What is the sales from age group 35-40","Give me the sales from 40-50 age group","What's the sales from age group greater than 50","What is the contribution of sales from age group 40-50","Show me the contribution of sales from age group 35-40","25-30 age group sales","Sales of 30 to 35 age group","Sales of 35 to 40 age group","Greater than 50 age group sales","Sales for all age groups","Sales for age groups 25-30, 30-35, 35-40 and greater than 50","Get me the sales for age groups 25-30 and 30-35","Show me sales for age groups 25 to 30, 30 to 35, 35 to 40 and greater than 50","Show me sales for 25-30 and 30-35 age groups","Show me sales for 25-30, 30-35 and 35-40 age groups","Get me sales for 25 to 30 and 30 to 35 age groups","Show me sales for 25 to 30, 30 to 35 and 35 to 40 age groups","Get me statistics for sales by income group","Sales by income group","Show me sales by income group","Show me sales from age group greater than 200000","Sales from income group 60000-80000","Sales from income group 80000-100000","What is the sales from income group 10000-150000","Give me the sales from 150000-200000 income group","What's the sales from income group greater than 200000","What is the contribution of sales from income group 100000 to 150000","Show me the contribution of sales from income group 150000-200000","100000-150000 income group sales","Sales of 150000-200000 income group","Sales of greater than 200000 income group","150000 to 200000 income group sales","Sales for all income groups","Sales for income groups 100000-150000, 150000-200000 and greater than 200000","Get me the sales for income groups 100000-150000 and 150000-200000","Show me sales for income groups 100000-150000, 150000-200000 and greater than 200000","Show me sales for 100000-150000 and 150000-200000 income groups","Show me sales for 100000-150000, 150000-200000 and greater than 200000 income groups","Get me sales for 25 to 30 and 30 to 35 income groups","Show me sales for 25 to 30, 30 to 35 and 35 to 40 income groups","Get me statistics for sales by year","Sales by year","Show me sales by year","Show me sales for 2019","Show me sales for the year 2018","Show me sales for 2015","Show me sales for 2016, 2015, 2017 and 2019","Show me sales for all years","2016 sales report","2017 and 2018 sales","Give me the sales for the years 2017 and 2018","Show me sales for the previous year","Show me sales for the next year","Give me sales for the last two years","Show me the sales report for this year and last year","Total sales for this year and last year","Get me statistics for sales by brand","Sales by brand","Show me sales by brand","Show me sales for Lenovo","Get me sales for Apple","Show me sales satistics for Acer","Show me sales for Lenovo, Apple and Acer","Show me sales for all brands","Get me sales for Lenovo, Apple, Acer, Dell, Sony and Canon","How about Apple product sales?","Give me sales for Lenovo and Acer","Get me sales for Lenovo","How is Lenovo sales?","How are Lenovo and Apple sales?","What about the least one?","What about the minimum one?","How about the least selling one?","What about the least selling one?","Get me the same for minimum one","Show me the same for least one","Get me the same for least one","What about the one with maximum sales?","What about the one with minimum sales?","How about the one having minimum sales?","Which is the second highest one?","Which is the third highest one?","One with maximum sales?","One with minimum sales?","One with highest sales?","One with lowest sales?","Which is the second last one?","Which is the third last one?","Which is the fourth last one?","Which is the fourth highest one?","Which is the second maximum one?","Which is the third maximum one?","Which is the fourth maximum one?","Which is the fifth maximum one?","Which is the fifth highest one?","How about for 2018?","What about the same for this year and last year?","How about for 2019?","How about for last two years?","What about for the previous two years?","Minimum selling one","Maximum selling one","Highest selling one","Lowest selling on","Which was the highest?","Which was the lowest?","Which was the greatest?","How about for this year?","How about for 2016?","What about for 2017, 2018 and 2019?","Wat's for 2019?","What's for this and last years?","What's for this year and last year?","What's for 2016?","Which contributed the least?","Which ciontributed the minimum?","Which contributed the maximum?","Which contributed the greatest?","Which contributed the highest?","Which is the second highest contributor?","Which is the third highest contributor?","Which is the fourth highest contributor?","Which is the fifth highest contributor?","Which is the second, third, fourth and fifth highest contributors?","Which is the second and fifth highest contributors?","Which is the first least contributor?","Which is the second least contributor?","Which is the third least contributor?","Which is the second and third least contributors?","What about Apple and Samsung?","What about Acer and Apple?","What about Canon and Apple?","Whose is the least?","Who is the lowest?","Who is the highest?","Who has the minimum?","Who has the maximum?","Who has the greatest?","Who has the lowest percentage?","Who has the least percentage?","Who has the maximum percentage?","Who has the minimum percentage?","What about 35-40 and 40-50?","How about 25-30, 30 to 35 and 35-40?","How about 150000-200000 and 80000-100000","What about 60000-80000, 150000-200000?","How about 2018 and 2019?","What about 2016 and 2017?","Show me by brand","Show me by income group","Show me by age group","How about for 2017, 2018 and 2019?","What about for 2016 and 2017?","Show me the same for 2017","Get me the same for 2016","Get me the same for 2016 and 2017","What about about for last year?","How about the same for last two years?","What about for the previous year?"],"indexTable":{"0":29,"1":13,"2":35,"3":47,"4":48,"5":45,"6":49,"7":51,"8":50,"9":36,"G":0,"i":1,"v":2,"e":3," ":4,"m":5,"t":6,"h":7,"s":8,"u":9,"a":10,"r":11,"y":12,"W":14,"'":15,"?":16,"H":17,"o":18,"w":19,"n":20,"g":21,"l":22,"k":23,"p":24,"d":25,"f":26,"c":27,"b":28,"B":30,"T":31,"L":32,"x":33,"Y":34,"A":37,"M":38,",":39,"D":40,"S":41,":":42,"C":43,"O":44,"-":46," ":52,"F":53,"stop-input":54,"start-output":55,"unrecognized":56},"characterTable":{"0":"G","1":"i","2":"v","3":"e","4":" ","5":"m","6":"t","7":"h","8":"s","9":"u","10":"a","11":"r","12":"y","13":"1","14":"W","15":"'","16":"?","17":"H","18":"o","19":"w","20":"n","21":"g","22":"l","23":"k","24":"p","25":"d","26":"f","27":"c","28":"b","29":"0","30":"B","31":"T","32":"L","33":"x","34":"Y","35":"2","36":"9","37":"A","38":"M","39":",","40":"D","41":"S","42":":","43":"C","44":"O","45":"5","46":"-","47":"3","48":"4","49":"6","50":"8","51":"7","52":" ","53":"F","54":null,"55":null,"56":null},"characters":["G","i","v","e"," ","m","t","h","s","u","a","r","y","1","W","'","?","H","o","w","n","g","l","k","p","d","f","c","b","0","B","T","L","x","Y","2","9","A","M",",","D","S",":","C","O","5","-","3","4","6","8","7"," ","F","stop-input","start-output","unrecognized"],"specialIndexes":[54,55,56]}},"input":{"rows":58,"columns":57,"weights":{"0":-18.7639102935791,"1":17.079565048217773,"2":13.479265213012695,"3":-18.288984298706055,"4":-17.452545166015625,"5":-6.757196426391602,"6":18.82404136657715,"7":16.351451873779297,"8":14.938410758972168,"9":16.3509578704834,"10":-15.519427299499512,"11":-16.39521026611328,"12":-18.762615203857422,"13":13.832653045654297,"14":19.376422882080078,"15":16.357376098632812,"16":18.668458938598633,"17":-18.53192138671875,"18":18.452903747558594,"19":-9.699687004089355,"20":-19.59341049194336,"21":-16.029890060424805,"22":-2.929529905319214,"23":19.07836151123047,"24":-18.36376953125,"25":16.684354782104492,"26":6.612838268280029,"27":2.957155227661133,"28":-16.836030960083008,"29":11.527948379516602,"30":-15.468987464904785,"31":17.402151107788086,"32":19.759883880615234,"33":4.343378067016602,"34":13.713746070861816,"35":5.039614200592041,"36":-18.857603073120117,"37":18.201190948486328,"38":-17.417680740356445,"39":-17.487178802490234,"40":-18.278146743774414,"41":-17.166534423828125,"42":6.085197448730469,"43":-16.364728927612305,"44":-2.1300108432769775,"45":-8.798384666442871,"46":15.664306640625,"47":-17.826766967773438,"48":-18.268169403076172,"49":17.05295181274414,"50":5.729943752288818,"51":-18.637502670288086,"52":19.703964233398438,"53":19.05757713317871,"54":-18.05949592590332,"55":-18.10184669494629,"56":-18.22239875793457,"57":204.7077178955078,"58":-202.63638305664062,"59":205.86305236816406,"60":195.46377563476562,"61":-201.49798583984375,"62":-186.35736083984375,"63":-197.17526245117188,"64":-205.0796356201172,"65":125.84294128417969,"66":204.10357666015625,"67":-200.62342834472656,"68":204.44680786132812,"69":-202.865478515625,"70":-203.05178833007812,"71":-181.83026123046875,"72":198.87673950195312,"73":205.232666015625,"74":201.88064575195312,"75":179.1261444091797,"76":-191.2640838623047,"77":-199.37440490722656,"78":-193.3258819580078,"79":-193.45700073242188,"80":-195.2492218017578,"81":201.36012268066406,"82":-207.92007446289062,"83":206.41458129882812,"84":-176.1805877685547,"85":-137.67237854003906,"86":-206.4925994873047,"87":203.9729461669922,"88":200.46897888183594,"89":-202.58456420898438,"90":196.67648315429688,"91":-203.65438842773438,"92":-109.86180114746094,"93":201.83570861816406,"94":-206.72398376464844,"95":-208.71754455566406,"96":204.8043975830078,"97":-201.55311584472656,"98":206.5240478515625,"99":-201.86143493652344,"100":-199.82012939453125,"101":-162.85116577148438,"102":202.04153442382812,"103":-198.27230834960938,"104":207.57362365722656,"105":200.96511840820312,"106":-202.18902587890625,"107":200.0337371826172,"108":206.08407592773438,"109":-204.7024688720703,"110":-195.48292541503906,"111":-203.0953369140625,"112":203.66513061523438,"113":196.97622680664062,"114":-44.56787872314453,"115":42.23414611816406,"116":-42.72352600097656,"117":-40.48700714111328,"118":44.203582763671875,"119":44.31545639038086,"120":44.202476501464844,"121":42.48862075805664,"122":40.4398307800293,"123":40.85862731933594,"124":40.82046890258789,"125":-42.04087829589844,"126":-41.444122314453125,"127":42.571353912353516,"128":-39.30990219116211,"129":40.21772003173828,"130":41.634334564208984,"131":-41.5587272644043,"132":39.650962829589844,"133":-41.36659622192383,"134":-41.258121490478516,"135":-40.600364685058594,"136":41.57706069946289,"137":44.187686920166016,"138":-43.506263732910156,"139":-41.29706954956055,"140":-43.837703704833984,"141":-39.736019134521484,"142":42.44546127319336,"143":43.75514602661133,"144":-41.65850067138672,"145":39.57956314086914,"146":43.15153121948242,"147":-40.91583251953125,"148":46.37282943725586,"149":41.713706970214844,"150":-43.49894332885742,"151":42.21668243408203,"152":41.99122619628906,"153":-45.533233642578125,"154":42.42619705200195,"155":39.60475540161133,"156":44.574806213378906,"157":-39.58980178833008,"158":40.28708267211914,"159":-41.07572555541992,"160":41.899349212646484,"161":-43.34739303588867,"162":-41.70049285888672,"163":-42.481224060058594,"164":-46.02141189575195,"165":-44.20228958129883,"166":42.53340148925781,"167":44.182891845703125,"168":40.78322219848633,"169":40.66134262084961,"170":-42.79732894897461,"171":3.927696704864502,"172":-0.3581627607345581,"173":2.793034791946411,"174":2.105949640274048,"175":-1.283301591873169,"176":-1.1629784107208252,"177":-3.551201343536377,"178":-0.20671050250530243,"179":-3.813028335571289,"180":-3.9945068359375,"181":1.7559341192245483,"182":3.9388363361358643,"183":1.5235368013381958,"184":-0.8840636610984802,"185":0.29777199029922485,"186":-4.369826316833496,"187":-2.1945412158966064,"188":1.139748454093933,"189":-1.821763515472412,"190":3.8649351596832275,"191":1.514715313911438,"192":4.524373531341553,"193":-3.4570271968841553,"194":-5.378867149353027,"195":4.378439426422119,"196":-1.486407995223999,"197":2.7187602519989014,"198":2.4701366424560547,"199":-4.593206882476807,"200":-2.2388288974761963,"201":2.502514362335205,"202":-0.8139134645462036,"203":-3.64044189453125,"204":2.459888458251953,"205":-2.435211420059204,"206":-1.717897653579712,"207":4.632032871246338,"208":-2.484312057495117,"209":-4.417267322540283,"210":0.319706529378891,"211":-0.3526736795902252,"212":-1.1229615211486816,"213":-2.5338969230651855,"214":3.239281415939331,"215":-0.09191007167100906,"216":3.6639435291290283,"217":-0.5962296724319458,"218":2.5596096515655518,"219":2.873831272125244,"220":0.25504061579704285,"221":0.349350243806839,"222":2.313999652862549,"223":-1.5968117713928223,"224":-2.848397970199585,"225":-0.7327938675880432,"226":-3.5363481044769287,"227":1.9784715175628662,"228":-16.953493118286133,"229":-18.67105484008789,"230":-16.58513641357422,"231":0.030452869832515717,"232":17.638090133666992,"233":19.116806030273438,"234":18.388586044311523,"235":17.00655174255371,"236":-19.30813217163086,"237":17.193294525146484,"238":-18.4146728515625,"239":-18.387332916259766,"240":17.95448112487793,"241":11.8402681350708,"242":-17.422157287597656,"243":-18.96873664855957,"244":12.001053810119629,"245":16.981338500976562,"246":17.699970245361328,"247":-17.348329544067383,"248":-17.575756072998047,"249":18.783939361572266,"250":-17.8096866607666,"251":-6.117555141448975,"252":-19.647729873657227,"253":17.953506469726562,"254":-17.03086280822754,"255":-17.1428279876709,"256":-20.048505783081055,"257":-15.615234375,"258":-17.80840492248535,"259":-16.809925079345703,"260":-19.27927017211914,"261":17.576139450073242,"262":-18.020179748535156,"263":17.87034034729004,"264":18.134912490844727,"265":-19.21611785888672,"266":16.192075729370117,"267":17.477140426635742,"268":17.771595001220703,"269":-17.95618438720703,"270":17.078411102294922,"271":18.18053436279297,"272":-12.150884628295898,"273":17.917083740234375,"274":17.782825469970703,"275":-13.041169166564941,"276":18.67694664001465,"277":-18.035017013549805,"278":18.033138275146484,"279":17.262691497802734,"280":-15.847509384155273,"281":-18.749526977539062,"282":-3.965860366821289,"283":17.873550415039062,"284":-17.514423370361328,"285":-17.81832504272461,"286":-17.639440536499023,"287":16.165302276611328,"288":18.773269653320312,"289":-0.11361180990934372,"290":-15.221616744995117,"291":-17.83737564086914,"292":-17.582460403442383,"293":-18.289655685424805,"294":-17.66179847717285,"295":17.860876083374023,"296":17.586095809936523,"297":-10.080418586730957,"298":-17.886899948120117,"299":-17.870967864990234,"300":-18.70707130432129,"301":13.276850700378418,"302":18.269725799560547,"303":-17.980533599853516,"304":-17.65741539001465,"305":17.919475555419922,"306":10.076695442199707,"307":-18.206642150878906,"308":-7.12270450592041,"309":18.210987091064453,"310":-17.955841064453125,"311":18.84532356262207,"312":17.72211456298828,"313":9.648250579833984,"314":4.97810173034668,"315":-1.7503098249435425,"316":16.8881893157959,"317":17.508712768554688,"318":-16.917984008789062,"319":-17.2468318939209,"320":-18.24823760986328,"321":19.100675582885742,"322":-17.51287269592285,"323":16.606443405151367,"324":17.973217010498047,"325":18.495136260986328,"326":16.654342651367188,"327":19.041837692260742,"328":-17.03601837158203,"329":17.683053970336914,"330":14.48977279663086,"331":-17.537321090698242,"332":18.736690521240234,"333":19.03282928466797,"334":10.092670440673828,"335":-14.534501075744629,"336":18.002025604248047,"337":-18.9741153717041,"338":-6.964821815490723,"339":17.86878204345703,"340":16.499732971191406,"341":18.065696716308594,"342":31.515565872192383,"343":-31.194852828979492,"344":-31.702054977416992,"345":30.944143295288086,"346":-31.250486373901367,"347":-30.567256927490234,"348":30.45802879333496,"349":31.534433364868164,"350":30.874204635620117,"351":-32.29529571533203,"352":-24.047119140625,"353":-31.078433990478516,"354":30.725948333740234,"355":-30.928897857666016,"356":-31.80549430847168,"357":-32.43389129638672,"358":-31.875900268554688,"359":31.478572845458984,"360":-31.801502227783203,"361":31.134319305419922,"362":31.59528350830078,"363":31.84762954711914,"364":-31.32687759399414,"365":31.040626525878906,"366":31.094234466552734,"367":-30.427539825439453,"368":27.680822372436523,"369":-24.664371490478516,"370":30.9130859375,"371":-5.257608413696289,"372":-31.482690811157227,"373":17.40320587158203,"374":31.123577117919922,"375":-29.032560348510742,"376":29.436403274536133,"377":31.132183074951172,"378":31.121604919433594,"379":-31.171875,"380":31.0721435546875,"381":-30.99053192138672,"382":31.459789276123047,"383":30.0418758392334,"384":-30.98735237121582,"385":-30.38514518737793,"386":31.237445831298828,"387":31.741649627685547,"388":-31.407302856445312,"389":30.943761825561523,"390":31.770763397216797,"391":-31.413101196289062,"392":-32.580101013183594,"393":30.865018844604492,"394":-31.41424560546875,"395":-31.38855743408203,"396":31.456897735595703,"397":31.026376724243164,"398":31.64228630065918,"399":20.9359073638916,"400":-20.91556739807129,"401":-15.91911506652832,"402":-18.886892318725586,"403":-18.76292610168457,"404":19.872344970703125,"405":19.855344772338867,"406":17.15642738342285,"407":-12.74227523803711,"408":20.0882625579834,"409":-17.84913444519043,"410":-21.249305725097656,"411":0.12215293943881989,"412":-20.880895614624023,"413":0.004578873515129089,"414":17.02631187438965,"415":16.728809356689453,"416":17.836322784423828,"417":-20.82307243347168,"418":18.39575958251953,"419":15.587896347045898,"420":15.701822280883789,"421":-13.978487968444824,"422":-21.92455291748047,"423":-20.692384719848633,"424":18.681299209594727,"425":-17.281068801879883,"426":-16.29073715209961,"427":9.580084800720215,"428":16.286359786987305,"429":-16.102664947509766,"430":18.608074188232422,"431":-18.517932891845703,"432":16.58468246459961,"433":-18.170368194580078,"434":20.002838134765625,"435":-20.19647216796875,"436":-21.297725677490234,"437":8.399999618530273,"438":-19.623884201049805,"439":-20.491012573242188,"440":-17.39752197265625,"441":-20.482707977294922,"442":11.875598907470703,"443":-13.993206977844238,"444":12.6022367477417,"445":11.978686332702637,"446":-11.228211402893066,"447":-17.348657608032227,"448":-19.79602813720703,"449":15.639745712280273,"450":14.946889877319336,"451":-16.202199935913086,"452":-18.314712524414062,"453":-21.431015014648438,"454":-16.63121795654297,"455":17.39056396484375,"456":45.139976501464844,"457":-11.023245811462402,"458":3.16383695602417,"459":40.33843231201172,"460":-12.298199653625488,"461":-25.450939178466797,"462":-11.266520500183105,"463":-7.670294761657715,"464":-5.2170729637146,"465":5.332270622253418,"466":-16.38749122619629,"467":-4.922109127044678,"468":2.1058661937713623,"469":-1.5332918167114258,"470":-0.24428656697273254,"471":1.1717488765716553,"472":-5.431827068328857,"473":1.2337135076522827,"474":-39.90394973754883,"475":9.518136024475098,"476":-5.564460754394531,"477":42.90016555786133,"478":-44.89474868774414,"479":-15.898308753967285,"480":41.9305419921875,"481":-40.78860855102539,"482":8.129914283752441,"483":9.808241844177246,"484":-4.683693885803223,"485":-7.354809284210205,"486":-32.79246520996094,"487":-23.10252571105957,"488":-3.7606194019317627,"489":10.234745025634766,"490":-12.524152755737305,"491":-0.20348039269447327,"492":40.248111724853516,"493":-39.155818939208984,"494":-2.527592897415161,"495":46.29142379760742,"496":34.03582000732422,"497":-3.9872689247131348,"498":-47.09174728393555,"499":-2.9914844036102295,"500":-3.316134214401245,"501":39.46830368041992,"502":-12.808706283569336,"503":46.8033447265625,"504":34.7106819152832,"505":-4.114041328430176,"506":1.8334604501724243,"507":41.11149978637695,"508":-35.932594299316406,"509":-38.883663177490234,"510":-2.1453328132629395,"511":1.8402128219604492,"512":38.28412628173828,"513":-0.7031332850456238,"514":-6.543426513671875,"515":9.388495445251465,"516":-16.52657127380371,"517":14.916204452514648,"518":17.73535919189453,"519":-13.338521957397461,"520":16.74335479736328,"521":4.904288291931152,"522":17.110328674316406,"523":-17.223508834838867,"524":-14.617201805114746,"525":17.100601196289062,"526":17.380306243896484,"527":15.814839363098145,"528":17.019750595092773,"529":12.516669273376465,"530":-18.29496955871582,"531":11.973902702331543,"532":17.01231575012207,"533":12.839455604553223,"534":-16.112777709960938,"535":15.240912437438965,"536":18.41787338256836,"537":17.68073844909668,"538":18.256929397583008,"539":-16.7536678314209,"540":16.968168258666992,"541":-17.539579391479492,"542":12.837053298950195,"543":-4.534875392913818,"544":-16.64775276184082,"545":-16.12495231628418,"546":12.203446388244629,"547":-0.5634194016456604,"548":-14.27455997467041,"549":-17.459461212158203,"550":11.049983024597168,"551":-17.36695098876953,"552":-15.201940536499023,"553":-14.220797538757324,"554":-18.373577117919922,"555":-15.402823448181152,"556":16.905263900756836,"557":-15.481663703918457,"558":-17.848609924316406,"559":16.13446044921875,"560":0.029580505564808846,"561":-15.040949821472168,"562":1.4221090078353882,"563":14.739418029785156,"564":-5.627463340759277,"565":18.477317810058594,"566":2.7290496826171875,"567":-13.733080863952637,"568":-9.804649353027344,"569":-16.393999099731445,"570":29.613014221191406,"571":-21.587799072265625,"572":-27.28469467163086,"573":-28.61107635498047,"574":-29.085527420043945,"575":28.69834327697754,"576":32.55493927001953,"577":32.66413497924805,"578":-27.1114444732666,"579":29.949506759643555,"580":-30.521835327148438,"581":-23.866565704345703,"582":10.887823104858398,"583":-8.816285133361816,"584":33.59596252441406,"585":15.77077579498291,"586":27.50714874267578,"587":-32.62184524536133,"588":33.47400665283203,"589":35.289947509765625,"590":16.557968139648438,"591":-0.9223731160163879,"592":23.45260238647461,"593":-6.305243015289307,"594":-12.17023754119873,"595":28.261409759521484,"596":-30.954418182373047,"597":-33.0423469543457,"598":-34.273746490478516,"599":29.93942642211914,"600":-33.176048278808594,"601":33.485252380371094,"602":-30.329524993896484,"603":34.177433013916016,"604":-29.492408752441406,"605":25.056453704833984,"606":-31.777814865112305,"607":-7.14682674407959,"608":-31.719348907470703,"609":-27.968088150024414,"610":-29.49659538269043,"611":-29.449596405029297,"612":-29.341650009155273,"613":33.11528778076172,"614":-37.05649185180664,"615":-20.89716911315918,"616":32.76676559448242,"617":-17.41163444519043,"618":-30.874042510986328,"619":32.15292739868164,"620":35.123844146728516,"621":-23.482805252075195,"622":-17.196441650390625,"623":-34.550357818603516,"624":-30.420757293701172,"625":-32.774986267089844,"626":19.179779052734375,"627":31.11376190185547,"628":-7.6403117179870605,"629":-31.210783004760742,"630":-28.8067626953125,"631":-31.31595230102539,"632":9.092110633850098,"633":29.288606643676758,"634":31.089588165283203,"635":30.337961196899414,"636":4.77571439743042,"637":-31.255521774291992,"638":-29.401216506958008,"639":25.097461700439453,"640":-31.363065719604492,"641":-14.069916725158691,"642":30.223936080932617,"643":29.39936637878418,"644":29.79901885986328,"645":-30.222970962524414,"646":30.739221572875977,"647":5.8153252601623535,"648":29.1418399810791,"649":-26.789451599121094,"650":18.74181365966797,"651":-27.77859878540039,"652":27.546428680419922,"653":-28.02963638305664,"654":-29.19226837158203,"655":30.809659957885742,"656":30.269609451293945,"657":-30.133216857910156,"658":29.18573760986328,"659":-29.798643112182617,"660":30.007251739501953,"661":-28.82305335998535,"662":30.718597412109375,"663":-30.02135467529297,"664":-31.6527042388916,"665":29.502946853637695,"666":-29.397886276245117,"667":-28.91869354248047,"668":-11.551335334777832,"669":-30.44489860534668,"670":-29.349031448364258,"671":-30.324892044067383,"672":24.59270668029785,"673":15.061372756958008,"674":21.340126037597656,"675":25.494300842285156,"676":-26.922893524169922,"677":-19.473247528076172,"678":30.68696403503418,"679":-31.196517944335938,"680":-31.45494842529297,"681":29.407329559326172,"682":27.603721618652344,"683":31.077911376953125,"684":37.540897369384766,"685":0.20425260066986084,"686":-0.5878417491912842,"687":36.966060638427734,"688":1.740530252456665,"689":0.09171644598245621,"690":-37.30664825439453,"691":0.6559048295021057,"692":0.30845320224761963,"693":-36.428436279296875,"694":-5.894791603088379,"695":35.93132019042969,"696":0.6838675737380981,"697":0.4174785912036896,"698":-0.7175045013427734,"699":-35.8045654296875,"700":-35.98240280151367,"701":0.1999652236700058,"702":-37.29135513305664,"703":0.20140470564365387,"704":0.2062581479549408,"705":36.16855239868164,"706":-36.87409591674805,"707":-35.99822998046875,"708":37.342742919921875,"709":0.5765065550804138,"710":38.191505432128906,"711":0.6119911074638367,"712":0.059895314276218414,"713":1.5232197046279907,"714":-0.8686007857322693,"715":-25.177913665771484,"716":-2.1375298500061035,"717":29.408374786376953,"718":36.17988204956055,"719":-1.602483868598938,"720":34.915348052978516,"721":-36.67861557006836,"722":-1.4429925680160522,"723":-0.24375516176223755,"724":36.85639572143555,"725":-0.9364262819290161,"726":0.3514169156551361,"727":0.4042145609855652,"728":-36.31093215942383,"729":36.830406188964844,"730":-34.87331008911133,"731":36.915313720703125,"732":37.12040328979492,"733":0.7775959968566895,"734":-32.50287628173828,"735":37.98000717163086,"736":-38.3781623840332,"737":-36.279518127441406,"738":-0.1480388343334198,"739":-0.32636889815330505,"740":37.411563873291016,"741":18.827695846557617,"742":-10.638980865478516,"743":-18.559185028076172,"744":17.98073387145996,"745":3.837864875793457,"746":-18.805601119995117,"747":16.424768447875977,"748":17.75013542175293,"749":18.593870162963867,"750":-17.906017303466797,"751":14.539965629577637,"752":-17.9172420501709,"753":13.81575870513916,"754":-18.414262771606445,"755":-18.771865844726562,"756":-18.243223190307617,"757":-16.85232162475586,"758":18.797542572021484,"759":-18.347089767456055,"760":9.037220001220703,"761":18.86068344116211,"762":14.30439281463623,"763":-16.530506134033203,"764":-13.794966697692871,"765":19.03380012512207,"766":-18.537038803100586,"767":-16.193675994873047,"768":-17.583698272705078,"769":19.131900787353516,"770":16.868579864501953,"771":16.723743438720703,"772":16.086729049682617,"773":17.08390235900879,"774":16.96207046508789,"775":-11.454178810119629,"776":17.56344985961914,"777":18.983718872070312,"778":-18.579153060913086,"779":17.205602645874023,"780":6.130483150482178,"781":17.17925453186035,"782":18.970922470092773,"783":-18.348609924316406,"784":-19.467552185058594,"785":17.62801170349121,"786":19.013078689575195,"787":-17.5637264251709,"788":-17.861663818359375,"789":18.85106086730957,"790":-19.083715438842773,"791":-17.333614349365234,"792":20.479150772094727,"793":-19.07478141784668,"794":-18.18114471435547,"795":18.266136169433594,"796":19.154003143310547,"797":19.194377899169922,"798":17.49297523498535,"799":13.779548645019531,"800":17.364730834960938,"801":10.013595581054688,"802":1.0960627794265747,"803":16.51785659790039,"804":5.300806522369385,"805":13.36514949798584,"806":-18.4083194732666,"807":-15.525328636169434,"808":-19.222322463989258,"809":17.547027587890625,"810":16.07967185974121,"811":18.465768814086914,"812":17.39804458618164,"813":-17.507080078125,"814":18.357633590698242,"815":-4.314085006713867,"816":17.824983596801758,"817":-2.855428457260132,"818":-18.078495025634766,"819":9.505705833435059,"820":-18.819284439086914,"821":-19.013673782348633,"822":-9.95438289642334,"823":18.668563842773438,"824":-17.1132869720459,"825":-16.336576461791992,"826":-18.224233627319336,"827":-18.134723663330078,"828":13.10074520111084,"829":17.90996742248535,"830":-19.58818244934082,"831":17.392311096191406,"832":-14.378451347351074,"833":-17.669429779052734,"834":-17.259658813476562,"835":17.855953216552734,"836":12.221158981323242,"837":17.946998596191406,"838":15.336743354797363,"839":-19.70198631286621,"840":14.94074821472168,"841":17.603759765625,"842":-17.879356384277344,"843":-18.424840927124023,"844":16.62700843811035,"845":17.71055030822754,"846":-3.249924898147583,"847":-19.02109146118164,"848":17.895401000976562,"849":19.017314910888672,"850":10.398078918457031,"851":-16.184228897094727,"852":-17.110502243041992,"853":-17.486465454101562,"854":-18.612083435058594,"855":58.69499969482422,"856":-55.15599060058594,"857":-59.64963150024414,"858":-49.721656799316406,"859":-59.094154357910156,"860":-57.343318939208984,"861":57.66034698486328,"862":60.0615119934082,"863":60.01423263549805,"864":-58.62802505493164,"865":-55.670745849609375,"866":-51.788902282714844,"867":-57.63283920288086,"868":-58.874183654785156,"869":-58.403072357177734,"870":10.113407135009766,"871":-47.789268493652344,"872":59.29021453857422,"873":-58.8357048034668,"874":58.87324142456055,"875":59.42638397216797,"876":57.40129852294922,"877":-57.16326904296875,"878":43.44505310058594,"879":51.365966796875,"880":-59.253211975097656,"881":26.976356506347656,"882":-58.381168365478516,"883":59.407470703125,"884":49.0496711730957,"885":-54.215110778808594,"886":57.24852752685547,"887":33.82872772216797,"888":-9.14200210571289,"889":-51.9770393371582,"890":59.116172790527344,"891":-50.00988006591797,"892":-58.3436279296875,"893":59.545188903808594,"894":-57.226661682128906,"895":-54.26824951171875,"896":56.0664176940918,"897":-58.239036560058594,"898":-57.55870819091797,"899":38.67509078979492,"900":58.65585708618164,"901":-57.957763671875,"902":29.94974708557129,"903":58.14378356933594,"904":-52.029659271240234,"905":-57.71245193481445,"906":59.412681579589844,"907":-59.48651123046875,"908":-59.50393295288086,"909":59.72037887573242,"910":58.2017936706543,"911":59.620933532714844,"912":-369.7685852050781,"913":369.77032470703125,"914":367.7089538574219,"915":-368.63653564453125,"916":369.9385070800781,"917":369.6165466308594,"918":363.24310302734375,"919":339.0278015136719,"920":-363.3432922363281,"921":369.8956298828125,"922":-325.45428466796875,"923":-369.7552795410156,"924":369.31884765625,"925":369.0747985839844,"926":368.2967224121094,"927":366.9586181640625,"928":-367.3607482910156,"929":-369.7715759277344,"930":-358.7879333496094,"931":-362.01953125,"932":-368.3291931152344,"933":-368.6549987792969,"934":369.3811950683594,"935":369.0806579589844,"936":343.70989990234375,"937":369.8556213378906,"938":-369.97412109375,"939":368.97247314453125,"940":-361.9725341796875,"941":369.97705078125,"942":-370.0041809082031,"943":-369.8885498046875,"944":-352.9001159667969,"945":367.213134765625,"946":-368.7913513183594,"947":369.3426208496094,"948":367.6466064453125,"949":-359.94854736328125,"950":-369.28485107421875,"951":-364.60357666015625,"952":-367.5772399902344,"953":365.34686279296875,"954":365.1358947753906,"955":368.5205078125,"956":369.9813537597656,"957":369.56982421875,"958":369.4518127441406,"959":-369.17169189453125,"960":-369.41107177734375,"961":-368.6849060058594,"962":-369.6543884277344,"963":-369.57891845703125,"964":369.6690673828125,"965":366.67962646484375,"966":-279.8677673339844,"967":368.7507019042969,"968":-358.2452087402344,"969":33.20161819458008,"970":-31.114727020263672,"971":-17.875747680664062,"972":31.750919342041016,"973":-27.7928466796875,"974":-3.545614242553711,"975":21.904891967773438,"976":16.316362380981445,"977":5.901776313781738,"978":-5.016294956207275,"979":-36.8596305847168,"980":-21.446504592895508,"981":36.91578674316406,"982":-19.256988525390625,"983":-18.660438537597656,"984":-25.09758949279785,"985":-18.196155548095703,"986":32.30306625366211,"987":-31.60789680480957,"988":4.2159528732299805,"989":17.71369171142578,"990":25.72137451171875,"991":-14.694693565368652,"992":8.421345710754395,"993":5.636430263519287,"994":-17.92167854309082,"995":-7.4832234382629395,"996":-10.819025039672852,"997":6.674533843994141,"998":5.024991512298584,"999":-11.544761657714844,"1000":-33.78036880493164,"1001":4.073548316955566,"1002":-20.519519805908203,"1003":15.558281898498535,"1004":20.7451171875,"1005":18.376813888549805,"1006":-31.276134490966797,"1007":6.564149856567383,"1008":-14.228368759155273,"1009":15.86716079711914,"1010":13.849129676818848,"1011":-17.29645347595215,"1012":-21.45989418029785,"1013":16.525054931640625,"1014":30.841062545776367,"1015":-3.1788899898529053,"1016":-7.956920146942139,"1017":6.246264457702637,"1018":-34.73778533935547,"1019":-8.668708801269531,"1020":20.87922477722168,"1021":-27.79598045349121,"1022":-28.504596710205078,"1023":17.070499420166016,"1024":19.898338317871094,"1025":6.863161563873291,"1026":-31.296424865722656,"1027":32.106441497802734,"1028":33.9467658996582,"1029":-29.741485595703125,"1030":34.56903839111328,"1031":-31.470352172851562,"1032":32.70343017578125,"1033":32.25252914428711,"1034":29.5535831451416,"1035":8.596585273742676,"1036":30.64993667602539,"1037":-24.58173179626465,"1038":-32.25937271118164,"1039":-33.299346923828125,"1040":32.43661117553711,"1041":31.20319366455078,"1042":-33.70732498168945,"1043":-21.914737701416016,"1044":32.052764892578125,"1045":29.221176147460938,"1046":-30.56153106689453,"1047":-29.54953956604004,"1048":30.52145767211914,"1049":-30.929555892944336,"1050":-32.106468200683594,"1051":-30.98460578918457,"1052":-30.38552474975586,"1053":-32.31291198730469,"1054":25.738075256347656,"1055":32.64265441894531,"1056":24.201438903808594,"1057":30.942731857299805,"1058":32.3651008605957,"1059":-34.31157302856445,"1060":33.65907669067383,"1061":32.89897155761719,"1062":-29.970312118530273,"1063":29.6269474029541,"1064":29.886484146118164,"1065":-21.248851776123047,"1066":31.968721389770508,"1067":29.764833450317383,"1068":32.890384674072266,"1069":-27.623157501220703,"1070":29.444210052490234,"1071":-29.88931655883789,"1072":28.45421600341797,"1073":-30.899486541748047,"1074":-29.748258590698242,"1075":32.988304138183594,"1076":-29.078617095947266,"1077":-32.519744873046875,"1078":29.820924758911133,"1079":-29.09807014465332,"1080":30.88263511657715,"1081":-32.83501434326172,"1082":-30.053985595703125,"1083":18.37799072265625,"1084":-18.489879608154297,"1085":18.068849563598633,"1086":-17.907379150390625,"1087":18.464599609375,"1088":18.500242233276367,"1089":-17.952810287475586,"1090":18.430858612060547,"1091":-18.384496688842773,"1092":-18.350921630859375,"1093":-18.490436553955078,"1094":-18.47382354736328,"1095":18.482383728027344,"1096":18.42091178894043,"1097":-18.369428634643555,"1098":-18.393983840942383,"1099":-18.40407943725586,"1100":-18.369462966918945,"1101":-18.35494041442871,"1102":18.353700637817383,"1103":18.35785484313965,"1104":18.35276222229004,"1105":-17.76388168334961,"1106":-18.3271541595459,"1107":-18.40984535217285,"1108":18.37501335144043,"1109":18.382055282592773,"1110":18.462936401367188,"1111":-18.030210494995117,"1112":-18.405303955078125,"1113":-18.283742904663086,"1114":-18.49517822265625,"1115":-18.39651870727539,"1116":17.33817481994629,"1117":18.370756149291992,"1118":-18.460453033447266,"1119":18.212026596069336,"1120":-18.480792999267578,"1121":-18.44839096069336,"1122":-18.432735443115234,"1123":11.792490005493164,"1124":-18.462215423583984,"1125":18.434600830078125,"1126":18.400100708007812,"1127":-18.359066009521484,"1128":17.227191925048828,"1129":-18.421112060546875,"1130":18.03228759765625,"1131":18.34783363342285,"1132":18.359689712524414,"1133":-18.467315673828125,"1134":18.25848960876465,"1135":-18.356853485107422,"1136":18.03588104248047,"1137":-18.43244171142578,"1138":-18.494264602661133,"1139":15.445634841918945,"1140":5.1040472984313965,"1141":-6.092556476593018,"1142":-21.524667739868164,"1143":-7.683627605438232,"1144":31.482112884521484,"1145":5.229191303253174,"1146":18.364582061767578,"1147":-12.316189765930176,"1148":-13.545493125915527,"1149":-31.501623153686523,"1150":-3.748326301574707,"1151":-3.9497275352478027,"1152":9.269672393798828,"1153":6.795895576477051,"1154":-12.64588737487793,"1155":-23.652618408203125,"1156":-16.356277465820312,"1157":-31.483867645263672,"1158":-7.246341705322266,"1159":5.2357282638549805,"1160":5.65162467956543,"1161":8.833495140075684,"1162":16.729949951171875,"1163":31.461322784423828,"1164":-19.4519100189209,"1165":4.799905776977539,"1166":13.224954605102539,"1167":5.062256336212158,"1168":19.44236183166504,"1169":-28.212438583374023,"1170":31.520883560180664,"1171":-6.121774673461914,"1172":-4.808180809020996,"1173":-9.49672794342041,"1174":16.259891510009766,"1175":-31.5751953125,"1176":-31.545583724975586,"1177":-4.572653770446777,"1178":-3.701911211013794,"1179":-2.808532476425171,"1180":-5.669207572937012,"1181":-5.318908214569092,"1182":-31.526582717895508,"1183":9.110851287841797,"1184":-8.056580543518066,"1185":-14.514140129089355,"1186":-31.57036781311035,"1187":-23.176673889160156,"1188":8.983481407165527,"1189":15.184737205505371,"1190":-2.890209436416626,"1191":-11.386589050292969,"1192":-18.739858627319336,"1193":7.167626857757568,"1194":-14.71877670288086,"1195":-31.47612190246582,"1196":-8.791984558105469,"1197":31.371854782104492,"1198":-31.400474548339844,"1199":-31.552242279052734,"1200":31.51532745361328,"1201":31.47027587890625,"1202":31.54520606994629,"1203":-31.54244613647461,"1204":-31.558971405029297,"1205":-31.50628089904785,"1206":31.5054988861084,"1207":-31.599416732788086,"1208":31.48630714416504,"1209":31.421985626220703,"1210":-31.456161499023438,"1211":-31.443096160888672,"1212":-31.541519165039062,"1213":31.537002563476562,"1214":31.397708892822266,"1215":-31.480012893676758,"1216":-31.470558166503906,"1217":31.402225494384766,"1218":31.49041748046875,"1219":-31.529590606689453,"1220":31.48606300354004,"1221":31.422290802001953,"1222":31.412330627441406,"1223":31.519420623779297,"1224":31.4771671295166,"1225":-31.470138549804688,"1226":-31.445640563964844,"1227":-31.482059478759766,"1228":-31.548851013183594,"1229":-31.513179779052734,"1230":31.60065269470215,"1231":-31.538475036621094,"1232":-31.529651641845703,"1233":31.5210018157959,"1234":-31.479930877685547,"1235":-31.500368118286133,"1236":31.610231399536133,"1237":-31.501672744750977,"1238":-31.5018310546875,"1239":-31.485572814941406,"1240":31.461013793945312,"1241":-31.483327865600586,"1242":31.513526916503906,"1243":-31.43967056274414,"1244":31.5561580657959,"1245":31.49826431274414,"1246":-31.489625930786133,"1247":31.49002456665039,"1248":31.415616989135742,"1249":-31.483478546142578,"1250":31.440532684326172,"1251":-31.565099716186523,"1252":31.50977897644043,"1253":31.398395538330078,"1254":-33.14762496948242,"1255":42.161251068115234,"1256":-37.66779327392578,"1257":-42.21027374267578,"1258":29.835647583007812,"1259":29.983226776123047,"1260":25.860519409179688,"1261":42.13473129272461,"1262":42.204986572265625,"1263":42.21879959106445,"1264":42.1393928527832,"1265":-36.07184600830078,"1266":42.178226470947266,"1267":42.170005798339844,"1268":39.45461654663086,"1269":-42.16510009765625,"1270":42.146549224853516,"1271":-42.16168975830078,"1272":-42.16311264038086,"1273":-42.25700378417969,"1274":-42.171905517578125,"1275":-42.248046875,"1276":42.25008773803711,"1277":42.24077224731445,"1278":-30.3352108001709,"1279":42.26540756225586,"1280":-31.324981689453125,"1281":-42.16040802001953,"1282":33.945762634277344,"1283":42.175357818603516,"1284":42.13918685913086,"1285":-42.22673034667969,"1286":30.622413635253906,"1287":-42.228431701660156,"1288":33.981204986572266,"1289":36.59891128540039,"1290":-28.200227737426758,"1291":42.2060661315918,"1292":33.09554672241211,"1293":-34.906673431396484,"1294":42.11063003540039,"1295":42.136756896972656,"1296":42.19738006591797,"1297":-42.198326110839844,"1298":42.12542724609375,"1299":-38.216888427734375,"1300":42.10988235473633,"1301":-41.484458923339844,"1302":-35.864986419677734,"1303":-36.10051727294922,"1304":-28.027114868164062,"1305":-32.966060638427734,"1306":31.352081298828125,"1307":37.894229888916016,"1308":-42.220008850097656,"1309":42.244850158691406,"1310":-28.7846622467041,"1311":-31.546239852905273,"1312":-31.578609466552734,"1313":-32.81529235839844,"1314":-31.50596809387207,"1315":19.977041244506836,"1316":30.733890533447266,"1317":32.20982360839844,"1318":34.0641975402832,"1319":-31.517038345336914,"1320":-26.645559310913086,"1321":31.527904510498047,"1322":-30.73926544189453,"1323":-31.473125457763672,"1324":-30.892425537109375,"1325":31.506940841674805,"1326":-31.299747467041016,"1327":32.154335021972656,"1328":-31.3365478515625,"1329":31.48624610900879,"1330":-30.371585845947266,"1331":-31.48337745666504,"1332":30.126930236816406,"1333":-29.703025817871094,"1334":31.249807357788086,"1335":-31.907712936401367,"1336":-31.503503799438477,"1337":-31.68675422668457,"1338":31.124126434326172,"1339":31.467552185058594,"1340":31.513572692871094,"1341":31.124460220336914,"1342":-31.5605525970459,"1343":31.076568603515625,"1344":-32.2020263671875,"1345":31.457275390625,"1346":31.43517303466797,"1347":-31.870849609375,"1348":31.479984283447266,"1349":30.492366790771484,"1350":-31.53702735900879,"1351":-27.569726943969727,"1352":33.11674118041992,"1353":31.90239143371582,"1354":-32.47327423095703,"1355":33.61888885498047,"1356":-31.501813888549805,"1357":-31.34009552001953,"1358":-31.433897018432617,"1359":-31.919252395629883,"1360":-31.4936466217041,"1361":-31.318784713745117,"1362":-32.02574920654297,"1363":24.894851684570312,"1364":31.52410316467285,"1365":34.00144577026367,"1366":31.29315185546875,"1367":-31.955982208251953,"1368":-176.27914428710938,"1369":174.8711395263672,"1370":-173.5369110107422,"1371":-178.16188049316406,"1372":175.02528381347656,"1373":172.5654296875,"1374":178.35610961914062,"1375":182.125244140625,"1376":-175.0703582763672,"1377":-187.68063354492188,"1378":187.88710021972656,"1379":167.56455993652344,"1380":-170.63743591308594,"1381":187.68128967285156,"1382":173.7018585205078,"1383":-178.75880432128906,"1384":-175.08377075195312,"1385":-170.28160095214844,"1386":177.67222595214844,"1387":165.69395446777344,"1388":-172.18978881835938,"1389":175.6672821044922,"1390":-98.4233627319336,"1391":186.2561492919922,"1392":-177.05841064453125,"1393":186.88941955566406,"1394":-187.48583984375,"1395":-34.32012176513672,"1396":169.0907440185547,"1397":176.228759765625,"1398":132.9549102783203,"1399":-173.1676025390625,"1400":179.1973419189453,"1401":-173.634765625,"1402":175.9392852783203,"1403":86.8602294921875,"1404":-187.808349609375,"1405":188.5509796142578,"1406":189.38082885742188,"1407":-189.45750427246094,"1408":173.6397247314453,"1409":-170.99655151367188,"1410":175.57872009277344,"1411":176.4320831298828,"1412":-172.2303924560547,"1413":-185.3346405029297,"1414":-173.96929931640625,"1415":-188.7349853515625,"1416":135.4649658203125,"1417":174.3081817626953,"1418":-188.7469482421875,"1419":-176.73977661132812,"1420":187.56292724609375,"1421":186.121337890625,"1422":188.47494506835938,"1423":-175.9206085205078,"1424":-174.8411102294922,"1425":128.909423828125,"1426":-128.8120880126953,"1427":126.40400695800781,"1428":126.40520477294922,"1429":126.31471252441406,"1430":126.40079498291016,"1431":-128.88961791992188,"1432":-128.82928466796875,"1433":-126.42618560791016,"1434":-126.39061737060547,"1435":-128.42088317871094,"1436":126.31629943847656,"1437":128.81712341308594,"1438":-128.84902954101562,"1439":-128.8754119873047,"1440":-126.37615203857422,"1441":-126.45454406738281,"1442":-127.88044738769531,"1443":-128.89913940429688,"1444":126.40593719482422,"1445":-126.31438446044922,"1446":126.43455505371094,"1447":-128.6978759765625,"1448":128.7054443359375,"1449":128.85882568359375,"1450":128.867919921875,"1451":128.28424072265625,"1452":128.9082794189453,"1453":-126.35979461669922,"1454":-128.94183349609375,"1455":128.85400390625,"1456":-128.78759765625,"1457":-128.896240234375,"1458":126.39727783203125,"1459":126.31236267089844,"1460":-126.40788269042969,"1461":126.40438079833984,"1462":-126.46637725830078,"1463":-126.4984130859375,"1464":-128.8571014404297,"1465":126.3682632446289,"1466":-128.87661743164062,"1467":126.4154052734375,"1468":126.40318298339844,"1469":-126.35987854003906,"1470":126.40524291992188,"1471":-128.6974334716797,"1472":126.4228286743164,"1473":126.48045349121094,"1474":-128.92323303222656,"1475":126.50577545166016,"1476":128.83546447753906,"1477":-126.4774169921875,"1478":-126.35124969482422,"1479":-128.58656311035156,"1480":128.88623046875,"1481":128.91796875,"1482":-0.7063695788383484,"1483":2.1606898307800293,"1484":-6.798060894012451,"1485":-8.058262825012207,"1486":-5.198157787322998,"1487":-6.003402233123779,"1488":1.8102245330810547,"1489":1.308163046836853,"1490":7.409008026123047,"1491":7.003972053527832,"1492":3.136064052581787,"1493":-6.885350227355957,"1494":-2.7566449642181396,"1495":0.19959446787834167,"1496":1.4466679096221924,"1497":8.122330665588379,"1498":6.8935346603393555,"1499":-1.7511886358261108,"1500":2.3265366554260254,"1501":-7.454298973083496,"1502":1.105203628540039,"1503":-8.593903541564941,"1504":3.4489972591400146,"1505":5.552915573120117,"1506":-2.3891029357910156,"1507":-1.0290058851242065,"1508":-2.810788869857788,"1509":-2.84421968460083,"1510":7.125406265258789,"1511":1.2823185920715332,"1512":-0.5583081841468811,"1513":2.8698980808258057,"1514":0.6788952350616455,"1515":-7.023305892944336,"1516":-6.349766731262207,"1517":7.9578046798706055,"1518":-6.917919635772705,"1519":7.7390851974487305,"1520":6.191943645477295,"1521":0.5317153334617615,"1522":-0.1723344773054123,"1523":2.2772603034973145,"1524":1.0756510496139526,"1525":-8.496869087219238,"1526":8.523313522338867,"1527":-8.051141738891602,"1528":3.278360366821289,"1529":-7.080863952636719,"1530":-7.313772678375244,"1531":1.9404218196868896,"1532":-6.883181095123291,"1533":-2.091531991958618,"1534":6.128983974456787,"1535":7.504458427429199,"1536":1.4872742891311646,"1537":0.8450204730033875,"1538":-1.7642149925231934,"1539":18.315664291381836,"1540":-18.377166748046875,"1541":-18.257478713989258,"1542":-18.175277709960938,"1543":-17.89837646484375,"1544":16.844690322875977,"1545":-17.473405838012695,"1546":-17.4597225189209,"1547":17.181720733642578,"1548":-17.89503288269043,"1549":-17.611736297607422,"1550":-18.280961990356445,"1551":18.231346130371094,"1552":18.19721794128418,"1553":-18.23394012451172,"1554":-17.697240829467773,"1555":15.057554244995117,"1556":17.636117935180664,"1557":-18.256641387939453,"1558":-15.268861770629883,"1559":18.407777786254883,"1560":-16.795982360839844,"1561":-9.287161827087402,"1562":-9.350370407104492,"1563":-16.372459411621094,"1564":18.352785110473633,"1565":18.10708999633789,"1566":18.309011459350586,"1567":17.985916137695312,"1568":-18.07387351989746,"1569":18.044450759887695,"1570":-18.221803665161133,"1571":-18.369592666625977,"1572":-17.110855102539062,"1573":-15.559821128845215,"1574":-18.13692283630371,"1575":-17.83125877380371,"1576":11.139022827148438,"1577":-18.234573364257812,"1578":-18.44071388244629,"1579":-18.300230026245117,"1580":-18.309642791748047,"1581":-18.255895614624023,"1582":-16.443572998046875,"1583":16.894235610961914,"1584":-14.680398941040039,"1585":-9.295133590698242,"1586":-18.11046028137207,"1587":17.84727668762207,"1588":-17.954051971435547,"1589":-18.290864944458008,"1590":16.62248420715332,"1591":-15.562385559082031,"1592":18.3525390625,"1593":-14.249021530151367,"1594":-4.77341365814209,"1595":17.521963119506836,"1596":42.16755676269531,"1597":42.13671875,"1598":42.224151611328125,"1599":42.13434600830078,"1600":42.06638717651367,"1601":42.17192077636719,"1602":-42.18980407714844,"1603":42.146827697753906,"1604":-42.14435577392578,"1605":-42.09914779663086,"1606":-42.09547424316406,"1607":42.09415054321289,"1608":-42.099124908447266,"1609":42.21424865722656,"1610":42.06611251831055,"1611":-42.205284118652344,"1612":-42.07578659057617,"1613":-42.15544509887695,"1614":-42.038551330566406,"1615":42.09629821777344,"1616":-42.059871673583984,"1617":42.171607971191406,"1618":-42.21318817138672,"1619":-42.14698791503906,"1620":42.168128967285156,"1621":42.09782791137695,"1622":42.1693229675293,"1623":42.20171356201172,"1624":-42.2020149230957,"1625":42.194881439208984,"1626":-42.095645904541016,"1627":-42.13224792480469,"1628":-42.11611557006836,"1629":42.09947967529297,"1630":42.0736198425293,"1631":-42.091670989990234,"1632":42.096710205078125,"1633":-42.15208435058594,"1634":-42.191497802734375,"1635":-42.174964904785156,"1636":42.19090270996094,"1637":-42.162010192871094,"1638":42.18356704711914,"1639":42.2169303894043,"1640":-42.170169830322266,"1641":42.196327209472656,"1642":-42.07805633544922,"1643":42.093849182128906,"1644":42.152286529541016,"1645":42.15304183959961,"1646":-28.775346755981445,"1647":42.217613220214844,"1648":-42.18025588989258,"1649":-42.15485763549805,"1650":-42.22063064575195,"1651":-42.07509994506836,"1652":42.15542984008789,"1653":31.576793670654297,"1654":12.1372652053833,"1655":29.25014305114746,"1656":5.673811912536621,"1657":5.643805980682373,"1658":-11.179060935974121,"1659":24.62149429321289,"1660":-14.776325225830078,"1661":-15.055121421813965,"1662":-18.169160842895508,"1663":-4.12787389755249,"1664":7.20888090133667,"1665":-30.71629524230957,"1666":-17.219831466674805,"1667":28.354122161865234,"1668":-5.969005584716797,"1669":-25.694852828979492,"1670":29.934329986572266,"1671":-13.492772102355957,"1672":15.896310806274414,"1673":25.284536361694336,"1674":4.005144119262695,"1675":28.985273361206055,"1676":9.3218355178833,"1677":7.819629669189453,"1678":-12.74251651763916,"1679":28.88412094116211,"1680":6.053125858306885,"1681":-22.35686492919922,"1682":-29.428043365478516,"1683":25.71290397644043,"1684":-5.305593490600586,"1685":-31.56448745727539,"1686":17.320669174194336,"1687":9.262866973876953,"1688":-7.675964832305908,"1689":21.454349517822266,"1690":-21.88523292541504,"1691":-31.124481201171875,"1692":-22.231962203979492,"1693":-28.94597816467285,"1694":-4.796753406524658,"1695":5.970351219177246,"1696":3.8592352867126465,"1697":-5.12997579574585,"1698":8.4524507522583,"1699":0.34980273246765137,"1700":28.910322189331055,"1701":18.591323852539062,"1702":23.61978530883789,"1703":11.064233779907227,"1704":11.943891525268555,"1705":-31.110689163208008,"1706":-14.112464904785156,"1707":-31.606887817382812,"1708":-22.788410186767578,"1709":23.025381088256836,"1710":-0.00044977833749726415,"1711":0.41316163539886475,"1712":-0.12300651520490646,"1713":0.03702503442764282,"1714":-0.14404547214508057,"1715":1.875199556350708,"1716":0.004406600724905729,"1717":-0.17135010659694672,"1718":-1.259313702583313,"1719":-0.03652704879641533,"1720":1.7066516876220703,"1721":0.00488424114882946,"1722":-1.9361447095870972,"1723":-3.899244546890259,"1724":-0.10634062439203262,"1725":0.003621277865022421,"1726":-0.13047602772712708,"1727":0.22352269291877747,"1728":-0.06592504680156708,"1729":-0.19090694189071655,"1730":0.21083299815654755,"1731":-0.028511224314570427,"1732":-0.08414886891841888,"1733":-0.03888234496116638,"1734":0.09637461602687836,"1735":-0.48369938135147095,"1736":0.05272183567285538,"1737":1.3094476461410522,"1738":0.9314676523208618,"1739":-0.10150709003210068,"1740":0.9130647778511047,"1741":-0.10085440427064896,"1742":-12.568533897399902,"1743":0.10776910930871964,"1744":0.0037426359485834837,"1745":-0.16196683049201965,"1746":0.054322414100170135,"1747":-0.01796880178153515,"1748":1.2221996784210205,"1749":0.21929903328418732,"1750":0.024194030091166496,"1751":-1.6494427919387817,"1752":-0.15850065648555756,"1753":6.116516590118408,"1754":-0.005929115694016218,"1755":0.022547459229826927,"1756":-0.07522778958082199,"1757":-0.00003295499482192099,"1758":-0.009902406483888626,"1759":-0.07628535479307175,"1760":-0.13339968025684357,"1761":-0.0198472049087286,"1762":0.013594825752079487,"1763":-0.03602898120880127,"1764":0.42445147037506104,"1765":0.0774279534816742,"1766":0.03746962547302246,"1767":-31.80324363708496,"1768":31.728788375854492,"1769":-31.742443084716797,"1770":-31.620708465576172,"1771":-31.197368621826172,"1772":-31.242725372314453,"1773":31.68656349182129,"1774":-31.158477783203125,"1775":31.317230224609375,"1776":31.18600845336914,"1777":31.7211856842041,"1778":31.204200744628906,"1779":-31.260086059570312,"1780":-31.088268280029297,"1781":31.614057540893555,"1782":31.139423370361328,"1783":31.210960388183594,"1784":30.99103546142578,"1785":31.269210815429688,"1786":-31.200834274291992,"1787":-31.19031524658203,"1788":-31.168312072753906,"1789":31.68467903137207,"1790":31.692659378051758,"1791":31.187786102294922,"1792":-31.16944122314453,"1793":-31.703561782836914,"1794":-31.230680465698242,"1795":31.657230377197266,"1796":31.799762725830078,"1797":31.201231002807617,"1798":31.219139099121094,"1799":31.668203353881836,"1800":-31.681169509887695,"1801":-31.126676559448242,"1802":31.506616592407227,"1803":-31.801387786865234,"1804":31.720792770385742,"1805":31.699872970581055,"1806":31.16458511352539,"1807":-31.189842224121094,"1808":31.232982635498047,"1809":-31.10635757446289,"1810":-31.091552734375,"1811":31.65444564819336,"1812":-31.772003173828125,"1813":31.65694236755371,"1814":-31.74822425842285,"1815":-31.744956970214844,"1816":-31.191436767578125,"1817":31.089841842651367,"1818":-31.708433151245117,"1819":31.676406860351562,"1820":31.63814926147461,"1821":31.769132614135742,"1822":31.130176544189453,"1823":-31.66853141784668,"1824":436.1972351074219,"1825":436.06903076171875,"1826":436.13092041015625,"1827":436.1791076660156,"1828":436.10357666015625,"1829":-436.1534118652344,"1830":-436.1737976074219,"1831":436.1136779785156,"1832":-436.18115234375,"1833":436.08203125,"1834":-436.0897216796875,"1835":436.1501770019531,"1836":436.12982177734375,"1837":-436.06024169921875,"1838":-436.12432861328125,"1839":436.0723876953125,"1840":436.0731201171875,"1841":-436.1697998046875,"1842":-436.12744140625,"1843":-436.197021484375,"1844":-436.1906433105469,"1845":436.17987060546875,"1846":-436.0947570800781,"1847":436.0935974121094,"1848":436.19415283203125,"1849":-436.1817321777344,"1850":436.1691589355469,"1851":436.1789855957031,"1852":-436.1600341796875,"1853":-436.14544677734375,"1854":-436.1287536621094,"1855":-436.1289367675781,"1856":-436.0833740234375,"1857":436.2004089355469,"1858":-436.06658935546875,"1859":-436.1342468261719,"1860":436.0944519042969,"1861":-436.0965576171875,"1862":-436.20025634765625,"1863":436.1311340332031,"1864":436.1718444824219,"1865":-436.1666259765625,"1866":436.1246337890625,"1867":436.1151428222656,"1868":-436.10009765625,"1869":436.13018798828125,"1870":-436.09637451171875,"1871":436.1830749511719,"1872":436.1276550292969,"1873":-436.1490173339844,"1874":436.1712341308594,"1875":436.0674743652344,"1876":-436.06878662109375,"1877":-436.1669921875,"1878":-436.0786437988281,"1879":436.1886291503906,"1880":436.0589904785156,"1881":-152.40553283691406,"1882":152.33436584472656,"1883":-152.30471801757812,"1884":-152.30921936035156,"1885":152.35044860839844,"1886":152.28831481933594,"1887":152.26980590820312,"1888":152.39137268066406,"1889":152.31121826171875,"1890":-145.9296112060547,"1891":152.39007568359375,"1892":152.27261352539062,"1893":-152.26966857910156,"1894":152.36630249023438,"1895":152.2665252685547,"1896":152.40065002441406,"1897":152.28256225585938,"1898":152.37435913085938,"1899":152.34060668945312,"1900":-152.26248168945312,"1901":151.69137573242188,"1902":-152.3075714111328,"1903":152.3340301513672,"1904":-152.3780517578125,"1905":-152.34291076660156,"1906":-152.28787231445312,"1907":-152.40480041503906,"1908":-152.2602081298828,"1909":152.2671356201172,"1910":152.3262176513672,"1911":-152.2941436767578,"1912":152.25698852539062,"1913":152.37661743164062,"1914":-152.30368041992188,"1915":152.13088989257812,"1916":151.83457946777344,"1917":-152.3015899658203,"1918":152.30276489257812,"1919":152.34605407714844,"1920":152.3702850341797,"1921":152.32974243164062,"1922":152.31069946289062,"1923":152.2954864501953,"1924":-151.9699249267578,"1925":152.26914978027344,"1926":-152.31919860839844,"1927":152.2620391845703,"1928":-152.3342742919922,"1929":-152.0850067138672,"1930":152.41265869140625,"1931":-151.84854125976562,"1932":-152.3002166748047,"1933":-152.2585906982422,"1934":152.376220703125,"1935":152.35154724121094,"1936":-152.3660430908203,"1937":-152.3218994140625,"1938":4.010445594787598,"1939":1.956498384475708,"1940":2.4506101608276367,"1941":1.9365867376327515,"1942":-2.2000584602355957,"1943":-1.9890294075012207,"1944":-1.962874412536621,"1945":2.0523788928985596,"1946":2.5191895961761475,"1947":-2.035778760910034,"1948":-2.00490403175354,"1949":2.012392282485962,"1950":-2.0754990577697754,"1951":1.983379602432251,"1952":-2.0629162788391113,"1953":2.1628165245056152,"1954":-9.707762718200684,"1955":7.747658729553223,"1956":1.9658983945846558,"1957":1.9725035429000854,"1958":16.018714904785156,"1959":2.0506997108459473,"1960":-1.9638195037841797,"1961":2.262346029281616,"1962":1.900614619255066,"1963":-2.2407901287078857,"1964":2.0280516147613525,"1965":-2.0972347259521484,"1966":-2.968989610671997,"1967":2.5588226318359375,"1968":-1.9281302690505981,"1969":2.080749034881592,"1970":-2.0872466564178467,"1971":2.0027096271514893,"1972":-2.121630907058716,"1973":-2.0046439170837402,"1974":2.014599084854126,"1975":2.071532726287842,"1976":-2.219151496887207,"1977":2.037790298461914,"1978":2.0683982372283936,"1979":-1.958500623703003,"1980":2.089202880859375,"1981":1.9856524467468262,"1982":-1.9380179643630981,"1983":2.0125505924224854,"1984":1.941880464553833,"1985":2.5191259384155273,"1986":2.0541512966156006,"1987":2.0874924659729004,"1988":2.0183048248291016,"1989":2.0293216705322266,"1990":-1.9137403964996338,"1991":-1.9431570768356323,"1992":2.081989049911499,"1993":-2.1335859298706055,"1994":1.948312759399414,"1995":18.46369743347168,"1996":18.517074584960938,"1997":18.400936126708984,"1998":18.447711944580078,"1999":18.475339889526367,"2000":-18.430450439453125,"2001":-18.365957260131836,"2002":18.49567222595215,"2003":-18.419315338134766,"2004":-18.51146697998047,"2005":-18.462465286254883,"2006":18.435203552246094,"2007":-18.494348526000977,"2008":-18.48526382446289,"2009":18.42459487915039,"2010":-18.472370147705078,"2011":-18.496553421020508,"2012":18.43276023864746,"2013":18.471256256103516,"2014":18.405906677246094,"2015":-18.3830623626709,"2016":18.394664764404297,"2017":-18.488330841064453,"2018":-18.41459846496582,"2019":-18.483163833618164,"2020":-18.45760154724121,"2021":18.44439125061035,"2022":18.441389083862305,"2023":-18.47469711303711,"2024":18.365581512451172,"2025":18.394428253173828,"2026":-18.429048538208008,"2027":-18.398147583007812,"2028":18.397485733032227,"2029":18.512649536132812,"2030":-18.383310317993164,"2031":18.02985954284668,"2032":-18.42877197265625,"2033":-18.448638916015625,"2034":-18.4657039642334,"2035":18.43014144897461,"2036":-18.38808250427246,"2037":18.497726440429688,"2038":18.430917739868164,"2039":-18.44354820251465,"2040":18.461030960083008,"2041":-18.437137603759766,"2042":18.522491455078125,"2043":18.317110061645508,"2044":18.36882972717285,"2045":18.443578720092773,"2046":18.461849212646484,"2047":-18.28603172302246,"2048":-18.377716064453125,"2049":-18.422338485717773,"2050":-18.486331939697266,"2051":18.491445541381836,"2052":-39.68843460083008,"2053":-24.528518676757812,"2054":-57.02227783203125,"2055":31.6431941986084,"2056":-38.812034606933594,"2057":30.220605850219727,"2058":40.03630447387695,"2059":39.18594741821289,"2060":53.16325378417969,"2061":6.478662490844727,"2062":38.141204833984375,"2063":-40.478240966796875,"2064":48.48480987548828,"2065":-39.38376998901367,"2066":37.85948181152344,"2067":35.98015594482422,"2068":-42.38502883911133,"2069":-10.313067436218262,"2070":-56.674007415771484,"2071":-47.92586898803711,"2072":47.316246032714844,"2073":-42.725528717041016,"2074":-47.4988899230957,"2075":57.46466064453125,"2076":46.21089172363281,"2077":-32.62628936767578,"2078":19.185588836669922,"2079":43.07841491699219,"2080":57.26788330078125,"2081":10.998019218444824,"2082":44.176734924316406,"2083":-57.421817779541016,"2084":-41.019569396972656,"2085":50.75322341918945,"2086":-41.57996368408203,"2087":19.891193389892578,"2088":36.9209098815918,"2089":19.09903907775879,"2090":-15.32935905456543,"2091":35.270084381103516,"2092":-41.20151901245117,"2093":24.629179000854492,"2094":-17.144123077392578,"2095":-39.43133544921875,"2096":23.791669845581055,"2097":-28.966007232666016,"2098":-26.397117614746094,"2099":-38.799537658691406,"2100":-41.447471618652344,"2101":38.62599182128906,"2102":28.72414207458496,"2103":-19.281288146972656,"2104":35.641971588134766,"2105":55.44194793701172,"2106":46.797454833984375,"2107":-37.7962532043457,"2108":34.21724319458008,"2109":-64.84146881103516,"2110":72.04338073730469,"2111":-46.35442352294922,"2112":-68.49686431884766,"2113":73.19259643554688,"2114":37.621971130371094,"2115":63.280277252197266,"2116":62.992855072021484,"2117":-59.9041633605957,"2118":-65.37300109863281,"2119":62.011775970458984,"2120":33.173736572265625,"2121":-65.00758361816406,"2122":60.32551574707031,"2123":65.49502563476562,"2124":-66.03095245361328,"2125":-66.51907348632812,"2126":-59.13445281982422,"2127":71.77880859375,"2128":58.634456634521484,"2129":-65.06507110595703,"2130":14.146841049194336,"2131":66.46703338623047,"2132":49.604923248291016,"2133":-72.23511505126953,"2134":59.33985137939453,"2135":-69.69713592529297,"2136":-63.57862091064453,"2137":59.50130081176758,"2138":65.97737121582031,"2139":-26.70461082458496,"2140":-30.49774169921875,"2141":70.57249450683594,"2142":-70.92208862304688,"2143":72.8636474609375,"2144":63.166473388671875,"2145":-68.83033752441406,"2146":60.48047637939453,"2147":69.49824523925781,"2148":-67.5744857788086,"2149":72.30744934082031,"2150":61.03386306762695,"2151":72.88772583007812,"2152":65.74151611328125,"2153":42.340850830078125,"2154":-59.36259078979492,"2155":38.21260070800781,"2156":-61.02428436279297,"2157":54.05632019042969,"2158":65.17890167236328,"2159":-69.7529296875,"2160":-64.62586975097656,"2161":61.076210021972656,"2162":49.4902458190918,"2163":61.652889251708984,"2164":-64.87149810791016,"2165":-71.87305450439453,"2166":-23.584239959716797,"2167":24.599849700927734,"2168":22.221099853515625,"2169":-23.41326332092285,"2170":21.66901969909668,"2171":22.60858917236328,"2172":24.544944763183594,"2173":20.907825469970703,"2174":-21.00079917907715,"2175":-14.157607078552246,"2176":22.732494354248047,"2177":-26.99575424194336,"2178":-23.591135025024414,"2179":14.39664363861084,"2180":29.149677276611328,"2181":-18.077892303466797,"2182":-19.977062225341797,"2183":-23.708850860595703,"2184":19.939279556274414,"2185":20.061094284057617,"2186":-30.44980812072754,"2187":18.635406494140625,"2188":24.35646629333496,"2189":-19.98154640197754,"2190":-24.012170791625977,"2191":16.997495651245117,"2192":-23.61000633239746,"2193":-21.100948333740234,"2194":-23.915103912353516,"2195":23.72675323486328,"2196":-17.200605392456055,"2197":26.460384368896484,"2198":23.4096736907959,"2199":-24.642620086669922,"2200":23.583009719848633,"2201":27.786977767944336,"2202":-25.48105812072754,"2203":22.073732376098633,"2204":21.789396286010742,"2205":-22.401371002197266,"2206":21.621387481689453,"2207":-14.298543930053711,"2208":22.46596908569336,"2209":17.8249568939209,"2210":23.519105911254883,"2211":-26.010705947875977,"2212":10.863324165344238,"2213":-20.28306007385254,"2214":-29.360898971557617,"2215":22.187273025512695,"2216":-22.182083129882812,"2217":-26.93767738342285,"2218":32.187225341796875,"2219":-9.756756782531738,"2220":19.01397705078125,"2221":-23.129329681396484,"2222":-28.544837951660156,"2223":57.495506286621094,"2224":-55.30154800415039,"2225":125.64000701904297,"2226":-54.05513000488281,"2227":-63.13184356689453,"2228":53.051822662353516,"2229":51.99843978881836,"2230":-166.8638153076172,"2231":-79.27279663085938,"2232":55.1747932434082,"2233":-105.30574798583984,"2234":-53.75847625732422,"2235":197.90744018554688,"2236":-58.87074279785156,"2237":91.67817687988281,"2238":344.37945556640625,"2239":-100.94925689697266,"2240":80.35559844970703,"2241":-52.1697883605957,"2242":100.882080078125,"2243":208.54078674316406,"2244":-289.105712890625,"2245":106.38417053222656,"2246":-53.667781829833984,"2247":-53.238616943359375,"2248":87.49909973144531,"2249":-178.8330841064453,"2250":173.6864776611328,"2251":-96.95499420166016,"2252":-121.75524139404297,"2253":186.19483947753906,"2254":62.065670013427734,"2255":-96.42011260986328,"2256":-108.9222412109375,"2257":-95.82337188720703,"2258":52.69844055175781,"2259":-52.09767532348633,"2260":-51.58153533935547,"2261":-244.02317810058594,"2262":-52.81492614746094,"2263":-54.097686767578125,"2264":-97.24324798583984,"2265":-55.91983413696289,"2266":-92.09227752685547,"2267":108.63259887695312,"2268":-84.4325942993164,"2269":-114.03376770019531,"2270":99.537841796875,"2271":-62.183841705322266,"2272":-59.99187088012695,"2273":-102.14081573486328,"2274":-89.44338989257812,"2275":80.98400115966797,"2276":154.00877380371094,"2277":-52.722965240478516,"2278":344.4278564453125,"2279":-116.8638916015625,"2280":14.604504585266113,"2281":-4.914507865905762,"2282":12.778990745544434,"2283":3.928217887878418,"2284":-2.7833056449890137,"2285":-12.789758682250977,"2286":-13.485025405883789,"2287":-11.81598949432373,"2288":-2.5810909271240234,"2289":5.643629550933838,"2290":-11.499552726745605,"2291":12.548905372619629,"2292":-2.6782119274139404,"2293":-2.9788830280303955,"2294":-11.989391326904297,"2295":4.144783973693848,"2296":13.853699684143066,"2297":7.994263648986816,"2298":13.800097465515137,"2299":-0.653388261795044,"2300":-0.5409813523292542,"2301":0.7574350237846375,"2302":0.7905293703079224,"2303":-11.922738075256348,"2304":2.4916768074035645,"2305":-6.42347526550293,"2306":7.6036458015441895,"2307":-1.701704978942871,"2308":-9.82629680633545,"2309":-9.04569149017334,"2310":1.0080127716064453,"2311":15.698476791381836,"2312":-3.9963815212249756,"2313":1.8713176250457764,"2314":-4.216745853424072,"2315":-9.158956527709961,"2316":6.986980438232422,"2317":-9.12964916229248,"2318":-7.519221305847168,"2319":5.9110260009765625,"2320":-1.424331545829773,"2321":1.17719566822052,"2322":-7.501757621765137,"2323":-3.0482068061828613,"2324":-11.075716972351074,"2325":10.951347351074219,"2326":2.4075095653533936,"2327":11.74486255645752,"2328":13.855753898620605,"2329":-12.73339557647705,"2330":5.177391529083252,"2331":13.495018005371094,"2332":-14.600173950195312,"2333":-13.942748069763184,"2334":-13.742326736450195,"2335":13.248262405395508,"2336":6.744822025299072,"2337":0.028342826291918755,"2338":0.013073520734906197,"2339":0.012769237160682678,"2340":-0.0033416729420423508,"2341":0.030148422345519066,"2342":0.038066472858190536,"2343":0.06723486632108688,"2344":0.061510730534791946,"2345":0.004489716142416,"2346":-0.010008951649069786,"2347":-0.05587301030755043,"2348":0.026054956018924713,"2349":-0.03096820041537285,"2350":-0.06896937638521194,"2351":-0.017104744911193848,"2352":0.06558743119239807,"2353":-0.03770361468195915,"2354":-0.043917905539274216,"2355":0.0029318297747522593,"2356":-0.039553333073854446,"2357":-0.017193881794810295,"2358":-0.06619063019752502,"2359":0.024693503975868225,"2360":-0.014907882548868656,"2361":-0.05753551051020622,"2362":-0.06145787239074707,"2363":-0.03312285244464874,"2364":0.0343017540872097,"2365":-0.05482667684555054,"2366":-0.0050715114921331406,"2367":-0.01539060939103365,"2368":-0.015269512310624123,"2369":0.07339678704738617,"2370":0.029826540499925613,"2371":-0.030934417620301247,"2372":0.05791376531124115,"2373":-0.039723485708236694,"2374":0.03365488350391388,"2375":-0.06315448135137558,"2376":0.043402332812547684,"2377":-0.05810422822833061,"2378":0.006814894732087851,"2379":-0.03189828619360924,"2380":0.018078554421663284,"2381":0.016355490311980247,"2382":0.0494471900165081,"2383":0.06063711643218994,"2384":0.004250589292496443,"2385":-0.026406819000840187,"2386":-0.011032737791538239,"2387":0.04355086758732796,"2388":0.051973167806863785,"2389":-0.057775113731622696,"2390":0.0372152216732502,"2391":0.04681755602359772,"2392":-0.05205309018492699,"2393":0.018019752576947212,"2394":18.278728485107422,"2395":-18.24256706237793,"2396":18.28753662109375,"2397":18.417640686035156,"2398":-16.8223876953125,"2399":18.133480072021484,"2400":-18.32989501953125,"2401":-18.21436309814453,"2402":-18.272268295288086,"2403":18.286754608154297,"2404":-18.334566116333008,"2405":-18.155029296875,"2406":18.193359375,"2407":-18.376161575317383,"2408":18.333473205566406,"2409":-18.417665481567383,"2410":-18.278257369995117,"2411":17.01194953918457,"2412":-18.246196746826172,"2413":18.410673141479492,"2414":-18.398611068725586,"2415":18.43014144897461,"2416":-18.22616195678711,"2417":-16.763334274291992,"2418":-17.317718505859375,"2419":-18.310718536376953,"2420":18.344480514526367,"2421":18.30122184753418,"2422":-18.376583099365234,"2423":-18.300457000732422,"2424":18.29539680480957,"2425":-18.374418258666992,"2426":-18.36319923400879,"2427":18.407142639160156,"2428":18.427997589111328,"2429":17.316083908081055,"2430":18.240022659301758,"2431":-18.27398109436035,"2432":-18.276962280273438,"2433":17.923274993896484,"2434":-18.21844482421875,"2435":-18.360332489013672,"2436":-17.952251434326172,"2437":18.37887191772461,"2438":-18.435840606689453,"2439":18.288286209106445,"2440":-18.298734664916992,"2441":18.23407554626465,"2442":-18.183847427368164,"2443":-18.13187599182129,"2444":18.35666275024414,"2445":18.346630096435547,"2446":-13.59046459197998,"2447":-18.305585861206055,"2448":-18.255983352661133,"2449":18.3048152923584,"2450":-18.161048889160156,"2451":0.07645648717880249,"2452":0.03854288160800934,"2453":-0.04390564560890198,"2454":-0.026928475126624107,"2455":0.06355373561382294,"2456":0.03530185669660568,"2457":-0.04464354366064072,"2458":0.05153005197644234,"2459":0.06647758185863495,"2460":0.008993730880320072,"2461":-0.048909470438957214,"2462":-0.04232862964272499,"2463":0.012510403990745544,"2464":0.02721417136490345,"2465":-0.0294068343937397,"2466":0.04447612538933754,"2467":0.060695040971040726,"2468":-0.06170445680618286,"2469":0.00471127312630415,"2470":-0.06964223086833954,"2471":-0.06941162049770355,"2472":0.07758326083421707,"2473":-0.007743137422949076,"2474":0.028134996071457863,"2475":-0.07458069920539856,"2476":-0.004112983122467995,"2477":-0.017558708786964417,"2478":0.06451407819986343,"2479":0.05030228942632675,"2480":-0.05938609689474106,"2481":-0.07034163922071457,"2482":0.05123327672481537,"2483":-0.011129211634397507,"2484":0.0401749387383461,"2485":-0.07275201380252838,"2486":-0.047457315027713776,"2487":0.060409169644117355,"2488":-0.06514285504817963,"2489":0.009519677609205246,"2490":0.07128114253282547,"2491":0.03384906053543091,"2492":-0.018038509413599968,"2493":0.022243067622184753,"2494":-0.012195069342851639,"2495":0.04757110774517059,"2496":-0.01587436906993389,"2497":-0.022821146994829178,"2498":-0.05092711001634598,"2499":-0.057530779391527176,"2500":-0.07138155400753021,"2501":0.00810895673930645,"2502":-0.07101117819547653,"2503":-0.028827615082263947,"2504":-0.058041755110025406,"2505":-0.005687203258275986,"2506":0.02114742062985897,"2507":0.011653495952486992,"2508":-0.02823168970644474,"2509":0.03737832233309746,"2510":-0.0051379119977355,"2511":-0.058944132179021835,"2512":-0.015676235780119896,"2513":-0.039345476776361465,"2514":-0.03742748126387596,"2515":-0.06721328943967819,"2516":-0.05255403369665146,"2517":-0.0204399935901165,"2518":-0.03958704322576523,"2519":-0.028737593442201614,"2520":-0.07394172251224518,"2521":-0.04544989392161369,"2522":-0.05039902403950691,"2523":0.0666627585887909,"2524":0.07742650806903839,"2525":0.012181282974779606,"2526":0.07676766812801361,"2527":-0.012458394281566143,"2528":-0.029004760086536407,"2529":0.05413331091403961,"2530":-0.016140183433890343,"2531":-0.016826601698994637,"2532":-0.035316821187734604,"2533":0.0657988041639328,"2534":-0.06088510900735855,"2535":0.008187039755284786,"2536":-0.0005439433152787387,"2537":-0.043728675693273544,"2538":0.06439060717821121,"2539":0.009810039773583412,"2540":-0.029818197712302208,"2541":0.07515246421098709,"2542":-0.07178837805986404,"2543":-0.019350644201040268,"2544":-0.057993654161691666,"2545":0.06983883678913116,"2546":-0.039420004934072495,"2547":0.02188534289598465,"2548":0.01516988966614008,"2549":-0.07762192189693451,"2550":0.020174501463770866,"2551":-0.014194789342582226,"2552":0.014138609170913696,"2553":-0.04386497288942337,"2554":0.025750545784831047,"2555":0.06950229406356812,"2556":-0.02128119394183159,"2557":0.009722468443214893,"2558":-0.009561783634126186,"2559":0.061416469514369965,"2560":0.040302686393260956,"2561":-0.0037505454383790493,"2562":-0.06267094612121582,"2563":-0.05510105937719345,"2564":-0.06558264791965485,"2565":18.60030174255371,"2566":-18.580459594726562,"2567":18.55317497253418,"2568":18.432432174682617,"2569":18.402294158935547,"2570":18.392732620239258,"2571":-18.4813289642334,"2572":-18.568065643310547,"2573":-18.60271453857422,"2574":18.573843002319336,"2575":-18.558263778686523,"2576":-18.46706199645996,"2577":18.572301864624023,"2578":-18.524168014526367,"2579":-18.5014705657959,"2580":-18.498136520385742,"2581":18.44624137878418,"2582":-18.309892654418945,"2583":-18.462656021118164,"2584":-18.497602462768555,"2585":18.014001846313477,"2586":-18.555538177490234,"2587":-18.488229751586914,"2588":-18.44174575805664,"2589":18.56058120727539,"2590":18.48493766784668,"2591":18.604372024536133,"2592":18.590087890625,"2593":17.581758499145508,"2594":-18.515830993652344,"2595":18.574989318847656,"2596":-18.558996200561523,"2597":-18.50752830505371,"2598":-18.598224639892578,"2599":18.468055725097656,"2600":18.514741897583008,"2601":-18.357208251953125,"2602":-18.466176986694336,"2603":-9.67227554321289,"2604":-18.5222110748291,"2605":-18.565521240234375,"2606":-18.460975646972656,"2607":-18.45904541015625,"2608":-18.580394744873047,"2609":18.582386016845703,"2610":-18.3701229095459,"2611":-18.521987915039062,"2612":18.541290283203125,"2613":18.597370147705078,"2614":-18.469270706176758,"2615":-18.493515014648438,"2616":18.53759002685547,"2617":-18.571630477905273,"2618":18.46416664123535,"2619":-18.542842864990234,"2620":18.578216552734375,"2621":18.509546279907227,"2622":28.89572525024414,"2623":-23.000967025756836,"2624":27.313684463500977,"2625":-15.083590507507324,"2626":-20.0667781829834,"2627":8.219181060791016,"2628":8.146414756774902,"2629":-28.2415771484375,"2630":-21.53069305419922,"2631":-13.472026824951172,"2632":8.96358871459961,"2633":-8.246589660644531,"2634":-18.545726776123047,"2635":17.137739181518555,"2636":8.349327087402344,"2637":21.183496475219727,"2638":-7.694941997528076,"2639":24.845779418945312,"2640":28.099836349487305,"2641":19.060850143432617,"2642":18.980649948120117,"2643":-18.499258041381836,"2644":18.93452262878418,"2645":-28.650436401367188,"2646":-17.881153106689453,"2647":15.263093948364258,"2648":23.212135314941406,"2649":-18.350643157958984,"2650":-27.324691772460938,"2651":-25.74725914001465,"2652":19.479835510253906,"2653":29.30344581604004,"2654":-20.090229034423828,"2655":-19.137910842895508,"2656":-20.19647789001465,"2657":10.495647430419922,"2658":-15.860529899597168,"2659":11.358759880065918,"2660":-23.017805099487305,"2661":-15.469850540161133,"2662":-19.843605041503906,"2663":20.448808670043945,"2664":-23.423322677612305,"2665":-20.773109436035156,"2666":8.952421188354492,"2667":-9.474405288696289,"2668":18.799362182617188,"2669":27.482885360717773,"2670":29.28690528869629,"2671":8.486746788024902,"2672":-14.924072265625,"2673":-9.744312286376953,"2674":-29.182889938354492,"2675":8.606377601623535,"2676":-29.05317497253418,"2677":-8.374480247497559,"2678":22.106552124023438,"2679":-59.5689811706543,"2680":58.98589324951172,"2681":-59.60128402709961,"2682":-59.43375778198242,"2683":59.19031524658203,"2684":-58.912811279296875,"2685":-59.63165283203125,"2686":59.66228103637695,"2687":59.704551696777344,"2688":-59.57352828979492,"2689":59.21672439575195,"2690":59.6431999206543,"2691":59.69429016113281,"2692":59.57705307006836,"2693":-59.704383850097656,"2694":59.71863555908203,"2695":59.7066650390625,"2696":-59.717899322509766,"2697":59.41128158569336,"2698":-59.543521881103516,"2699":59.60383605957031,"2700":59.604042053222656,"2701":58.39510726928711,"2702":59.74948501586914,"2703":59.6662712097168,"2704":59.6363410949707,"2705":59.67560577392578,"2706":-59.59827423095703,"2707":-59.539817810058594,"2708":59.66572189331055,"2709":-59.43604278564453,"2710":59.67850875854492,"2711":-59.696449279785156,"2712":-59.575130462646484,"2713":-59.62895965576172,"2714":-59.62336730957031,"2715":59.57701110839844,"2716":59.65280532836914,"2717":-59.685546875,"2718":59.686397552490234,"2719":59.63975524902344,"2720":59.63044738769531,"2721":59.67423629760742,"2722":-59.66298294067383,"2723":59.43647003173828,"2724":59.70773696899414,"2725":59.37150573730469,"2726":-59.5560302734375,"2727":-59.429168701171875,"2728":59.71672821044922,"2729":59.70408630371094,"2730":59.68275833129883,"2731":-59.71672058105469,"2732":59.54206466674805,"2733":59.69417953491211,"2734":59.514156341552734,"2735":-57.636295318603516,"2736":-18.22771644592285,"2737":-18.288578033447266,"2738":-18.334213256835938,"2739":-18.372079849243164,"2740":18.293476104736328,"2741":18.40660285949707,"2742":17.900711059570312,"2743":18.524629592895508,"2744":-18.547569274902344,"2745":-18.469982147216797,"2746":18.514026641845703,"2747":-17.30503273010254,"2748":18.422590255737305,"2749":18.206796646118164,"2750":-18.465978622436523,"2751":-18.475055694580078,"2752":-18.511690139770508,"2753":16.339744567871094,"2754":-18.52431297302246,"2755":18.46403694152832,"2756":18.489383697509766,"2757":18.497089385986328,"2758":17.94926643371582,"2759":-18.510047912597656,"2760":2.975346326828003,"2761":17.84128189086914,"2762":-18.15256118774414,"2763":18.415382385253906,"2764":18.165773391723633,"2765":18.417383193969727,"2766":-18.210693359375,"2767":-18.383983612060547,"2768":-16.899274826049805,"2769":-18.188518524169922,"2770":17.76011085510254,"2771":18.35047721862793,"2772":-9.577350616455078,"2773":18.375192642211914,"2774":18.34550666809082,"2775":-17.46230125427246,"2776":18.365558624267578,"2777":-18.37660789489746,"2778":18.09491539001465,"2779":18.44091796875,"2780":18.39199447631836,"2781":-17.893957138061523,"2782":-18.494829177856445,"2783":-18.24410057067871,"2784":18.418479919433594,"2785":-18.35576629638672,"2786":-18.116186141967773,"2787":-17.90665054321289,"2788":18.385147094726562,"2789":18.020793914794922,"2790":18.437408447265625,"2791":-18.455692291259766,"2792":-18.325027465820312,"2793":0.5791555643081665,"2794":-1.2521378993988037,"2795":0.8133730292320251,"2796":16.075000762939453,"2797":-3.104851007461548,"2798":0.8562755584716797,"2799":0.7457792162895203,"2800":-0.646268904209137,"2801":-1.4513622522354126,"2802":-0.39374738931655884,"2803":1.6039246320724487,"2804":-0.7755259871482849,"2805":-0.5781365036964417,"2806":-1.1814146041870117,"2807":0.7214881777763367,"2808":-3.2076520919799805,"2809":-0.3800325393676758,"2810":0.27812573313713074,"2811":12.226031303405762,"2812":0.8032184839248657,"2813":0.28851258754730225,"2814":1.8096833229064941,"2815":0.718254566192627,"2816":-6.0648322105407715,"2817":-0.9891428351402283,"2818":0.38679659366607666,"2819":0.7757717967033386,"2820":-2.7880711555480957,"2821":-0.8294975161552429,"2822":-0.5758267045021057,"2823":0.3431622087955475,"2824":6.444796562194824,"2825":-0.45333415269851685,"2826":1.182132601737976,"2827":4.151548862457275,"2828":-2.9930686950683594,"2829":0.7902622818946838,"2830":-0.9885856509208679,"2831":-0.6695348024368286,"2832":-0.2434626668691635,"2833":-0.37003326416015625,"2834":3.2449846267700195,"2835":-1.177712321281433,"2836":5.886119365692139,"2837":-9.37185287475586,"2838":1.9231200218200684,"2839":1.2498997449874878,"2840":0.7737917304039001,"2841":1.158701777458191,"2842":0.7209659218788147,"2843":-0.8055930137634277,"2844":1.5918954610824585,"2845":-1.3728759288787842,"2846":-1.305835485458374,"2847":-0.5915167927742004,"2848":-0.3562251031398773,"2849":0.8569255471229553,"2850":-31.664701461791992,"2851":28.48114013671875,"2852":-31.492687225341797,"2853":31.509538650512695,"2854":31.455238342285156,"2855":-31.517488479614258,"2856":-31.35757064819336,"2857":29.230148315429688,"2858":27.239585876464844,"2859":30.639869689941406,"2860":-31.561256408691406,"2861":31.53203773498535,"2862":31.62691307067871,"2863":-31.153963088989258,"2864":-31.569477081298828,"2865":-31.575532913208008,"2866":31.58016586303711,"2867":-31.488731384277344,"2868":-16.239564895629883,"2869":-29.33391571044922,"2870":-31.578733444213867,"2871":31.586965560913086,"2872":-31.661985397338867,"2873":31.64087677001953,"2874":31.666730880737305,"2875":-31.4310302734375,"2876":-31.391704559326172,"2877":31.44744873046875,"2878":31.517427444458008,"2879":31.431564331054688,"2880":-30.581085205078125,"2881":-31.537080764770508,"2882":31.53329849243164,"2883":31.129150390625,"2884":31.109195709228516,"2885":-31.459259033203125,"2886":25.720130920410156,"2887":-27.165719985961914,"2888":31.610607147216797,"2889":31.454723358154297,"2890":31.465755462646484,"2891":-31.508485794067383,"2892":31.492483139038086,"2893":31.564443588256836,"2894":-31.525325775146484,"2895":31.33513641357422,"2896":-31.594038009643555,"2897":-31.32909393310547,"2898":-29.45611572265625,"2899":-31.515785217285156,"2900":31.5997257232666,"2901":31.521167755126953,"2902":31.51426887512207,"2903":-31.388553619384766,"2904":31.55893898010254,"2905":31.432876586914062,"2906":-17.249019622802734,"2907":-10.868857383728027,"2908":-2.7328577041625977,"2909":-14.390772819519043,"2910":-14.437508583068848,"2911":-14.49352741241455,"2912":14.038625717163086,"2913":11.462738990783691,"2914":-0.1078825294971466,"2915":14.26649284362793,"2916":-13.949275016784668,"2917":11.634969711303711,"2918":-14.472943305969238,"2919":-11.419914245605469,"2920":11.1734619140625,"2921":11.246926307678223,"2922":14.281681060791016,"2923":-14.553543090820312,"2924":11.147090911865234,"2925":11.161643028259277,"2926":14.261329650878906,"2927":14.498884201049805,"2928":-14.209494590759277,"2929":11.629429817199707,"2930":-11.50733470916748,"2931":-11.457989692687988,"2932":16.0533447265625,"2933":-12.216297149658203,"2934":-11.798514366149902,"2935":14.114520072937012,"2936":11.572049140930176,"2937":13.898778915405273,"2938":11.543355941772461,"2939":11.588492393493652,"2940":-14.533278465270996,"2941":-13.771275520324707,"2942":14.378290176391602,"2943":-14.412144660949707,"2944":14.38701343536377,"2945":14.087891578674316,"2946":-16.068349838256836,"2947":-14.43274211883545,"2948":11.966127395629883,"2949":-14.08365249633789,"2950":-14.333662986755371,"2951":14.468567848205566,"2952":-14.392797470092773,"2953":11.357268333435059,"2954":-14.496031761169434,"2955":-14.467719078063965,"2956":11.34469223022461,"2957":-14.555134773254395,"2958":-11.977326393127441,"2959":14.537493705749512,"2960":14.45344352722168,"2961":11.029520034790039,"2962":-11.18692398071289,"2963":-11.23377799987793,"2964":18.55591583251953,"2965":-18.398395538330078,"2966":-18.565675735473633,"2967":-18.574085235595703,"2968":18.500812530517578,"2969":-18.589576721191406,"2970":-18.486587524414062,"2971":-18.595430374145508,"2972":18.581727981567383,"2973":18.61980628967285,"2974":-18.641931533813477,"2975":18.63861083984375,"2976":18.5532169342041,"2977":18.512596130371094,"2978":-18.599035263061523,"2979":18.544208526611328,"2980":18.591516494750977,"2981":18.474971771240234,"2982":18.411725997924805,"2983":-18.549102783203125,"2984":18.55851936340332,"2985":-18.502681732177734,"2986":18.60909652709961,"2987":18.530447006225586,"2988":18.58512306213379,"2989":18.510677337646484,"2990":-18.526453018188477,"2991":18.44615936279297,"2992":18.593029022216797,"2993":-18.557376861572266,"2994":18.02024269104004,"2995":-18.983814239501953,"2996":-18.807764053344727,"2997":-18.614686965942383,"2998":-18.570690155029297,"2999":-18.77867889404297,"3000":-18.598012924194336,"3001":18.495094299316406,"3002":18.55339813232422,"3003":18.522476196289062,"3004":-18.55019187927246,"3005":-18.600679397583008,"3006":-18.539674758911133,"3007":18.424560546875,"3008":18.48441505432129,"3009":-18.423192977905273,"3010":18.596485137939453,"3011":-18.43309783935547,"3012":-18.521005630493164,"3013":-18.562341690063477,"3014":18.57478904724121,"3015":18.580381393432617,"3016":18.426406860351562,"3017":18.565826416015625,"3018":18.45775604248047,"3019":-18.47096824645996,"3020":-18.48113250732422,"3021":-0.05057672783732414,"3022":-0.03475918993353844,"3023":0.011129091493785381,"3024":0.011450296267867088,"3025":0.03136640787124634,"3026":-0.03708342835307121,"3027":0.000045198707084637135,"3028":-0.024445809423923492,"3029":-0.053215183317661285,"3030":-0.03995371237397194,"3031":0.00810182187706232,"3032":-0.007500038482248783,"3033":-0.005390795413404703,"3034":-0.028780078515410423,"3035":-0.0041557736694812775,"3036":0.05393790453672409,"3037":-0.02211007848381996,"3038":0.001907856436446309,"3039":-0.01482296921312809,"3040":0.03161026909947395,"3041":0.013254472054541111,"3042":-0.042407333850860596,"3043":0.058255165815353394,"3044":-0.01575264148414135,"3045":0.05118722468614578,"3046":0.001440392225049436,"3047":-0.02789885178208351,"3048":-0.043095316737890244,"3049":-0.039140742272138596,"3050":-0.01493043638765812,"3051":0.044475410133600235,"3052":0.02258308231830597,"3053":-0.05262063071131706,"3054":-0.026750383898615837,"3055":-0.034507766366004944,"3056":0.04192769527435303,"3057":0.005008606240153313,"3058":-0.006779024377465248,"3059":0.025606680661439896,"3060":0.06548299640417099,"3061":-0.019201356917619705,"3062":0.06886854022741318,"3063":0.04675702005624771,"3064":0.024078838527202606,"3065":-0.021621964871883392,"3066":0.04564044252038002,"3067":-0.047444216907024384,"3068":0.007515552453696728,"3069":-0.05952221527695656,"3070":0.06617739051580429,"3071":-0.015957999974489212,"3072":-0.027677474543452263,"3073":0.05986427143216133,"3074":0.06766288727521896,"3075":-0.04467112571001053,"3076":-0.07707339525222778,"3077":-0.04028116911649704,"3078":18.526063919067383,"3079":-18.468399047851562,"3080":18.40806007385254,"3081":-18.500667572021484,"3082":-18.486230850219727,"3083":18.44806480407715,"3084":18.44033432006836,"3085":-18.453956604003906,"3086":-18.449871063232422,"3087":18.52759552001953,"3088":-18.467269897460938,"3089":-18.403867721557617,"3090":18.4129581451416,"3091":-18.47657012939453,"3092":18.378461837768555,"3093":18.371030807495117,"3094":-18.464712142944336,"3095":18.48804473876953,"3096":-18.434955596923828,"3097":18.47862434387207,"3098":18.447494506835938,"3099":-18.486745834350586,"3100":-18.501859664916992,"3101":-18.422693252563477,"3102":18.45541763305664,"3103":18.466890335083008,"3104":18.50239372253418,"3105":18.497798919677734,"3106":-18.436439514160156,"3107":-18.5206298828125,"3108":18.461902618408203,"3109":-18.524850845336914,"3110":-18.421491622924805,"3111":18.45936393737793,"3112":-18.419353485107422,"3113":18.452674865722656,"3114":-18.513805389404297,"3115":-18.489147186279297,"3116":-18.52176856994629,"3117":-18.403587341308594,"3118":-18.471698760986328,"3119":18.409793853759766,"3120":-18.37718391418457,"3121":-18.426158905029297,"3122":18.466581344604492,"3123":-18.38960075378418,"3124":-18.523691177368164,"3125":18.474666595458984,"3126":-18.409557342529297,"3127":-18.50162696838379,"3128":-18.379104614257812,"3129":-18.51656150817871,"3130":18.426895141601562,"3131":18.531694412231445,"3132":-18.426502227783203,"3133":18.376619338989258,"3134":-18.457103729248047,"3135":-16.361148834228516,"3136":-18.08466148376465,"3137":-9.416257858276367,"3138":-16.823923110961914,"3139":16.907011032104492,"3140":18.349891662597656,"3141":17.163249969482422,"3142":-15.320718765258789,"3143":-17.534910202026367,"3144":15.905256271362305,"3145":-17.44449806213379,"3146":-18.2376651763916,"3147":18.975109100341797,"3148":18.387617111206055,"3149":-18.9147891998291,"3150":-17.708471298217773,"3151":16.99228858947754,"3152":18.51353645324707,"3153":18.096920013427734,"3154":-18.46537971496582,"3155":-16.1630859375,"3156":18.128515243530273,"3157":-18.290422439575195,"3158":-19.177637100219727,"3159":-18.007579803466797,"3160":18.8583927154541,"3161":-16.788681030273438,"3162":-17.83488655090332,"3163":-18.713834762573242,"3164":-8.84415340423584,"3165":-17.91562271118164,"3166":6.573677062988281,"3167":-19.50545883178711,"3168":17.51433753967285,"3169":-20.213699340820312,"3170":17.495616912841797,"3171":18.055086135864258,"3172":-17.726293563842773,"3173":16.697601318359375,"3174":18.16548728942871,"3175":17.873374938964844,"3176":-18.299922943115234,"3177":16.24686050415039,"3178":16.891809463500977,"3179":-14.04968547821045,"3180":14.985454559326172,"3181":18.170080184936523,"3182":11.70969009399414,"3183":18.653156280517578,"3184":-18.745168685913086,"3185":19.09915542602539,"3186":19.007596969604492,"3187":-15.819418907165527,"3188":-18.74066925048828,"3189":-14.318337440490723,"3190":17.780344009399414,"3191":-16.98189926147461,"3192":-11.442039489746094,"3193":-18.914766311645508,"3194":-18.506725311279297,"3195":17.746309280395508,"3196":18.280548095703125,"3197":-6.1703901290893555,"3198":17.716800689697266,"3199":-14.733585357666016,"3200":-16.618480682373047,"3201":-18.198217391967773,"3202":-17.213232040405273,"3203":-5.5184221267700195,"3204":18.6549129486084,"3205":-17.785593032836914,"3206":-19.19401741027832,"3207":-18.83988380432129,"3208":13.770770072937012,"3209":18.688568115234375,"3210":-18.662338256835938,"3211":-17.842899322509766,"3212":18.379533767700195,"3213":18.827571868896484,"3214":-18.0153751373291,"3215":-18.020549774169922,"3216":16.76302146911621,"3217":-16.427221298217773,"3218":-18.18775177001953,"3219":-17.889238357543945,"3220":-14.268505096435547,"3221":17.8563289642334,"3222":-18.00623321533203,"3223":17.420307159423828,"3224":16.336505889892578,"3225":16.898635864257812,"3226":-18.097318649291992,"3227":17.845680236816406,"3228":18.27789306640625,"3229":-19.17771339416504,"3230":17.7330379486084,"3231":17.006933212280273,"3232":17.842275619506836,"3233":16.628524780273438,"3234":18.533889770507812,"3235":18.495820999145508,"3236":-16.923927307128906,"3237":17.945539474487305,"3238":17.752111434936523,"3239":17.76205825805664,"3240":18.560699462890625,"3241":-18.391132354736328,"3242":16.56353187561035,"3243":18.244001388549805,"3244":-18.684101104736328,"3245":-17.683856964111328,"3246":18.373708724975586,"3247":17.386859893798828,"3248":17.947919845581055,"3249":-0.028413159772753716,"3250":-0.034859079867601395,"3251":-0.07381468266248703,"3252":0.06484939903020859,"3253":-0.04136763885617256,"3254":0.0737939327955246,"3255":-0.060656458139419556,"3256":-0.07016011327505112,"3257":0.01151889469474554,"3258":-0.025631587952375412,"3259":0.007017796393483877,"3260":-0.056459229439496994,"3261":-0.0075332652777433395,"3262":-0.009180004708468914,"3263":0.029052546247839928,"3264":-0.008550189435482025,"3265":-0.049351174384355545,"3266":0.05545647069811821,"3267":-0.03955964371562004,"3268":0.06906510889530182,"3269":0.003255449468269944,"3270":0.01179512869566679,"3271":-0.005834758281707764,"3272":-0.07619262486696243,"3273":-0.01634237915277481,"3274":0.04140157997608185,"3275":-0.013275192119181156,"3276":0.03189311921596527,"3277":-0.007044085301458836,"3278":-0.016009651124477386,"3279":-0.049188677221536636,"3280":-0.01700514182448387,"3281":-0.007943172007799149,"3282":0.004003318026661873,"3283":0.023946749046444893,"3284":0.014361309818923473,"3285":-0.056517213582992554,"3286":0.07504802197217941,"3287":-0.04792587459087372,"3288":0.07640860974788666,"3289":-0.07425263524055481,"3290":0.026620326563715935,"3291":0.04445640742778778,"3292":-0.06990651786327362,"3293":0.07206404954195023,"3294":-0.027223313227295876,"3295":-0.01786193437874317,"3296":0.045834459364414215,"3297":-0.0012710135197266936,"3298":-0.05384938418865204,"3299":-0.03701978549361229,"3300":-0.056670669466257095,"3301":-0.06626467406749725,"3302":-0.045093148946762085,"3303":0.044041797518730164,"3304":0.038460083305835724,"3305":-0.07143596559762955}},"hiddenLayers":[{"inputMatrix":{"rows":20,"columns":57,"weights":{"0":35.28889465332031,"1":-9.173676490783691,"2":-0.8630752563476562,"3":36.851871490478516,"4":8.982585906982422,"5":-35.7384033203125,"6":0.14775508642196655,"7":22.508398056030273,"8":-36.669349670410156,"9":33.984066009521484,"10":-36.89373016357422,"11":36.99895477294922,"12":36.76173782348633,"13":0.29903677105903625,"14":-36.56101989746094,"15":0.3375277817249298,"16":36.89567565917969,"17":0.5383346676826477,"18":-36.239601135253906,"19":0.7933547496795654,"20":0.2561173141002655,"21":-0.10451283305883408,"22":0.13069424033164978,"23":-0.03778913989663124,"24":-0.044422395527362823,"25":0.4853811264038086,"26":0.009250663220882416,"27":-0.15888711810112,"28":-35.62514114379883,"29":-36.9649772644043,"30":-36.00468444824219,"31":-36.80094528198242,"32":-36.88038635253906,"33":-0.14742742478847504,"34":35.94757843017578,"35":-36.697113037109375,"36":-0.14776216447353363,"37":-36.66109848022461,"38":-37.0061149597168,"39":-0.1270778328180313,"40":36.735816955566406,"41":0.07914910465478897,"42":36.6187629699707,"43":-0.18811991810798645,"44":0.0828973576426506,"45":36.92948532104492,"46":0.44902804493904114,"47":36.67540740966797,"48":-0.48451414704322815,"49":-36.94962692260742,"50":36.60013198852539,"51":-0.07745485752820969,"52":-36.946998596191406,"53":-36.4752197265625,"54":1.3055996894836426,"55":-0.22254066169261932,"56":-0.2742793560028076,"57":29.010332107543945,"58":-14.6304349899292,"59":13.17168140411377,"60":-32.77092742919922,"61":-31.306190490722656,"62":24.962400436401367,"63":18.336566925048828,"64":-11.05520248413086,"65":-20.47262954711914,"66":29.907176971435547,"67":-18.806211471557617,"68":-10.37843132019043,"69":10.401629447937012,"70":-26.860082626342773,"71":0.08580584824085236,"72":-0.3467024862766266,"73":-27.993206024169922,"74":14.50732135772705,"75":-25.255870819091797,"76":29.282299041748047,"77":10.889126777648926,"78":-19.9420108795166,"79":3.0105133056640625,"80":-17.24327278137207,"81":-23.748233795166016,"82":18.523826599121094,"83":31.50255012512207,"84":21.089494705200195,"85":-25.233837127685547,"86":-14.530001640319824,"87":26.56024932861328,"88":15.099047660827637,"89":-4.391335964202881,"90":-13.285630226135254,"91":-19.727584838867188,"92":12.948457717895508,"93":-25.16424560546875,"94":-18.8477725982666,"95":-28.009477615356445,"96":-6.824118137359619,"97":-25.91611099243164,"98":-14.340209007263184,