{"type":"LSTM","options":{"inputSize":24,"inputRange":24,"hiddenLayers":[20,20],"outputSize":24,"decayRate":0.999,"smoothEps":1e-8,"regc":0.000001,"clipval":5,"maxPredictionLength":100,"dataFormatter":{"values":["Which brand has the highest sales?","1","What about the lowest?","0"],"indexTable":{"0":20,"1":16,"W":0,"h":1,"i":2,"c":3," ":4,"b":5,"r":6,"a":7,"n":8,"d":9,"s":10,"t":11,"e":12,"g":13,"l":14,"?":15,"o":17,"u":18,"w":19,"stop-input":21,"start-output":22,"unrecognized":23},"characterTable":{"0":"W","1":"h","2":"i","3":"c","4":" ","5":"b","6":"r","7":"a","8":"n","9":"d","10":"s","11":"t","12":"e","13":"g","14":"l","15":"?","16":"1","17":"o","18":"u","19":"w","20":"0","21":null,"22":null,"23":null},"characters":["W","h","i","c"," ","b","r","a","n","d","s","t","e","g","l","?","1","o","u","w","0","stop-input","start-output","unrecognized"],"specialIndexes":[21,22,23]}},"input":{"rows":25,"columns":24,"weights":{"0":-0.2608625888824463,"1":-0.22289693355560303,"2":-0.29139280319213867,"3":0.00340889859944582,"4":0.34891387820243835,"5":0.6056946516036987,"6":-0.33906805515289307,"7":-0.8083233833312988,"8":0.8298237919807434,"9":-0.6499829292297363,"10":0.9052208662033081,"11":-0.5177670121192932,"12":0.5169296264648438,"13":0.2861117124557495,"14":-0.658355176448822,"15":-0.22977328300476074,"16":-0.46588650345802307,"17":-1.0899157524108887,"18":-0.17756448686122894,"19":-0.8714854717254639,"20":0.22566953301429749,"21":-0.3266417980194092,"22":-0.23171696066856384,"23":-0.457620769739151,"24":0.9227009415626526,"25":0.1506468951702118,"26":-0.5899943113327026,"27":0.3218035399913788,"28":0.3429272472858429,"29":-0.8302913904190063,"30":1.0866707563400269,"31":0.9788309335708618,"32":-0.6234772801399231,"33":0.6501576900482178,"34":-1.047080397605896,"35":0.630177915096283,"36":-0.40468719601631165,"37":0.12940947711467743,"38":1.0994616746902466,"39":-0.7594904899597168,"40":0.908356785774231,"41":0.8234081268310547,"42":-0.8981332778930664,"43":1.1106032133102417,"44":0.4493997395038605,"45":0.904107391834259,"46":-0.5465466976165771,"47":0.93894362449646,"48":0.6018444299697876,"49":-0.5450812578201294,"50":-0.23691415786743164,"51":0.5779908895492554,"52":0.3583064377307892,"53":-0.11109983921051025,"54":0.7265446186065674,"55":-0.7786453366279602,"56":0.085145004093647,"57":-0.4036116898059845,"58":0.8218532800674438,"59":0.13327564299106598,"60":1.1653021574020386,"61":0.7071799039840698,"62":-0.4976235628128052,"63":-0.6643565893173218,"64":0.1399461328983307,"65":-0.17744740843772888,"66":-0.6400038599967957,"67":-0.2886815071105957,"68":-0.16202585399150848,"69":0.31982946395874023,"70":-0.49159279465675354,"71":0.14201119542121887,"72":-0.14505213499069214,"73":1.1442713737487793,"74":1.9416289329528809,"75":-1.6764086484909058,"76":-1.5760267972946167,"77":0.27520957589149475,"78":-0.25787821412086487,"79":-0.476274311542511,"80":1.5022145509719849,"81":-0.05022217333316803,"82":0.8410207033157349,"83":-0.15299935638904572,"84":-0.4558224380016327,"85":-1.4097484350204468,"86":-1.1929081678390503,"87":1.8571614027023315,"88":-0.30797669291496277,"89":-0.717735230922699,"90":1.8673957586288452,"91":-0.44408684968948364,"92":-1.4801374673843384,"93":-0.03002719208598137,"94":2.285233974456787,"95":0.010641664266586304,"96":1.8094799518585205,"97":-0.09414631128311157,"98":-0.9768653512001038,"99":0.6993283033370972,"100":0.2682592570781708,"101":-1.667982816696167,"102":1.4014148712158203,"103":1.5422896146774292,"104":-0.9408687949180603,"105":1.6088804006576538,"106":-1.6610900163650513,"107":1.3455802202224731,"108":-0.21340331435203552,"109":0.1699577122926712,"110":1.6286333799362183,"111":-0.6380670666694641,"112":1.7965079545974731,"113":0.6237545609474182,"114":-0.7583152651786804,"115":0.7027889490127563,"116":0.9872573614120483,"117":1.5094150304794312,"118":-0.6395419239997864,"119":1.6714740991592407,"120":0.8932023644447327,"121":-0.11618071794509888,"122":-0.3764991760253906,"123":0.39256393909454346,"124":0.20871594548225403,"125":-0.5648831129074097,"126":0.6268714666366577,"127":-0.5454676151275635,"128":0.004803178366273642,"129":-0.08593052625656128,"130":0.22874945402145386,"131":0.6915839910507202,"132":0.8639378547668457,"133":0.06291742622852325,"134":-0.07418252527713776,"135":-0.3054463267326355,"136":0.5868322849273682,"137":-0.11137741059064865,"138":-0.30962827801704407,"139":-0.41996651887893677,"140":0.30051255226135254,"141":0.82172691822052,"142":-0.24792976677417755,"143":0.23245301842689514,"144":-1.314461588859558,"145":-0.5386255383491516,"146":-0.03848731890320778,"147":0.29858851432800293,"148":0.444938063621521,"149":1.5857397317886353,"150":-1.8306759595870972,"151":-0.162878155708313,"152":-0.07816366851329803,"153":-0.8464950919151306,"154":0.4461253881454468,"155":-1.8088436126708984,"156":0.935060977935791,"157":0.4042016267776489,"158":-0.2878929078578949,"159":-0.2308080792427063,"160":-1.9922716617584229,"161":-0.25709226727485657,"162":0.024470308795571327,"163":-0.0013184939743950963,"164":0.7572057843208313,"165":-1.079519510269165,"166":-0.2992869019508362,"167":-1.3876702785491943,"168":2.331280469894409,"169":0.20349328219890594,"170":-0.2590137720108032,"171":0.20664571225643158,"172":-0.47742801904678345,"173":-1.1506521701812744,"174":0.5873267650604248,"175":-0.11643105000257492,"176":-1.0905253887176514,"177":-0.0484585277736187,"178":-0.011421727947890759,"179":1.5308294296264648,"180":0.045797377824783325,"181":0.2615779638290405,"182":0.8709667325019836,"183":-0.1628989279270172,"184":1.0637643337249756,"185":1.1038994789123535,"186":-0.8494530320167542,"187":0.709836483001709,"188":0.03909677639603615,"189":2.227954387664795,"190":0.41960740089416504,"191":0.4982777535915375,"192":-0.5446680784225464,"193":-0.24420711398124695,"194":-0.26543986797332764,"195":0.12356600910425186,"196":0.18672260642051697,"197":1.5481176376342773,"198":-1.1333198547363281,"199":-1.3512113094329834,"200":0.46468448638916016,"201":-1.109782338142395,"202":1.4511747360229492,"203":-1.1148879528045654,"204":0.9926254153251648,"205":0.25280439853668213,"206":-0.7659706473350525,"207":-0.14561186730861664,"208":-1.449906587600708,"209":-1.0518437623977661,"210":0.06237184628844261,"211":-0.8547062873840332,"212":0.40839263796806335,"213":-0.7447200417518616,"214":-0.18439209461212158,"215":-1.4549481868743896,"216":-0.08277960121631622,"217":1.3674860000610352,"218":2.18261456489563,"219":-1.8428354263305664,"220":-1.5364526510238647,"221":0.3323131501674652,"222":-0.45358073711395264,"223":-0.03792842477560043,"224":0.8839149475097656,"225":0.3034255802631378,"226":0.42423132061958313,"227":-0.06974328309297562,"228":-0.7767981886863708,"229":-1.662375807762146,"230":-0.4203721284866333,"231":1.8182317018508911,"232":-0.3953605592250824,"233":-0.5290975570678711,"234":1.6717498302459717,"235":-0.30570951104164124,"236":-1.416365623474121,"237":0.03897916525602341,"238":1.8757133483886719,"239":-0.10740481317043304,"240":-1.1145836114883423,"241":-1.2057757377624512,"242":0.5921177864074707,"243":1.1475107669830322,"244":1.1898479461669922,"245":-0.3032669126987457,"246":0.1115175411105156,"247":1.1605041027069092,"248":-0.9965314865112305,"249":0.8014281392097473,"250":-0.9784348607063293,"251":0.07479491084814072,"252":-1.9515496492385864,"253":1.5928404331207275,"254":0.9452458024024963,"255":-1.1856234073638916,"256":0.24211685359477997,"257":1.1155025959014893,"258":-0.9722172021865845,"259":1.9530800580978394,"260":-0.44514381885528564,"261":-0.7170616388320923,"262":-1.667478084564209,"263":0.23899570107460022,"264":-0.7481724619865417,"265":-1.4696714878082275,"266":-0.7415848970413208,"267":1.0058274269104004,"268":1.0145803689956665,"269":-0.07042425125837326,"270":0.2631100118160248,"271":0.01008843258023262,"272":-0.8542887568473816,"273":-0.19656430184841156,"274":0.3472296893596649,"275":-0.5420978665351868,"276":-0.5243902206420898,"277":1.5770491361618042,"278":0.22393961250782013,"279":-0.8743847608566284,"280":0.16961513459682465,"281":0.7722065448760986,"282":-1.2545428276062012,"283":1.4866424798965454,"284":-0.19867070019245148,"285":-0.8439699411392212,"286":-0.8380826115608215,"287":0.0898740291595459,"288":0.3381187319755554,"289":-0.5552937388420105,"290":-1.5233981609344482,"291":1.3721154928207397,"292":0.933504045009613,"293":0.02597166784107685,"294":0.1350289136171341,"295":-0.13996624946594238,"296":-0.8547590970993042,"297":0.1066211462020874,"298":-0.38676396012306213,"299":0.3140377700328827,"300":0.5159711837768555,"301":0.7084999084472656,"302":0.6607598662376404,"303":-1.5819101333618164,"304":0.05522322654724121,"305":-0.6468188762664795,"306":-0.7965198755264282,"307":0.6718454360961914,"308":0.9631298780441284,"309":0.4486784040927887,"310":-1.7170275449752808,"311":-0.07379044592380524,"312":-0.40464290976524353,"313":-1.217327356338501,"314":-0.45207810401916504,"315":1.2908618450164795,"316":1.1015318632125854,"317":-0.4472198188304901,"318":0.1450204998254776,"319":-0.7916401028633118,"320":-0.06109057739377022,"321":-0.798916220664978,"322":0.7545526027679443,"323":-0.11213667690753937,"324":0.47083455324172974,"325":1.4625880718231201,"326":-0.502974808216095,"327":-0.9561954140663147,"328":0.5161539912223816,"329":0.030018555000424385,"330":-1.2293951511383057,"331":1.6469612121582031,"332":-0.5233990550041199,"333":-1.1177093982696533,"334":-0.8427438139915466,"335":0.4876408874988556,"336":-0.8418313264846802,"337":-0.6461637616157532,"338":-0.03339564427733421,"339":0.0606134794652462,"340":0.04352617263793945,"341":-0.39390960335731506,"342":1.1257792711257935,"343":4.002382278442383,"344":-1.0233731269836426,"345":1.84238600730896,"346":-3.0140490531921387,"347":0.23735345900058746,"348":-3.5604705810546875,"349":0.6126508116722107,"350":2.0562777519226074,"351":0.17139309644699097,"352":0.4523911476135254,"353":3.152637481689453,"354":0.4249062240123749,"355":0.6599108576774597,"356":-0.992040753364563,"357":-0.14713163673877716,"358":-0.04350203648209572,"359":0.6690022349357605,"360":-1.441366195678711,"361":-0.8813251256942749,"362":0.3018341362476349,"363":0.8170056939125061,"364":0.694027304649353,"365":0.9625847339630127,"366":-1.4123163223266602,"367":-0.19997672736644745,"368":-0.2783938944339752,"369":-0.5258937478065491,"370":0.2150897979736328,"371":-1.0765764713287354,"372":0.12472571432590485,"373":0.7801405191421509,"374":-0.3389890193939209,"375":-0.5390537977218628,"376":-1.025779366493225,"377":-0.0975869745016098,"378":-0.5392189621925354,"379":-0.302395224571228,"380":0.1261577308177948,"381":-1.6652250289916992,"382":-0.3717358410358429,"383":-0.9447370767593384,"384":0.133414626121521,"385":0.5148062705993652,"386":1.1835864782333374,"387":-0.5673584938049316,"388":0.035312727093696594,"389":0.2539253234863281,"390":-0.6961370706558228,"391":-0.9536939263343811,"392":0.7654314041137695,"393":-0.3327487111091614,"394":0.8555783629417419,"395":0.04327159374952316,"396":0.9176977872848511,"397":-0.5560170412063599,"398":-0.5758174061775208,"399":0.28638312220573425,"400":-0.02325648069381714,"401":-1.2533036470413208,"402":0.45177289843559265,"403":-1.3215596675872803,"404":0.22018533945083618,"405":0.26698049902915955,"406":0.32970160245895386,"407":-0.17551371455192566,"408":-0.5599560141563416,"409":-1.4269050359725952,"410":-0.2948293387889862,"411":1.3879557847976685,"412":1.430118203163147,"413":0.23743075132369995,"414":0.6037525534629822,"415":-0.5082458853721619,"416":0.07382604479789734,"417":-0.3980591595172882,"418":0.33680883049964905,"419":-0.33945026993751526,"420":-0.2517367899417877,"421":1.4851773977279663,"422":-0.05230320990085602,"423":-1.3649301528930664,"424":-0.4849274754524231,"425":0.49083369970321655,"426":-1.6715842485427856,"427":1.207731008529663,"428":-0.3404105305671692,"429":-0.604364812374115,"430":-1.6881968975067139,"431":-0.3072938323020935,"432":-1.1220377683639526,"433":-1.3530446290969849,"434":-1.0649269819259644,"435":1.3700743913650513,"436":1.2701029777526855,"437":0.7084283828735352,"438":-0.42940109968185425,"439":-0.6865535378456116,"440":-1.087608814239502,"441":-0.23837020993232727,"442":0.22582821547985077,"443":-0.5016645789146423,"444":-0.2017340362071991,"445":0.7923312783241272,"446":1.2755640745162964,"447":-1.1688228845596313,"448":-0.9011789560317993,"449":-0.23810964822769165,"450":-1.1211130619049072,"451":-0.334465891122818,"452":1.6652411222457886,"453":-0.5750507712364197,"454":-1.1002790927886963,"455":-0.8826884031295776,"456":-1.6098427772521973,"457":-1.573516607284546,"458":-0.8950687050819397,"459":1.1876128911972046,"460":1.252690076828003,"461":1.3551124334335327,"462":-1.7522212266921997,"463":-0.14271460473537445,"464":-0.9804047346115112,"465":-0.7169064879417419,"466":0.20118072628974915,"467":-1.0931400060653687,"468":0.46420079469680786,"469":1.3742879629135132,"470":0.5392448306083679,"471":-1.2553521394729614,"472":-1.3864802122116089,"473":-0.5199847221374512,"474":-0.968375563621521,"475":-0.1196083277463913,"476":1.7368273735046387,"477":-1.4215338230133057,"478":-1.3216798305511475,"479":-1.5086863040924072,"480":-0.41782906651496887,"481":-0.1541353464126587,"482":0.5034494996070862,"483":0.07487581670284271,"484":0.052612271159887314,"485":0.8049818873405457,"486":-0.794528603553772,"487":-1.1541703939437866,"488":0.2962295711040497,"489":-1.665618658065796,"490":1.0803625583648682,"491":-1.36568284034729,"492":1.8747884035110474,"493":0.056195370852947235,"494":-0.4175899922847748,"495":-0.0424814410507679,"496":-0.9014703035354614,"497":-1.203938364982605,"498":0.07737406343221664,"499":-0.7756766080856323,"500":0.4194081425666809,"501":-0.7739524245262146,"502":-0.22287583351135254,"503":-1.8323616981506348,"504":-0.134444460272789,"505":-0.7324860095977783,"506":-0.35419154167175293,"507":0.7063206434249878,"508":0.7302704453468323,"509":-0.37700745463371277,"510":0.5576914548873901,"511":-0.13714560866355896,"512":-0.7850993275642395,"513":-0.22822031378746033,"514":0.26688212156295776,"515":0.17788633704185486,"516":0.891355574131012,"517":0.6579347252845764,"518":0.8618227243423462,"519":-0.6783784627914429,"520":0.0824885219335556,"521":0.039872050285339355,"522":-0.8768070340156555,"523":0.31317204236984253,"524":0.3109084665775299,"525":0.03080829046666622,"526":-0.6059727668762207,"527":-0.21349863708019257,"528":-0.2543930113315582,"529":-1.2085634469985962,"530":-0.3328339457511902,"531":1.0416719913482666,"532":1.0728673934936523,"533":0.0713714137673378,"534":-0.01564878597855568,"535":0.05530211701989174,"536":-0.35891810059547424,"537":-0.07090938091278076,"538":0.014424491673707962,"539":-0.22130033373832703,"540":-0.16117043793201447,"541":1.1586400270462036,"542":0.09442415088415146,"543":-0.6519735455513,"544":0.05284551531076431,"545":0.25366783142089844,"546":-0.8630601167678833,"547":0.45730888843536377,"548":0.42167598009109497,"549":-0.4282129108905792,"550":-0.4264181852340698,"551":0.1206660121679306,"552":-0.47882789373397827,"553":0.27783307433128357,"554":1.606923222541809,"555":-0.92955482006073,"556":-0.6927209496498108,"557":0.6807639598846436,"558":-0.10843557864427567,"559":-0.2877362072467804,"560":0.6319995522499084,"561":-0.06666548550128937,"562":0.5005667209625244,"563":-0.16878773272037506,"564":-0.3428761959075928,"565":-0.09774322807788849,"566":-0.3588380515575409,"567":0.8936774730682373,"568":-0.7742368578910828,"569":-0.6863234639167786,"570":0.9977417588233948,"571":-0.9766514897346497,"572":-1.0485014915466309,"573":-0.32084915041923523,"574":0.8166612386703491,"575":-0.5775086283683777,"576":0.06060921028256416,"577":-0.037981994450092316,"578":0.06296917796134949,"579":-0.06939428299665451,"580":0.04817253723740578,"581":0.020757019519805908,"582":-0.06759392470121384,"583":-0.020893044769763947,"584":0.05343688279390335,"585":0.037457533180713654,"586":0.00962091889232397,"587":-0.06009707972407341,"588":0.050659168511629105,"589":-0.07346060127019882,"590":0.06757715344429016,"591":0.03552190214395523,"592":-0.06320445239543915,"593":0.06993881613016129,"594":-0.002965254010632634,"595":-0.011615082621574402,"596":0.014862275682389736,"597":-0.07792788743972778,"598":0.02193252183496952,"599":0.041227832436561584}},"hiddenLayers":[{"inputMatrix":{"rows":20,"columns":24,"weights":{"0":0.6397126317024231,"1":-0.04099699482321739,"2":-0.338645875453949,"3":0.16634276509284973,"4":0.13322392106056213,"5":-1.9755154848098755,"6":1.4399241209030151,"7":1.1363376379013062,"8":-0.2826254665851593,"9":0.7370553612709045,"10":-1.0314075946807861,"11":0.872748613357544,"12":-0.5735621452331543,"13":0.4067799746990204,"14":0.024352313950657845,"15":-0.2532511353492737,"16":2.398648500442505,"17":0.7658730745315552,"18":-0.25554341077804565,"19":1.2676972150802612,"20":-1.0439820289611816,"21":0.2827721834182739,"22":-0.2456868588924408,"23":2.213998317718506,"24":0.6586933135986328,"25":0.22237005829811096,"26":0.3943328261375427,"27":-0.29189079999923706,"28":-0.24131745100021362,"29":-1.5671091079711914,"30":1.3935375213623047,"31":0.3616670072078705,"32":0.01624160073697567,"33":0.11910080164670944,"34":0.37739259004592896,"35":0.36429569125175476,"36":-0.630131721496582,"37":-0.1353553682565689,"38":-0.2029094249010086,"39":0.45731207728385925,"40":1.5906387567520142,"41":1.688352346420288,"42":-0.2179662138223648,"43":0.6681897640228271,"44":-1.045586109161377,"45":0.37160488963127136,"46":0.5449900031089783,"47":1.455392599105835,"48":-0.058409854769706726,"49":0.04747306555509567,"50":0.5307631492614746,"51":-0.6115612983703613,"52":-0.91522616147995,"53":-0.11600765585899353,"54":0.33507153391838074,"55":0.6310058832168579,"56":-0.385405570268631,"57":0.524955689907074,"58":-0.457573801279068,"59":-0.02896408550441265,"60":-0.8160235285758972,"61":-0.1591896265745163,"62":0.33766600489616394,"63":0.8668285012245178,"64":0.11048024892807007,"65":0.4237268269062042,"66":0.5343089699745178,"67":0.5799452066421509,"68":-0.8998140692710876,"69":-0.08204522728919983,"70":0.7903388738632202,"71":0.41827401518821716,"72":-0.3883875906467438,"73":0.5451669692993164,"74":0.5565807223320007,"75":-0.39205700159072876,"76":0.17441706359386444,"77":0.5286089181900024,"78":-0.31210964918136597,"79":1.9246426820755005,"80":0.5133436918258667,"81":2.5504584312438965,"82":-2.2239303588867188,"83":-0.1590712070465088,"84":-1.1130071878433228,"85":-0.6918919682502747,"86":0.2769865095615387,"87":0.17785640060901642,"88":-0.3919764757156372,"89":-0.23779326677322388,"90":0.8886888027191162,"91":-0.18178749084472656,"92":-0.7375147938728333,"93":-0.029065942391753197,"94":-0.5598311424255371,"95":0.03777671605348587,"96":0.2421099841594696,"97":0.8869381546974182,"98":0.5023942589759827,"99":-0.8053152561187744,"100":-0.8834683299064636,"101":-0.3604218363761902,"102":0.04244116693735123,"103":0.3891390264034271,"104":0.18609073758125305,"105":0.21118563413619995,"106":-0.3737080693244934,"107":0.14859230816364288,"108":-0.6914342045783997,"109":-0.807920515537262,"110":-0.09303546696901321,"111":0.7796481847763062,"112":0.3398396074771881,"113":0.3397970199584961,"114":0.5062215924263,"115":0.5915247201919556,"116":-0.6162416338920593,"117":0.2776440978050232,"118":0.8625615835189819,"119":0.5705620646476746,"120":-0.8637622594833374,"121":-0.9123519062995911,"122":-0.045577649027109146,"123":0.5577278137207031,"124":0.849888265132904,"125":-0.13053157925605774,"126":0.2042853981256485,"127":0.817730188369751,"128":-0.7972581386566162,"129":0.5742619037628174,"130":-0.8254899382591248,"131":-0.23532776534557343,"132":-0.6722716093063354,"133":0.9570891261100769,"134":0.843799889087677,"135":-0.6209713220596313,"136":0.23001906275749207,"137":0.34257951378822327,"138":-0.45158249139785767,"139":1.2230658531188965,"140":-0.36982569098472595,"141":-0.6022261381149292,"142":-0.6287665963172913,"143":0.4771122336387634,"144":-0.8508967161178589,"145":-0.490164577960968,"146":-0.256417840719223,"147":0.6378405690193176,"148":0.6921194195747375,"149":0.22146843373775482,"150":-0.9616655707359314,"151":1.1834708452224731,"152":-1.0372997522354126,"153":0.34059205651283264,"154":-1.1101741790771484,"155":-0.6897887587547302,"156":-0.3649059534072876,"157":0.5100000500679016,"158":0.9293953776359558,"159":-0.526199221611023,"160":-0.511785626411438,"161":0.7252545356750488,"162":-0.3893875479698181,"163":1.8076081275939941,"164":0.3420991897583008,"165":-0.5992048382759094,"166":-0.5889652371406555,"167":-0.0393623411655426,"168":1.2736479043960571,"169":0.06067167967557907,"170":-0.1008530706167221,"171":-0.003471231320872903,"172":-0.06999091058969498,"173":-1.3766049146652222,"174":1.9571654796600342,"175":-0.6356567740440369,"176":0.07849778234958649,"177":0.08464831858873367,"178":0.27787721157073975,"179":1.1797254085540771,"180":0.6840847730636597,"181":0.08466184884309769,"182":-0.31053709983825684,"183":-0.06922971457242966,"184":1.6067627668380737,"185":0.19725999236106873,"186":-0.27878403663635254,"187":0.520160436630249,"188":-0.7508690357208252,"189":0.9641247391700745,"190":0.04679730162024498,"191":1.2526497840881348,"192":0.44871005415916443,"193":0.5793939232826233,"194":0.8045145869255066,"195":-0.504885733127594,"196":-0.6435426473617554,"197":-0.6291223168373108,"198":0.4762748181819916,"199":-0.11190259456634521,"200":0.37894004583358765,"201":0.7228008508682251,"202":0.2682041525840759,"203":0.7829041481018066,"204":-0.75743567943573,"205":-0.7682430148124695,"206":-0.4113779067993164,"207":0.7305086255073547,"208":0.6718350648880005,"209":-0.3210429549217224,"210":0.5999441742897034,"211":-0.3635738790035248,"212":-1.2927147150039673,"213":0.4983152151107788,"214":0.5878543853759766,"215":0.7478147745132446,"216":-0.042142435908317566,"217":-0.6338266134262085,"218":-1.1243664026260376,"219":0.8693673610687256,"220":0.7261667251586914,"221":-0.6210992336273193,"222":0.9104344844818115,"223":-0.2766779065132141,"224":-1.1278750896453857,"225":0.15482623875141144,"226":-0.10741132497787476,"227":0.22439050674438477,"228":-0.45105910301208496,"229":0.654927134513855,"230":1.4715638160705566,"231":-0.751652181148529,"232":0.8520632386207581,"233":0.76512211561203,"234":-0.9594287276268005,"235":1.2422329187393188,"236":0.2864791452884674,"237":0.03084699437022209,"238":-0.6031215190887451,"239":0.7583097815513611,"240":1.4191423654556274,"241":1.4624146223068237,"242":1.0750445127487183,"243":-1.0793579816818237,"244":-0.8064852952957153,"245":-1.2684245109558105,"246":0.5210685729980469,"247":0.23143893480300903,"248":0.67482590675354,"249":0.6334871649742126,"250":-0.15207074582576752,"251":1.382476568222046,"252":-0.14303013682365417,"253":-1.360039234161377,"254":-0.23772428929805756,"255":1.099822759628296,"256":1.3198210000991821,"257":0.45688724517822266,"258":0.5877670645713806,"259":-0.420232892036438,"260":-0.7415804862976074,"261":1.4258949756622314,"262":0.940021812915802,"263":1.2481451034545898,"264":-0.6853055953979492,"265":-0.8771864771842957,"266":-0.3917497992515564,"267":0.6366615891456604,"268":0.9467648863792419,"269":0.14888916909694672,"270":-0.001437846920453012,"271":0.7215492129325867,"272":-0.5092623233795166,"273":0.4607221186161041,"274":-0.7103421092033386,"275":-0.43602609634399414,"276":-0.5157149434089661,"277":0.8325796127319336,"278":0.4333937466144562,"279":-0.7577045559883118,"280":0.0022543363738805056,"281":0.2949654459953308,"282":-0.6352164149284363,"283":0.8709107041358948,"284":-0.09851360321044922,"285":-0.8465568423271179,"286":-0.8575810790061951,"287":0.2847575545310974,"288":0.8278106451034546,"289":0.24926452338695526,"290":0.09392481297254562,"291":0.06910575181245804,"292":0.012199580669403076,"293":-0.8324121236801147,"294":-0.059562284499406815,"295":0.576817512512207,"296":-0.65081387758255,"297":0.853967010974884,"298":-0.8260701894760132,"299":1.1277533769607544,"300":-0.07630475610494614,"301":-0.29744136333465576,"302":1.06172776222229,"303":0.061591003090143204,"304":1.090936303138733,"305":0.18911626935005188,"306":0.0804184302687645,"307":0.2512952387332916,"308":0.1580595076084137,"309":1.058504581451416,"310":-0.11363200098276138,"311":0.4281954765319824,"312":-0.09251721948385239,"313":0.07862797379493713,"314":0.6321276426315308,"315":-0.9218616485595703,"316":-1.3016738891601562,"317":-0.008396513760089874,"318":0.18888837099075317,"319":0.5442907214164734,"320":-0.6131541728973389,"321":0.08632878959178925,"322":-0.2764725089073181,"323":0.11813615262508392,"324":-0.7296426892280579,"325":0.4715726971626282,"326":0.4347618818283081,"327":1.092093586921692,"328":-0.06015084311366081,"329":0.6563040018081665,"330":0.36977148056030273,"331":0.8201149702072144,"332":-1.0418949127197266,"333":-0.019662894308567047,"334":1.1897646188735962,"335":0.06463341414928436,"336":-0.0931139886379242,"337":0.4688221514225006,"338":1.008510708808899,"339":-0.6959378719329834,"340":-0.230146124958992,"341":0.3516061305999756,"342":-0.41677242517471313,"343":-0.6276573538780212,"344":1.6443721055984497,"345":-0.40522629022598267,"346":0.6709920763969421,"347":-0.3346615135669708,"348":0.213827982544899,"349":-0.6413669586181641,"350":-1.485213279724121,"351":0.8084078431129456,"352":-0.22247667610645294,"353":-0.9416422247886658,"354":0.8910613656044006,"355":-0.6013652682304382,"356":-0.3738289773464203,"357":-0.18561284244060516,"358":0.5167772173881531,"359":-0.1395157277584076,"360":0.4926028549671173,"361":1.1021491289138794,"362":0.8960899710655212,"363":-1.1333045959472656,"364":-0.8999453186988831,"365":-0.6007309556007385,"366":0.5857490301132202,"367":0.18196509778499603,"368":0.08889485150575638,"369":0.5543956756591797,"370":-0.03072049841284752,"371":0.8471578359603882,"372":-0.6909887194633484,"373":-0.9661391377449036,"374":0.2544197738170624,"375":1.0896941423416138,"376":0.5244442224502563,"377":0.037207018584012985,"378":0.4272271394729614,"379":-0.2235960215330124,"380":-0.8374761939048767,"381":0.6112979054450989,"382":1.4029477834701538,"383":0.6873260140419006,"384":-0.2822171747684479,"385":0.5032489895820618,"386":1.2508052587509155,"387":-1.4606096744537354,"388":-1.0780446529388428,"389":0.2783876955509186,"390":-0.49480965733528137,"391":0.4190027117729187,"392":-0.20380236208438873,"393":0.1273840367794037,"394":-0.09775235503911972,"395":-0.38711416721343994,"396":-0.9047701954841614,"397":-0.29365065693855286,"398":0.20743891596794128,"399":1.2853803634643555,"400":-0.31406810879707336,"401":0.3306463956832886,"402":0.794680118560791,"403":0.5168396830558777,"404":-0.9427608251571655,"405":-0.16630324721336365,"406":1.3345468044281006,"407":-0.14779509603977203,"408":0.007762804161757231,"409":1.570753574371338,"410":1.0059897899627686,"411":-1.71498703956604,"412":-2.0233476161956787,"413":-0.058079708367586136,"414":-0.18318969011306763,"415":0.4474465250968933,"416":0.06503025442361832,"417":0.2829010486602783,"418":-0.4437715709209442,"419":0.20232853293418884,"420":-0.4374363124370575,"421":-1.5785599946975708,"422":-0.1798330694437027,"423":2.0649068355560303,"424":0.0544775016605854,"425":0.5104522109031677,"426":1.523953914642334,"427":0.3190581202507019,"428":-0.562549352645874,"429":0.2973465025424957,"430":2.1902406215667725,"431":0.027397437021136284,"432":0.16378958523273468,"433":-0.3905145525932312,"434":-0.9639332890510559,"435":0.6773862838745117,"436":0.33948710560798645,"437":-0.31251105666160583,"438":0.3747505843639374,"439":0.7037636637687683,"440":-0.7521827220916748,"441":0.7675588130950928,"442":-0.8878819346427917,"443":0.5093856453895569,"444":-0.4928298890590668,"445":0.2841629683971405,"446":1.0996133089065552,"447":-0.5112045407295227,"448":0.27596840262413025,"449":0.5243450403213501,"450":-0.43116217851638794,"451":0.054008129984140396,"452":0.7225507497787476,"453":0.48644959926605225,"454":-0.22590523958206177,"455":0.06958240270614624,"456":-0.25389155745506287,"457":-0.5004928708076477,"458":-0.5888486504554749,"459":0.849504828453064,"460":0.7723432183265686,"461":0.059696730226278305,"462":-0.2731438875198364,"463":0.19773618876934052,"464":-0.9603736400604248,"465":-0.11373958736658096,"466":-0.02793477475643158,"467":-0.22503992915153503,"468":0.1518591344356537,"469":0.9236632585525513,"470":0.5700349807739258,"471":-0.8975018858909607,"472":-0.10995827615261078,"473":0.6584790945053101,"474":-0.9163742661476135,"475":0.8797034025192261,"476":0.674613893032074,"477":-0.1847829669713974,"478":-0.7613930702209473,"479":-0.1248767226934433}},"inputHidden":{"rows":20,"columns":20,"weights":{"0":0.06732352077960968,"1":-0.9121570587158203,"2":0.5300338268280029,"3":-0.2321348637342453,"4":0.4601079821586609,"5":-1.0867863893508911,"6":-1.3681318759918213,"7":-0.30142897367477417,"8":-0.5703502893447876,"9":-1.3186217546463013,"10":0.3073955476284027,"11":0.8940388560295105,"12":-1.0707650184631348,"13":-1.3333922624588013,"14":-0.5772114396095276,"15":-0.08160845935344696,"16":-0.21990253031253815,"17":-0.7890815734863281,"18":-0.6350345611572266,"19":0.5328717231750488,"20":-0.7851898074150085,"21":-0.677532970905304,"22":-0.6453198790550232,"23":1.3117766380310059,"24":-0.4317210912704468,"25":-0.7446309328079224,"26":-1.4057109355926514,"27":-0.6874961853027344,"28":0.6750022768974304,"29":-0.38793760538101196,"30":-1.2293487787246704,"31":0.572607696056366,"32":-1.2462539672851562,"33":-0.39666807651519775,"34":-0.9473231434822083,"35":0.8037542104721069,"36":-0.6007654666900635,"37":-0.9414053559303284,"38":1.3217339515686035,"39":0.033810485154390335,"40":-1.6956331729888916,"41":-0.7225884795188904,"42":-0.326663613319397,"43":-1.4628702402114868,"44":0.42537030577659607,"45":-0.007142301183193922,"46":-0.028029268607497215,"47":-0.5768141746520996,"48":0.4142216444015503,"49":0.07435255497694016,"50":-0.9039497971534729,"51":-0.14159779250621796,"52":-0.9840489625930786,"53":-0.4430214762687683,"54":-0.061379268765449524,"55":0.4082695543766022,"56":-0.394199013710022,"57":-0.4335828125476837,"58":2.34985613822937,"59":1.1741617918014526,"60":-1.1209452152252197,"61":-1.3475311994552612,"62":0.09026030451059341,"63":-0.15732735395431519,"64":1.0518361330032349,"65":-0.4976804256439209,"66":-0.953290581703186,"67":-0.792986273765564,"68":0.387777715921402,"69":-0.5096728801727295,"70":-0.48226484656333923,"71":0.3101976811885834,"72":-0.7043526768684387,"73":-0.8106527924537659,"74":1.0362075567245483,"75":0.23785126209259033,"76":-0.4275933802127838,"77":0.7933872938156128,"78":0.21446971595287323,"79":0.31171777844429016,"80":0.01580803655087948,"81":0.2860924005508423,"82":-0.6358301639556885,"83":0.4768052399158478,"84":-0.13228845596313477,"85":1.14776611328125,"86":1.1384813785552979,"87":0.3680577874183655,"88":0.1397133767604828,"89":1.2615996599197388,"90":-0.24548910558223724,"91":-1.2776868343353271,"92":-0.3534746766090393,"93":-0.18610519170761108,"94":-0.2888144850730896,"95":0.4960596263408661,"96":-0.029011785984039307,"97":-0.2279789298772812,"98":0.3361528515815735,"99":-0.651688277721405,"100":0.5554513335227966,"101":0.36388838291168213,"102":-0.6235334873199463,"103":-0.8856289982795715,"104":0.7587318420410156,"105":0.5660445094108582,"106":0.5533292889595032,"107":0.8704118132591248,"108":-0.3622879385948181,"109":0.4100736975669861,"110":0.40090689063072205,"111":-0.264270544052124,"112":0.36692574620246887,"113":-0.45710477232933044,"114":-0.4732978343963623,"115":0.16816763579845428,"116":-0.33146536350250244,"117":-0.3148074150085449,"118":0.16842253506183624,"119":-0.38480597734451294,"120":-0.24685969948768616,"121":-0.5665246844291687,"122":-0.9740754961967468,"123":0.13043634593486786,"124":0.6557750701904297,"125":0.7418780326843262,"126":0.16117429733276367,"127":0.3683020770549774,"128":0.3750056326389313,"129":0.972253143787384,"130":0.09193528443574905,"131":-0.7885348200798035,"132":-1.002576231956482,"133":-0.9130975008010864,"134":-0.6423011422157288,"135":0.8263271450996399,"136":-1.089317798614502,"137":-1.5905250310897827,"138":0.935528039932251,"139":-0.28096264600753784,"140":-0.8999512791633606,"141":-0.7398807406425476,"142":0.8966151475906372,"143":0.8558569550514221,"144":-0.22176554799079895,"145":-1.599670648574829,"146":-1.6223218441009521,"147":-0.29788798093795776,"148":1.007367730140686,"149":-0.3517746031284332,"150":-0.4895690977573395,"151":1.552880048751831,"152":-1.2968237400054932,"153":-0.1749042123556137,"154":-1.5816965103149414,"155":0.7433038353919983,"156":-0.4291146993637085,"157":-0.22834885120391846,"158":0.4555536210536957,"159":-0.496611088514328,"160":-0.3367355465888977,"161":-0.5313395857810974,"162":0.30866244435310364,"163":-0.6660850048065186,"164":-0.14055760204792023,"165":-0.30459412932395935,"166":-0.5144715309143066,"167":-0.6235915422439575,"168":0.42099449038505554,"169":-0.43436354398727417,"170":-0.4659442901611328,"171":0.1792396903038025,"172":0.17994016408920288,"173":-0.04228627681732178,"174":0.4125590920448303,"175":0.3961526155471802,"176":-0.0287871602922678,"177":-0.07931910455226898,"178":-0.03649177774786949,"179":0.3977033197879791,"180":0.19429557025432587,"181":-0.7397558689117432,"182":-0.6227455139160156,"183":-0.06414564698934555,"184":0.3393899202346802,"185":-0.21641451120376587,"186":0.08837660402059555,"187":-0.16292008757591248,"188":0.32144948840141296,"189":-0.23498255014419556,"190":-0.2185697704553604,"191":0.40959590673446655,"192":-0.37265607714653015,"193":-0.43547147512435913,"194":-0.7135586142539978,"195":0.19502395391464233,"196":-0.3943106532096863,"197":-0.34406203031539917,"198":0.5345910787582397,"199":0.04766997694969177,"200":-0.1760646253824234,"201":-0.6062878966331482,"202":0.14274923503398895,"203":0.056558266282081604,"204":0.13806603848934174,"205":-0.3460312783718109,"206":-0.5323362946510315,"207":-0.3503188490867615,"208":0.5500957369804382,"209":-0.3469170033931732,"210":-0.21392399072647095,"211":0.1431194394826889,"212":-0.3869624137878418,"213":-0.3841277062892914,"214":-0.22885771095752716,"215":0.42176753282546997,"216":-0.3308038115501404,"217":-0.6637139320373535,"218":0.21940159797668457,"219":0.7770999073982239,"220":0.5728593468666077,"221":0.4177014231681824,"222":-0.19995228946208954,"223":-0.6968929171562195,"224":0.5007340312004089,"225":0.45993471145629883,"226":0.34566861391067505,"227":0.8388830423355103,"228":-0.6727572679519653,"229":0.34827810525894165,"230":0.7979346513748169,"231":-0.21262601017951965,"232":0.6311348676681519,"233":-0.39317306876182556,"234":-0.43548381328582764,"235":-0.06303699314594269,"236":-0.2434067577123642,"237":-0.18788683414459229,"238":0.1077050045132637,"239":-0.10779915750026703,"240":-0.4230417013168335,"241":-0.8951583504676819,"242":-0.3313658535480499,"243":0.3630496561527252,"244":0.18835559487342834,"245":-1.417214035987854,"246":-1.79847252368927,"247":-1.0486336946487427,"248":0.8579637408256531,"249":-1.072768211364746,"250":-0.7151407599449158,"251":1.106492519378662,"252":-1.1047537326812744,"253":-0.5116354823112488,"254":-0.29702943563461304,"255":0.9744386672973633,"256":-0.5017682909965515,"257":-0.5371893644332886,"258":-0.3236924409866333,"259":-0.08400806784629822,"260":-1.337423324584961,"261":-0.09978029876947403,"262":-0.3402499854564667,"263":0.010796600952744484,"264":0.33434587717056274,"265":0.1772175431251526,"266":0.32486629486083984,"267":0.24414069950580597,"268":0.05938334763050079,"269":0.279041588306427,"270":-0.7607200145721436,"271":-0.2317676991224289,"272":-0.3887946307659149,"273":-0.09675725549459457,"274":0.022932739928364754,"275":0.30585429072380066,"276":-0.005508015863597393,"277":-0.052633918821811676,"278":2.170051097869873,"279":0.9822970032691956,"280":-0.28333619236946106,"281":0.4991523027420044,"282":0.8133111596107483,"283":1.6471946239471436,"284":-0.15248940885066986,"285":0.07274354994297028,"286":-0.19521765410900116,"287":0.32691460847854614,"288":-0.10450918972492218,"289":0.12286066263914108,"290":0.4371122121810913,"291":-0.1325502097606659,"292":0.8083547949790955,"293":0.062331583350896835,"294":0.08084545284509659,"295":-0.18188387155532837,"296":-0.019574113190174103,"297":0.3462599813938141,"298":-2.2306394577026367,"299":0.47135958075523376,"300":-1.0164135694503784,"301":-0.8724055290222168,"302":0.2036648392677307,"303":0.16820621490478516,"304":-0.18449071049690247,"305":-0.2504942715167999,"306":-0.415793240070343,"307":-0.6314682960510254,"308":0.8128612637519836,"309":-0.3079156279563904,"310":-0.4781323969364166,"311":0.21876101195812225,"312":-0.5306956171989441,"313":-0.08811687678098679,"314":-0.0429316908121109,"315":0.6677603721618652,"316":-0.0579618364572525,"317":-0.18736334145069122,"318":0.20541805028915405,"319":0.7570668458938599,"320":-2.3436899185180664,"321":-0.40860965847969055,"322":0.2512088716030121,"323":-0.2197323590517044,"324":-0.06539735943078995,"325":0.20513448119163513,"326":0.3814254403114319,"327":-0.3933942914009094,"328":0.144081249833107,"329":0.3254058063030243,"330":-0.7714695930480957,"331":-0.4336802363395691,"332":-0.8073625564575195,"333":0.15393632650375366,"334":-0.2786833941936493,"335":0.6423580050468445,"336":0.14879931509494781,"337":0.23138760030269623,"338":1.158623218536377,"339":0.4851073920726776,"340":-1.5069698095321655,"341":-0.659026563167572,"342":1.060282588005066,"343":-0.5654659271240234,"344":-0.5623343586921692,"345":0.020570483058691025,"346":0.383457213640213,"347":-0.6936368942260742,"348":-0.7086405754089355,"349":-0.13775256276130676,"350":-0.38108381628990173,"351":-0.1468747854232788,"352":-0.21212120354175568,"353":0.830559492111206,"354":0.5162655711174011,"355":-1.25193190574646,"356":1.4451682567596436,"357":1.2595664262771606,"358":0.4171349108219147,"359":0.919470489025116,"360":-0.970086932182312,"361":-0.8727373480796814,"362":-0.08627665042877197,"363":0.02986014634370804,"364":0.6350197792053223,"365":-0.8696325421333313,"366":-0.9000958800315857,"367":-0.5771657824516296,"368":0.03613237291574478,"369":-1.4430960416793823,"370":0.3079063296318054,"371":0.8699471950531006,"372":0.2619844675064087,"373":-1.1657153367996216,"374":-2.312734603881836,"375":0.3083338439464569,"376":-0.779248833656311,"377":-0.4827724099159241,"378":0.36406460404396057,"379":1.0146838426589966,"380":0.9906142950057983,"381":0.42135927081108093,"382":-0.34197163581848145,"383":0.14437073469161987,"384":0.42296645045280457,"385":0.8712373375892639,"386":0.72568678855896,"387":0.6891328692436218,"388":-0.6294209361076355,"389":0.5273759961128235,"390":0.6025698781013489,"391":-0.7962339520454407,"392":1.3780089616775513,"393":-0.18502730131149292,"394":-0.6858481764793396,"395":-0.31306883692741394,"396":-0.17897145450115204,"397":-0.031713519245386124,"398":0.22753438353538513,"399":-0.19754081964492798}},"inputBias":{"rows":20,"columns":1,"weights":{"0":-0.15736418962478638,"1":-0.2181650996208191,"2":-0.6375128626823425,"3":-0.33225828409194946,"4":-0.30459240078926086,"5":-0.6834315657615662,"6":-1.264858603477478,"7":-0.1536710262298584,"8":-0.3611597716808319,"9":-0.38277363777160645,"10":-0.18699154257774353,"11":-0.28275442123413086,"12":-0.33771321177482605,"13":-0.042951393872499466,"14":1.2324295043945312,"15":-0.84855055809021,"16":-0.26694580912590027,"17":-0.9108594059944153,"18":-0.13779497146606445,"19":0.05299229547381401}},"forgetMatrix":{"rows":20,"columns":24,"weights":{"0":-0.8456197381019592,"1":-0.8195822834968567,"2":0.2855319678783417,"3":-0.09356921911239624,"4":1.3579440116882324,"5":0.9162048697471619,"6":-1.0405247211456299,"7":-0.22138673067092896,"8":-0.06192775443196297,"9":-0.14455394446849823,"10":0.5058904886245728,"11":-0.7458232045173645,"12":0.15849065780639648,"13":1.0683295726776123,"14":-0.042290378361940384,"15":-0.3035527169704437,"16":-0.6860845685005188,"17":-0.744718074798584,"18":-0.13839076459407806,"19":0.25323015451431274,"20":0.177277073264122,"21":-0.6540818810462952,"22":-0.7205893993377686,"23":-0.5344431400299072,"24":1.2315760850906372,"25":0.8504358530044556,"26":-0.0039793201722204685,"27":-0.27463388442993164,"28":-0.09754481911659241,"29":-0.4023037850856781,"30":0.0973687693476677,"31":0.9884870648384094,"32":0.5754048228263855,"33":1.2507917881011963,"34":-1.8067866563796997,"35":1.0632184743881226,"36":2.502082586288452,"37":-0.4587468206882477,"38":-0.140835240483284,"39":0.23329328000545502,"40":0.34762638807296753,"41":-2.082843780517578,"42":0.7467386722564697,"43":-0.28303104639053345,"44":0.5597671866416931,"45":1.1162362098693848,"46":-0.34762540459632874,"47":0.4160038232803345,"48":0.2678874135017395,"49":0.2657533288002014,"50":0.3646310269832611,"51":-0.32244956493377686,"52":-0.33755621314048767,"53":-0.1252574324607849,"54":0.19846990704536438,"55":-0.6123135089874268,"56":0.4114784002304077,"57":-0.004500063136219978,"58":0.5876914858818054,"59":0.2585093677043915,"60":0.4571145176887512,"61":-0.35775548219680786,"62":-0.3610972762107849,"63":0.3229482173919678,"64":0.16964693367481232,"65":-0.49742016196250916,"66":0.3182445168495178,"67":-0.2943304479122162,"68":-0.1983487904071808,"69":0.22008268535137177,"70":0.38923007249832153,"71":0.08988931775093079,"72":0.3536497950553894,"73":-0.5304010510444641,"74":-0.5940418243408203,"75":0.4669628441333771,"76":0.534397304058075,"77":0.09103383868932724,"78":0.521384596824646,"79":-1.3701905012130737,"80":0.2194436490535736,"81":-0.8705154657363892,"82":1.2129465341567993,"83":0.13224537670612335,"84":1.3897141218185425,"85":0.17926020920276642,"86":-0.09374618530273438,"87":-0.3038460314273834,"88":-0.21115724742412567,"89":-1.1508512496948242,"90":-0.2764144241809845,"91":-0.8359523415565491,"92":0.5935949683189392,"93":0.28450527787208557,"94":-0.223335862159729,"95":-0.604454755783081,"96":0.22884251177310944,"97":0.19139602780342102,"98":0.26668456196784973,"99":-0.3099660277366638,"100":-0.19161918759346008,"101":0.17121508717536926,"102":-0.03069346770644188,"103":-0.4283908009529114,"104":0.29515770077705383,"105":-0.0848579853773117,"106":0.5090558528900146,"107":0.08430276811122894,"108":0.42462772130966187,"109":-0.17091716825962067,"110":-0.36106935143470764,"111":0.22642816603183746,"112":-0.013712078332901001,"113":-0.39007076621055603,"114":0.3195476233959198,"115":-0.23241819441318512,"116":-0.18408618867397308,"117":0.10078809410333633,"118":0.18938682973384857,"119":0.1715238243341446,"120":0.07082964479923248,"121":-0.12279538810253143,"122":-0.9490970373153687,"123":0.48546695709228516,"124":0.015532317571341991,"125":-0.3809432089328766,"126":0.7259855270385742,"127":-0.1367417722940445,"128":-0.4251631498336792,"129":0.31016790866851807,"130":-0.22012175619602203,"131":0.3613353669643402,"132":-0.49349576234817505,"133":-0.03416886925697327,"134":0.927549421787262,"135":-0.3493589162826538,"136":0.5407475829124451,"137":0.5174603462219238,"138":-0.23597858846187592,"139":0.21349385380744934,"140":0.13411208987236023,"141":0.4740091562271118,"142":-0.3108319342136383,"143":0.19966866075992584,"144":0.3281693160533905,"145":-0.6018237471580505,"146":-1.3503493070602417,"147":0.6870658993721008,"148":0.4339680075645447,"149":-0.5653710961341858,"150":0.7896735072135925,"151":0.13231617212295532,"152":-0.4131755828857422,"153":0.288360595703125,"154":-0.41108718514442444,"155":0.7237023115158081,"156":-0.28626343607902527,"157":0.5627193450927734,"158":0.32670870423316956,"159":-0.7489703893661499,"160":0.4928918480873108,"161":0.4618855118751526,"162":-0.6503327488899231,"163":0.8916685581207275,"164":-0.3254227638244629,"165":0.4693315327167511,"166":-0.6185277104377747,"167":0.5588706135749817,"168":-0.0924394279718399,"169":-0.6017543077468872,"170":-0.6760668754577637,"171":0.4842762351036072,"172":0.8192805051803589,"173":0.1658506989479065,"174":-0.1748494803905487,"175":0.5754381418228149,"176":-0.5765119791030884,"177":0.16688603162765503,"178":-0.3523162007331848,"179":-0.24717265367507935,"180":-0.3839598596096039,"181":0.7641561627388,"182":0.6788516640663147,"183":-0.6957066655158997,"184":-0.13259342312812805,"185":0.36304956674575806,"186":-0.6242378354072571,"187":1.113529920578003,"188":0.08354496210813522,"189":-0.13186125457286835,"190":-0.7721352577209473,"191":0.05934828519821167,"192":-0.08230201154947281,"193":0.1699434369802475,"194":-0.09744297713041306,"195":0.0826704204082489,"196":0.0968497097492218,"197":-0.5694229602813721,"198":0.20048680901527405,"199":0.8483027815818787,"200":-0.5103475451469421,"201":0.6409028768539429,"202":-0.7342302799224854,"203":0.2780340015888214,"204":-0.6612183451652527,"205":-0.15644530951976776,"206":0.61508709192276,"207":-0.027875257655978203,"208":0.5597343444824219,"209":0.5569924712181091,"210":-0.22981390357017517,"211":0.4703153967857361,"212":0.024630431085824966,"213":0.036024559289216995,"214":-0.00518455496057868,"215":0.4939342439174652,"216":0.21320854127407074,"217":-0.13714389503002167,"218":-1.117544412612915,"219":0.5376877784729004,"220":0.04343945533037186,"221":-0.4610002040863037,"222":0.8843098878860474,"223":-0.5962947010993958,"224":-0.4133727550506592,"225":0.3312661945819855,"226":-0.06230435147881508,"227":0.41221198439598083,"228":-0.032119374722242355,"229":-0.09814577549695969,"230":0.9534202218055725,"231":-0.5592454671859741,"232":0.6723946928977966,"233":0.15802595019340515,"234":-0.327702134847641,"235":-0.21711555123329163,"236":0.6721819639205933,"237":0.6819935441017151,"238":-0.3299739360809326,"239":0.00740062864497304,"240":0.9567245841026306,"241":-1.3152306079864502,"242":-1.1225188970565796,"243":1.4123687744140625,"244":1.0727084875106812,"245":-0.5827505588531494,"246":1.6427370309829712,"247":-0.1533002257347107,"248":-0.8102344274520874,"249":0.32210713624954224,"250":-0.23714925348758698,"251":0.4947996437549591,"252":0.0008895652135834098,"253":1.1523436307907104,"254":0.6231756806373596,"255":-1.2943331003189087,"256":0.6264185309410095,"257":0.279262512922287,"258":-1.3421969413757324,"259":0.37031805515289307,"260":-0.6531151533126831,"261":0.5312350392341614,"262":-1.3359342813491821,"263":0.4032789468765259,"264":0.1542542427778244,"265":-0.3437710106372833,"266":-1.2517536878585815,"267":0.7430163025856018,"268":0.10602021217346191,"269":-0.5160418748855591,"270":1.068142294883728,"271":-1.1182262897491455,"272":-0.3676722049713135,"273":0.24428625404834747,"274":0.14632144570350647,"275":0.538443386554718,"276":-0.11802320927381516,"277":0.041543468832969666,"278":0.8123959302902222,"279":-0.5303251147270203,"280":0.7133340835571289,"281":0.3008120059967041,"282":-0.4482995569705963,"283":0.07596395909786224,"284":0.519636332988739,"285":0.4062202572822571,"286":-0.34845659136772156,"287":0.2131693959236145,"288":-0.16137130558490753,"289":-2.1413984298706055,"290":-1.3476957082748413,"291":1.8071315288543701,"292":2.1436924934387207,"293":-0.1840447336435318,"294":0.3366966247558594,"295":-0.25660058856010437,"296":-1.0725955963134766,"297":-0.169949471950531,"298":0.402633398771286,"299":-0.08058478683233261,"300":0.203566312789917,"301":1.8331117630004883,"302":0.7506524324417114,"303":-2.075690507888794,"304":0.2579916715621948,"305":-0.043383754789829254,"306":-1.8240551948547363,"307":0.46654167771339417,"308":0.6726153492927551,"309":-0.26347988843917847,"310":-2.0366790294647217,"311":0.11336293071508408,"312":0.19934530556201935,"313":0.33238542079925537,"314":0.3534702658653259,"315":-0.489685595035553,"316":-0.39656704664230347,"317":-0.0372961200773716,"318":0.0828399658203125,"319":-0.38402193784713745,"320":0.464758038520813,"321":-0.003848837921395898,"322":0.3072349727153778,"323":0.13070885837078094,"324":0.15352381765842438,"325":-0.31948524713516235,"326":-0.7791800498962402,"327":0.39431190490722656,"328":-0.015827784314751625,"329":-0.31340914964675903,"330":0.3833470940589905,"331":-0.5306764841079712,"332":-0.015008033253252506,"333":0.1650903820991516,"334":0.30072590708732605,"335":0.06736758351325989,"336":-0.9641150832176208,"337":-0.1644306778907776,"338":0.430486261844635,"339":-0.3092815577983856,"340":-0.06324043869972229,"341":-0.04061111807823181,"342":-0.30913516879081726,"343":0.8805069327354431,"344":-0.4607401490211487,"345":0.3243218958377838,"346":-0.29318860173225403,"347":-0.4141792058944702,"348":-1.0979371070861816,"349":0.20109876990318298,"350":0.4384610950946808,"351":0.31801745295524597,"352":-0.1401914358139038,"353":0.8639571666717529,"354":-0.23390036821365356,"355":0.5168805718421936,"356":-1.0362548828125,"357":-1.0288708209991455,"358":0.270463764667511,"359":0.2814183831214905,"360":-0.26391711831092834,"361":-0.7875275015830994,"362":-0.23846335709095,"363":0.2399798333644867,"364":0.2482435256242752,"365":-0.6487246155738831,"366":0.9649501442909241,"367":0.49484914541244507,"368":-0.7433855533599854,"369":0.3619611859321594,"370":-0.4095971882343292,"371":0.2336539775133133,"372":-0.38858482241630554,"373":0.6300196051597595,"374":0.5439643859863281,"375":-0.3230918347835541,"376":0.646852433681488,"377":0.46046674251556396,"378":-0.39644697308540344,"379":0.5111639499664307,"380":-0.08353553712368011,"381":0.04802403599023819,"382":-0.32792919874191284,"383":0.6079050302505493,"384":0.40256649255752563,"385":0.2168547362089157,"386":0.2941354215145111,"387":-0.2545417547225952,"388":-0.15686143934726715,"389":-0.508338987827301,"390":0.47130000591278076,"391":0.7956054210662842,"392":0.13059042394161224,"393":0.576472818851471,"394":-0.7382265329360962,"395":0.4273139238357544,"396":-0.7379423975944519,"397":-0.21744629740715027,"398":-0.041989054530858994,"399":0.318849116563797,"400":0.6420758962631226,"401":0.10532210022211075,"402":0.17262743413448334,"403":-0.14757415652275085,"404":-0.4691166579723358,"405":0.33263298869132996,"406":0.22814223170280457,"407":0.5776261687278748,"408":0.5438607931137085,"409":-0.2882137894630432,"410":-0.3610581159591675,"411":0.4677140414714813,"412":0.5383602380752563,"413":-0.7303828597068787,"414":0.710838794708252,"415":0.7311380505561829,"416":-0.541702389717102,"417":0.6038721799850464,"418":-0.7062691450119019,"419":0.5849783420562744,"420":-0.5360316038131714,"421":0.3756157159805298,"422":0.45790207386016846,"423":-0.5028823018074036,"424":0.6431020498275757,"425":0.566373348236084,"426":-0.61237633228302,"427":0.5454618334770203,"428":-0.32792940735816956,"429":0.31500956416130066,"430":-0.5477116107940674,"431":0.682828426361084,"432":-0.5824042558670044,"433":-1.1161515712738037,"434":-0.2807582914829254,"435":0.22156375646591187,"436":1.041580080986023,"437":-0.01848405972123146,"438":-0.08217286318540573,"439":0.5634200572967529,"440":-1.1781426668167114,"441":0.3497244715690613,"442":-0.6764063239097595,"443":-0.41472432017326355,"444":-0.7678248286247253,"445":1.2418689727783203,"446":0.9605178236961365,"447":-0.7325415015220642,"448":0.09967732429504395,"449":0.9659752249717712,"450":-0.8962328433990479,"451":1.0408879518508911,"452":0.46169590950012207,"453":-0.5426258444786072,"454":-0.9019678235054016,"455":0.20137019455432892,"456":-0.1194949522614479,"457":0.4308489263057709,"458":0.42191559076309204,"459":-0.4044507145881653,"460":-0.44263941049575806,"461":0.3948535621166229,"462":-0.5755429863929749,"463":0.3920883536338806,"464":0.5617219805717468,"465":0.14298497140407562,"466":-0.3312091529369354,"467":-0.17001637816429138,"468":-0.12060137838125229,"469":-0.46414339542388916,"470":-0.6279781460762024,"471":0.46249377727508545,"472":-0.4492438733577728,"473":-0.4472694993019104,"474":0.5223497152328491,"475":-0.22966435551643372,"476":-0.1154799610376358,"477":0.02698986418545246,"478":0.3985869586467743,"479":-0.35462486743927}},"forgetHidden":{"rows":20,"columns":20,"weights":{"0":-0.015275090001523495,"1":0.6910964250564575,"2":0.12943430244922638,"3":-0.5112369060516357,"4":0.009268964640796185,"5":-0.5288065671920776,"6":-0.584970235824585,"7":0.30960747599601746,"8":-0.04369280859827995,"9":-0.5540704727172852,"10":0.34628626704216003,"11":0.5928231477737427,"12":-0.40085694193840027,"13":0.15155340731143951,"14":0.5610102415084839,"15":0.29020869731903076,"16":-0.04119604825973511,"17":-0.08236588537693024,"18":-1.8548181056976318,"19":-1.4575679302215576,"20":0.8390263915061951,"21":0.6486276984214783,"22":0.8064892888069153,"23":-0.5668970942497253,"24":0.07563941925764084,"25":-0.018656929954886436,"26":0.4476865530014038,"27":0.6057994961738586,"28":0.05949821323156357,"29":-0.18622152507305145,"30":0.2777497172355652,"31":-0.08574619144201279,"32":0.05198162794113159,"33":-0.20646288990974426,"34":-0.3780136704444885,"35":0.0027232554275542498,"36":0.1746802181005478,"37":0.46509966254234314,"38":-1.5020281076431274,"39":-1.4228557348251343,"40":-0.07719258219003677,"41":0.32626956701278687,"42":0.37811899185180664,"43":0.032722488045692444,"44":-0.29335999488830566,"45":0.36328157782554626,"46":0.36188578605651855,"47":0.4016219973564148,"48":-0.43337079882621765,"49":0.16524361073970795,"50":0.5308533906936646,"51":-0.3811044991016388,"52":0.39937353134155273,"53":0.27347949147224426,"54":0.35660141706466675,"55":-0.33821576833724976,"56":0.29335567355155945,"57":0.3354244828224182,"58":-0.28736504912376404,"59":-0.3083355724811554,"60":-0.5079264044761658,"61":-0.3001807630062103,"62":0.1742689609527588,"63":0.33410564064979553,"64":-0.9778075814247131,"65":-0.6787136793136597,"66":-0.6305418610572815,"67":-0.2708223760128021,"68":0.5167891979217529,"69":-0.6290297508239746,"70":-0.2668860852718353,"71":0.60457843542099,"72":-0.06787344813346863,"73":-0.07993229478597641,"74":-0.7380219101905823,"75":0.4591570496559143,"76":-0.28472277522087097,"77":-0.23716318607330322,"78":0.09830938279628754,"79":0.05216415226459503,"80":0.047046661376953125,"81":0.2272198498249054,"82":0.47075578570365906,"83":-0.19893406331539154,"84":-0.3477102518081665,"85":0.10126830637454987,"86":0.032547108829021454,"87":0.3559342920780182,"88":-0.3888705372810364,"89":0.1182745099067688,"90":0.45122864842414856,"91":-0.1717633605003357,"92":0.13505694270133972,"93":0.36663442850112915,"94":0.3069876730442047,"95":-0.4480765759944916,"96":0.3902188241481781,"97":0.45402422547340393,"98":0.03441644832491875,"99":-0.1842481791973114,"100":0.2574109733104706,"101":-0.3271498680114746,"102":-0.5147303342819214,"103":-0.8993285894393921,"104":-0.11678630858659744,"105":-0.5346058011054993,"106":-0.6866948008537292,"107":0.19343604147434235,"108":-0.46364307403564453,"109":-0.6177932620048523,"110":0.21378573775291443,"111":0.5971455574035645,"112":0.392220675945282,"113":-0.3424971401691437,"114":1.36115300655365,"115":-0.2419043332338333,"116":-0.37413015961647034,"117":0.012266602367162704,"118":0.27161115407943726,"119":-0.45419663190841675,"120":0.037172988057136536,"121":-0.29892027378082275,"122":-0.5264227986335754,"123":-0.06888826191425323,"124":-0.13376271724700928,"125":0.17197385430335999,"126":0.2668715715408325,"127":0.5528398752212524,"128":-0.6249946355819702,"129":0.7066205143928528,"130":-0.30586352944374084,"131":-0.06271899491548538,"132":0.34605634212493896,"133":0.11323289573192596,"134":-1.0769389867782593,"135":-0.689100980758667,"136":0.050201330333948135,"137":0.36227333545684814,"138":0.16096894443035126,"139":-0.7075790762901306,"140":-0.07418119162321091,"141":1.3630757331848145,"142":0.848885715007782,"143":-0.4151330888271332,"144":0.40656641125679016,"145":0.276313453912735,"146":0.8628119826316833,"147":0.9586474299430847,"148":-0.25040382146835327,"149":0.17586307227611542,"150":0.49026063084602356,"151":-0.214911550283432,"152":0.9999995827674866,"153":-0.4443379342556,"154":-0.898857831954956,"155":-0.006341821979731321,"156":-0.20151515305042267,"157":0.4949824810028076,"158":-0.7548724412918091,"159":-0.5551555156707764,"160":-0.7587709426879883,"161":-0.2614613175392151,"162":-0.3124157190322876,"163":0.4363764822483063,"164":0.2167186737060547,"165":-0.09174587577581406,"166":-0.13185137510299683,"167":-0.5297908782958984,"168":0.5756715536117554,"169":0.07364954799413681,"170":-0.4808448851108551,"171":-0.17249560356140137,"172":-0.6784831285476685,"173":-0.3870244324207306,"174":-0.38722169399261475,"175":0.5603333711624146,"176":-0.39629867672920227,"177":-0.41457319259643555,"178":0.2698301374912262,"179":0.2913394868373871,"180":0.035760894417762756,"181":-0.8043936491012573,"182":-0.40685951709747314,"183":-1.0133745670318604,"184":0.398629754781723,"185":-0.67562335729599,"186":-0.90218585729599,"187":-0.21174612641334534,"188":-0.5028656125068665,"189":-0.6621986627578735,"190":0.2374342978000641,"191":0.6929565668106079,"192":0.19065192341804504,"193":0.15342944860458374,"194":1.3432080745697021,"195":-0.2834632992744446,"196":-0.083908312022686,"197":0.04034898430109024,"198":0.16831858456134796,"199":-0.06567148864269257,"200":0.10872920602560043,"201":0.24451488256454468,"202":0.40750986337661743,"203":-0.4634331464767456,"204":0.3451972007751465,"205":-0.946259081363678,"206":-0.7547630667686462,"207":0.17297367751598358,"208":0.11769694089889526,"209":-0.7594014406204224,"210":0.03746800869703293,"211":0.8640047311782837,"212":0.4409390389919281,"213":-0.380932092666626,"214":-0.18463724851608276,"215":0.18906065821647644,"216":-0.14695242047309875,"217":0.009706681594252586,"218":-0.200226292014122,"219":-0.1960877627134323,"220":-0.056663282215595245,"221":-0.8025127649307251,"222":-0.5646576285362244,"223":-0.8019362688064575,"224":-0.1871161311864853,"225":-0.6843478679656982,"226":-0.6029688119888306,"227":0.017255375161767006,"228":-0.3248682916164398,"229":-0.6516824960708618,"230":0.2965463697910309,"231":0.6820444464683533,"232":0.5684853792190552,"233":-0.010091339237987995,"234":0.8925656080245972,"235":-0.29520079493522644,"236":-0.18629378080368042,"237":-0.027477050200104713,"238":0.11940442025661469,"239":-0.23782265186309814,"240":0.6166671514511108,"241":0.8722259998321533,"242":0.3601568043231964,"243":-0.12715335190296173,"244":-0.11308753490447998,"245":-0.6597527265548706,"246":-0.5631879568099976,"247":0.8249550461769104,"248":0.15779709815979004,"249":-0.34712228178977966,"250":-0.06068461388349533,"251":0.6574109792709351,"252":0.5918538570404053,"253":-0.18750567734241486,"254":-0.411125510931015,"255":0.05217411369085312,"256":-0.2932369112968445,"257":-0.0014413287863135338,"258":-0.5957747101783752,"259":-1.2279605865478516,"260":-0.08020420372486115,"261":0.13076311349868774,"262":0.49685579538345337,"263":-0.20418035984039307,"264":-0.3251613676548004,"265":0.13896693289279938,"266":0.2408641129732132,"267":0.13601987063884735,"268":-0.5966034531593323,"269":0.2000982016324997,"270":0.3883618116378784,"271":-0.23387809097766876,"272":0.12436076253652573,"273":0.29507994651794434,"274":0.4382099211215973,"275":-0.2890930771827698,"276":0.39553025364875793,"277":0.3116857707500458,"278":0.02767140232026577,"279":-0.08544283360242844,"280":-1.665195345878601,"281":0.21029700338840485,"282":-1.2162920236587524,"283":1.419431447982788,"284":-0.15340547263622284,"285":-0.4767203629016876,"286":1.237260103225708,"287":0.10027535259723663,"288":1.0575333833694458,"289":-0.20941103994846344,"290":-2.7731003761291504,"291":0.40508323907852173,"292":0.5154891014099121,"293":-0.8834825158119202,"294":-0.32078006863594055,"295":1.088073492050171,"296":-0.8321479558944702,"297":-1.3008337020874023,"298":1.4767069816589355,"299":-0.22471921145915985,"300":-0.7341135740280151,"301":0.03837693855166435,"302":0.1557946354150772,"303":0.3645353317260742,"304":0.2536954879760742,"305":-0.33891743421554565,"306":-0.3399355113506317,"307":-0.22292231023311615,"308":0.4273967146873474,"309":-0.2778680920600891,"310":-0.4053105413913727,"311":0.41332414746284485,"312":-0.1509433090686798,"313":-0.16217851638793945,"314":-0.603740930557251,"315":0.33787763118743896,"316":-0.13879774510860443,"317":-0.17162293195724487,"318":0.382498562335968,"319":0.34188592433929443,"320":-0.12227483838796616,"321":0.20479965209960938,"322":0.44965022802352905,"323":0.3575037717819214,"324":-0.15734298527240753,"325":0.023459969088435173,"326":0.10851939767599106,"327":0.17819759249687195,"328":0.09939277917146683,"329":0.08979443460702896,"330":-0.20461894571781158,"331":-0.139163538813591,"332":0.12083427608013153,"333":0.00969945639371872,"334":0.10739515721797943,"335":-0.05549690127372742,"336":0.13247385621070862,"337":0.2356274127960205,"338":0.1704089641571045,"339":-0.06888952106237411,"340":-0.5522684454917908,"341":0.014066958799958229,"342":0.4475593864917755,"343":0.17077216506004333,"344":-0.27156949043273926,"345":-0.01537767332047224,"346":-0.05747395381331444,"347":-0.039944492280483246,"348":0.04955244064331055,"349":-0.058922894299030304,"350":-0.1853342205286026,"351":-0.03269749507308006,"352":-0.12919138371944427,"353":0.2638750970363617,"354":0.15089312195777893,"355":0.02377285622060299,"356":0.2621866464614868,"357":0.23146022856235504,"358":0.12473436444997787,"359":0.05879010632634163,"360":-0.3979751169681549,"361":0.8517964482307434,"362":1.0540951490402222,"363":0.45376861095428467,"364":-1.3050332069396973,"365":0.13459916412830353,"366":0.23398976027965546,"367":0.15501253306865692,"368":0.007281007245182991,"369":0.3334506154060364,"370":-0.2996695637702942,"371":-0.14132307469844818,"372":0.3692258596420288,"373":0.8345052003860474,"374":-0.34908121824264526,"375":0.0913243219256401,"376":0.24431104958057404,"377":-0.0817803144454956,"378":-0.4349461495876312,"379":-0.1900317519903183,"380":0.4552784562110901,"381":0.5683547854423523,"382":-0.385522723197937,"383":-0.4827471971511841,"384":0.19450868666172028,"385":0.5551304221153259,"386":0.49191930890083313,"387":0.9043338298797607,"388":-0.2320426106452942,"389":0.5656632781028748,"390":0.8921533226966858,"391":-0.6540899276733398,"392":1.0480667352676392,"393":-0.30303624272346497,"394":0.058548081666231155,"395":0.0690002292394638,"396":-0.17424939572811127,"397":-0.042482610791921616,"398":-0.9336464405059814,"399":-0.8724214434623718}},"forgetBias":{"rows":20,"columns":1,"weights":{"0":0,"1":0,"2":0,"3":0,"4":0,"5":0,"6":0,"7":0,"8":0,"9":0,"10":0,"11":0,"12":0,"13":0,"14":0,"15":0,"16":0,"17":0,"18":0,"19":0}},"outputMatrix":{"rows":20,"columns":24,"weights":{"0":0.2544853687286377,"1":-1.170833945274353,"2":-0.22398512065410614,"3":1.6716408729553223,"4":0.7621070742607117,"5":-0.5646985769271851,"6":0.5996979475021362,"7":0.2640513479709625,"8":-1.1788890361785889,"9":0.5271527767181396,"10":-0.48158836364746094,"11":0.5119526982307434,"12":-0.2860028147697449,"13":1.4974874258041382,"14":0.6134690642356873,"15":-1.400194764137268,"16":0.5049634575843811,"17":0.5706615447998047,"18":-2.084268093109131,"19":0.27992069721221924,"20":-0.34250983595848083,"21":0.2053467333316803,"22":-0.7473106384277344,"23":0.48362794518470764,"24":0.8266128301620483,"25":-0.4801251292228699,"26":-1.1131504774093628,"27":0.8658275604248047,"28":0.5857007503509521,"29":-0.7643746137619019,"30":0.8035023212432861,"31":-0.05087156966328621,"32":-1.5321122407913208,"33":0.0799734964966774,"34":-0.1166725680232048,"35":0.9171732068061829,"36":0.3384586274623871,"37":0.4619773030281067,"38":1.2937968969345093,"39":-0.7768228650093079,"40":1.0397754907608032,"41":0.920945942401886,"42":-1.2321468591690063,"43":1.2195179462432861,"44":0.6427378058433533,"45":0.817136287689209,"46":-0.5118216276168823,"47":0.6010751724243164,"48":0.09466319531202316,"49":0.42197251319885254,"50":0.824876606464386,"51":-0.7161983847618103,"52":-0.7146893739700317,"53":-0.2637200653553009,"54":0.3444671332836151,"55":0.5408127307891846,"56":0.5527161955833435,"57":0.3914167582988739,"58":-0.20922604203224182,"59":0.23334401845932007,"60":-0.723702609539032,"61":-0.5708602666854858,"62":-0.44122183322906494,"63":0.7001097202301025,"64":0.10575229674577713,"65":0.10295075178146362,"66":0.7839697003364563,"67":-0.33907678723335266,"68":-0.9463923573493958,"69":0.16346919536590576,"70":0.8265147805213928,"71":0.345765084028244,"72":0.46739473938941956,"73":0.41843312978744507,"74":0.29952022433280945,"75":-0.2582663297653198,"76":0.009887469932436943,"77":-0.44344404339790344,"78":1.1370587348937988,"79":0.7572277188301086,"80":0.07773291319608688,"81":1.5081526041030884,"82":-1.1321710348129272,"83":1.4508641958236694,"84":-0.5145941972732544,"85":-0.4456164538860321,"86":0.5751124024391174,"87":0.08182549476623535,"88":0.1651431918144226,"89":-0.024872004985809326,"90":0.1426508128643036,"91":-0.381335973739624,"92":-1.064359426498413,"93":0.966167688369751,"94":-0.3852410912513733,"95":-0.19275856018066406,"96":0.2977532148361206,"97":0.6062029600143433,"98":0.50250643491745,"99":-0.6945958137512207,"100":-0.6331557035446167,"101":-0.8716307878494263,"102":0.7408980131149292,"103":0.6355562210083008,"104":0.27694615721702576,"105":0.6701990962028503,"106":-0.5931416749954224,"107":0.7008945941925049,"108":-0.8614075779914856,"109":-0.7331348657608032,"110":-0.18735550343990326,"111":0.7351791858673096,"112":0.8140982985496521,"113":0.06546618789434433,"114":0.49432504177093506,"115":0.09692657738924026,"116":-0.9029824137687683,"117":0.3461144268512726,"118":0.8757345080375671,"119":0.9789533019065857,"120":-0.3502223789691925,"121":-0.3637578785419464,"122":-0.8252332806587219,"123":0.7025309205055237,"124":0.5844303965568542,"125":-0.5725018382072449,"126":-0.0036209786776453257,"127":0.6063658595085144,"128":-1.5473452806472778,"129":0.937405526638031,"130":-0.9635488390922546,"131":0.45949092507362366,"132":-0.6746459603309631,"133":0.4074360132217407,"134":1.8634464740753174,"135":-0.6704472899436951,"136":0.5200717449188232,"137":0.5161581039428711,"138":-0.6237835884094238,"139":1.3614329099655151,"140":0.32198235392570496,"141":-0.05545112118124962,"142":-0.6669439077377319,"143":0.5888856649398804,"144":-0.8374895453453064,"145":-0.8349032998085022,"146":-0.4422546923160553,"147":0.8574360609054565,"148":0.8519743084907532,"149":0.3603541851043701,"150":-0.7611468434333801,"151":1.0262045860290527,"152":-1.0637069940567017,"153":0.06097962707281113,"154":-0.6230962872505188,"155":-0.5732238292694092,"156":-0.15221482515335083,"157":0.6739135384559631,"158":0.7381500601768494,"159":-0.7333410978317261,"160":-0.4433404207229614,"161":0.36792463064193726,"162":-0.5922544598579407,"163":1.587883472442627,"164":0.3112710416316986,"165":-0.5158493518829346,"166":-0.8319212794303894,"167":-0.1595611572265625,"168":0.7212026715278625,"169":-0.6198174953460693,"170":-1.3260654211044312,"171":0.9023030996322632,"172":0.5028320550918579,"173":-0.8323481678962708,"174":0.6710563898086548,"175":0.3867892622947693,"176":-0.6785929203033447,"177":0.21455609798431396,"178":-0.28096312284469604,"179":0.753686249256134,"180":0.17727020382881165,"181":0.7046297192573547,"182":0.3848605453968048,"183":-0.843680739402771,"184":1.0292432308197021,"185":0.4894081950187683,"186":-0.9111316800117493,"187":1.1117886304855347,"188":0.2831490635871887,"189":0.6525473594665527,"190":-0.8251221179962158,"191":0.7025439143180847,"192":0.49073246121406555,"193":0.7062491774559021,"194":0.9380372166633606,"195":-0.8435738682746887,"196":-0.8436557650566101,"197":-0.692643404006958,"198":0.17166274785995483,"199":-0.04928605258464813,"200":0.249309703707695,"201":0.4534551799297333,"202":0.0033446827437728643,"203":0.769858181476593,"204":-0.5336673855781555,"205":-0.8977419137954712,"206":-0.5820751190185547,"207":0.9532692432403564,"208":0.6581737399101257,"209":-0.14175663888454437,"210":0.6560083031654358,"211":-0.39108240604400635,"212":-1.0833686590194702,"213":0.5246841907501221,"214":0.8030365109443665,"215":0.5820062160491943,"216":0.12613846361637115,"217":-0.4925656318664551,"218":-1.5738047361373901,"219":0.9585916996002197,"220":0.6310938000679016,"221":-0.9047142863273621,"222":0.5623157024383545,"223":0.23005180060863495,"224":-1.4678739309310913,"225":0.6485928893089294,"226":-0.7094156742095947,"227":0.874011218547821,"228":-0.4851112961769104,"229":0.3395088315010071,"230":2.105966806411743,"231":-0.6762102246284485,"232":0.9010712504386902,"233":0.512212872505188,"234":-0.7240941524505615,"235":1.3253157138824463,"236":0.5830788016319275,"237":0.550961971282959,"238":-0.7050818204879761,"239":0.7797496914863586,"240":2.1985111236572266,"241":1.0454367399215698,"242":0.42941465973854065,"243":-0.35757744312286377,"244":-0.3639823794364929,"245":-0.6447663903236389,"246":0.5886399745941162,"247":-0.22200655937194824,"248":0.19930121302604675,"249":0.7777079939842224,"250":-0.17023159563541412,"251":1.5682975053787231,"252":0.7963865995407104,"253":-1.0126522779464722,"254":-0.01850692369043827,"255":0.22038625180721283,"256":0.8573372960090637,"257":-0.7785325050354004,"258":0.28360843658447266,"259":-0.2129097282886505,"260":-0.3480989634990692,"261":2.223907947540283,"262":0.1703474074602127,"263":0.3780485689640045,"264":-0.21550017595291138,"265":-0.7243129014968872,"266":-1.1387087106704712,"267":0.9630374908447266,"268":0.7837293744087219,"269":-0.1254434883594513,"270":-0.1288670301437378,"271":0.8325598835945129,"272":-1.576279640197754,"273":0.7169714570045471,"274":-1.1799803972244263,"275":0.4635021686553955,"276":-0.676377534866333,"277":0.591711699962616,"278":1.7754020690917969,"279":-0.7312494516372681,"280":0.31527552008628845,"281":0.7479027509689331,"282":-0.8480480909347534,"283":1.3450334072113037,"284":0.3080761730670929,"285":-0.06940938532352448,"286":-0.7754875421524048,"287":0.25867053866386414,"288":1.9959566593170166,"289":1.1216540336608887,"290":-0.16759684681892395,"291":0.01328787487000227,"292":-0.31066131591796875,"293":-0.8198665976524353,"294":0.8357171416282654,"295":-0.3279237449169159,"296":0.1307365745306015,"297":0.2577481269836426,"298":-0.04363206773996353,"299":1.0623260736465454,"300":0.47535786032676697,"301":-0.768002450466156,"302":0.0642256811261177,"303":-0.26810240745544434,"304":0.836777925491333,"305":-0.3332563638687134,"306":-0.5119561553001404,"307":0.1411110758781433,"308":0.4157389998435974,"309":1.6452717781066895,"310":-0.08018635958433151,"311":0.6633207201957703,"312":-0.035064514726400375,"313":0.6792499423027039,"314":0.6714456677436829,"315":-0.9699549674987793,"316":-1.005448341369629,"317":-0.2491268664598465,"318":0.16955667734146118,"319":0.34255605936050415,"320":0.24533717334270477,"321":0.321393758058548,"322":-0.18789531290531158,"323":0.15182679891586304,"324":-0.6532096862792969,"325":-0.5655201077461243,"326":0.18181481957435608,"327":1.0854625701904297,"328":0.21172259747982025,"329":0.25980448722839355,"330":1.013094186782837,"331":0.5426540970802307,"332":-1.1438536643981934,"333":-0.010376888327300549,"334":1.035836935043335,"335":0.3117077648639679,"336":0.31795626878738403,"337":0.19533288478851318,"338":-0.11150899529457092,"339":-0.5248136520385742,"340":-0.09339036792516708,"341":0.21587002277374268,"342":0.2980390787124634,"343":-1.4691416025161743,"344":1.0393116474151611,"345":-0.7009690999984741,"346":1.5444436073303223,"347":-0.2815154194831848,"348":0.6286675930023193,"349":-0.13023528456687927,"350":-1.0800039768218994,"351":0.3155112564563751,"352":-0.1254311054944992,"353":-1.1138733625411987,"354":0.10493706911802292,"355":-0.6434762477874756,"356":-0.40021759271621704,"357":0.07879916578531265,"358":0.23875106871128082,"359":-0.11017795652151108,"360":0.3764577805995941,"361":0.6790715456008911,"362":0.7787811756134033,"363":-0.5232836604118347,"364":-0.815604031085968,"365":-0.21083176136016846,"366":0.08852165192365646,"367":-0.07753147929906845,"368":0.08377456665039062,"369":-0.009005891159176826,"370":0.13064318895339966,"371":0.43130141496658325,"372":-0.6189190745353699,"373":-0.6436761617660522,"374":-0.23261848092079163,"375":0.8418970704078674,"376":0.19523099064826965,"377":0.0026762427296489477,"378":0.5789891481399536,"379":-0.19856008887290955,"380":-0.8187227845191956,"381":0.4586559236049652,"382":1.0375361442565918,"383":0.1899338662624359,"384":0.1583130806684494,"385":0.667959988117218,"386":0.6962692737579346,"387":-0.9628115892410278,"388":-0.9131797552108765,"389":-0.252756804227829,"390":0.04446732997894287,"391":0.6203411817550659,"392":0.26965656876564026,"393":0.5203941464424133,"394":-0.3963044583797455,"395":0.2177632749080658,"396":-0.9251517057418823,"397":-0.5705947279930115,"398":-0.12311507761478424,"399":0.9489628672599792,"400":0.2652961015701294,"401":0.4099697768688202,"402":0.7899713516235352,"403":0.32242992520332336,"404":-0.7274883985519409,"405":0.1658364087343216,"406":1.0824631452560425,"407":0.49905917048454285,"408":0.43962979316711426,"409":1.5203442573547363,"410":0.5856477618217468,"411":-1.299278974533081,"412":-2.041813611984253,"413":-0.04292835295200348,"414":-0.13996660709381104,"415":0.13788779079914093,"416":0.4473124146461487,"417":0.08006007969379425,"418":-0.11686990410089493,"419":0.227621391415596,"420":0.07840276509523392,"421":-1.7215944528579712,"422":-0.30295443534851074,"423":1.7715106010437012,"424":0.02025107480585575,"425":0.37202754616737366,"426":1.3844232559204102,"427":-0.06407052278518677,"428":-0.4407902956008911,"429":0.5032675862312317,"430":1.6659343242645264,"431":-0.054298900067806244,"432":0.4465509057044983,"433":-0.03213874250650406,"434":-1.2917864322662354,"435":0.8499321937561035,"436":0.5252183675765991,"437":-1.385546326637268,"438":0.95738685131073,"439":0.983013391494751,"440":-1.4169360399246216,"441":1.500496506690979,"442":-1.7242398262023926,"443":1.2294921875,"444":-1.289766550064087,"445":0.03250179812312126,"446":1.7352392673492432,"447":-0.5215293169021606,"448":1.410658597946167,"449":1.2558352947235107,"450":-0.7392140030860901,"451":0.9323171973228455,"452":0.4397720396518707,"453":0.7073195576667786,"454":-0.40685856342315674,"455":1.4404568672180176,"456":0.7260617017745972,"457":-0.07736891508102417,"458":-0.10761017352342606,"459":0.23824824392795563,"460":0.06282875686883926,"461":-1.0250506401062012,"462":0.9648505449295044,"463":0.37548699975013733,"464":-0.004384288098663092,"465":0.7159247994422913,"466":-0.5325577259063721,"467":0.6999497413635254,"468":0.05241589620709419,"469":0.28781479597091675,"470":0.00538628501817584,"471":-0.12499122321605682,"472":1.2170979976654053,"473":0.44980674982070923,"474":-0.17878606915473938,"475":1.2399693727493286,"476":-0.9040129780769348,"477":0.3943769335746765,"478":-0.08954793959856033,"479":1.1418968439102173}},"outputHidden":{"rows":20,"columns":20,"weights":{"0":-0.5184875726699829,"1":0.0575823113322258,"2":0.435272216796875,"3":-0.8818923234939575,"4":-0.7616701126098633,"5":-1.7208027839660645,"6":-1.5999674797058105,"7":0.13450106978416443,"8":0.15261290967464447,"9":-1.1192224025726318,"10":0.5174782872200012,"11":1.9729857444763184,"12":0.29628658294677734,"13":-0.22401325404644012,"14":-0.21652688086032867,"15":0.14730116724967957,"16":-0.44229310750961304,"17":-0.40336617827415466,"18":-0.1400967240333557,"19":0.08309295773506165,"20":-0.5578387379646301,"21":0.11615628749132156,"22":0.024171508848667145,"23":0.379520446062088,"24":-0.1457180380821228,"25":-1.2647294998168945,"26":-0.8349563479423523,"27":0.1485857218503952,"28":0.28357115387916565,"29":-0.940614640712738,"30":-0.08025789260864258,"31":1.000388741493225,"32":-0.5408269762992859,"33":-1.0434467792510986,"34":-1.0009480714797974,"35":0.6233723163604736,"36":-0.5969343185424805,"37":-0.6976051330566406,"38":0.5550401210784912,"39":-0.029834451153874397,"40":-1.540515661239624,"41":-0.4287470877170563,"42":0.37044304609298706,"43":-1.3381495475769043,"44":-0.2650209069252014,"45":-0.06753525137901306,"46":-0.1921069473028183,"47":-0.48884516954421997,"48":0.12164830416440964,"49":-0.13919198513031006,"50":-0.5209587216377258,"51":0.13834138214588165,"52":-0.6049581170082092,"53":0.36734455823898315,"54":-0.26413729786872864,"55":-0.3282725214958191,"56":0.4413672685623169,"57":0.3128487169742584,"58":2.1700103282928467,"59":0.6089459657669067,"60":-1.1242200136184692,"61":-1.2584199905395508,"62":-0.5891974568367004,"63":0.7686648964881897,"64":0.9008082747459412,"65":-0.5553146600723267,"66":-0.6737324595451355,"67":-0.48116499185562134,"68":1.3246464729309082,"69":-0.41657736897468567,"70":-0.920326828956604,"71":0.32290756702423096,"72":-0.7583380341529846,"73":-1.9582926034927368,"74":0.33701077103614807,"75":1.0932095050811768,"76":-1.6046503782272339,"77":-0.5617276430130005,"78":0.8577123284339905,"79":0.572036623954773,"80":0.04507313668727875,"81":0.5157362222671509,"82":0.044141314923763275,"83":0.5474587082862854,"84":-0.24226412177085876,"85":0.9615679979324341,"86":0.8393229246139526,"87":0.5864294767379761,"88":0.5833798050880432,"89":0.8528326153755188,"90":-0.341202974319458,"91":-1.085042953491211,"92":0.1820477843284607,"93":0.4044272303581238,"94":0.33703961968421936,"95":-0.23305323719978333,"96":0.3521888554096222,"97":0.1346503496170044,"98":0.14129486680030823,"99":-0.8059134483337402,"100":0.04566967487335205,"101":-0.9714647531509399,"102":-0.6003522872924805,"103":-0.68038409948349,"104":0.17777656018733978,"105":0.19562549889087677,"106":0.2251807600259781,"107":0.07865484058856964,"108":-0.046636004000902176,"109":0.15174297988414764,"110":-0.22173887491226196,"111":-0.1247098445892334,"112":-0.2755783796310425,"113":-0.06412557512521744,"114":-0.4007315933704376,"115":0.16762040555477142,"116":-0.02603461965918541,"117":-0.13195309042930603,"118":0.8785235285758972,"119":-0.5868041515350342,"120":-0.16601602733135223,"121":-0.44935908913612366,"122":-0.8877624273300171,"123":0.17548367381095886,"124":0.6608989238739014,"125":0.589119553565979,"126":0.5873156189918518,"127":0.3327369689941406,"128":0.20625169575214386,"129":0.5376445651054382,"130":0.008924969471991062,"131":-0.6195949912071228,"132":-0.6020649075508118,"133":-0.3846469819545746,"134":-0.34252968430519104,"135":0.5720961689949036,"136":-0.5762649178504944,"137":-0.9483170509338379,"138":0.7778424024581909,"139":-0.41587337851524353,"140":-0.6874796152114868,"141":-0.30438733100891113,"142":0.3317473828792572,"143":-0.3652716279029846,"144":-0.00007679420377826318,"145":-0.5985116362571716,"146":-0.34978634119033813,"147":0.4427723288536072,"148":-0.0347592867910862,"149":-0.5110304355621338,"150":0.18527941405773163,"151":0.5820267796516418,"152":-0.3034205138683319,"153":-0.4037778079509735,"154":-0.7554454207420349,"155":0.720925509929657,"156":-0.6013919711112976,"157":-0.033198244869709015,"158":0.31993409991264343,"159":-0.17164260149002075,"160":-0.7115868926048279,"161":-0.255001038312912,"162":0.373742014169693,"163":-0.7119138240814209,"164":-0.3325670063495636,"165":-0.15438805520534515,"166":-0.5006215572357178,"167":-0.13682283461093903,"168":-0.16442789137363434,"169":-0.30554842948913574,"170":-0.45157280564308167,"171":-0.016956090927124023,"172":-0.10422636568546295,"173":0.005621915217489004,"174":0.5624515414237976,"175":0.09996230155229568,"176":0.14030154049396515,"177":0.04952801391482353,"178":-0.5172023177146912,"179":0.17933893203735352,"180":0.03377559781074524,"181":-1.3749727010726929,"182":-0.6422619223594666,"183":-0.610470175743103,"184":0.5747417211532593,"185":0.17562592029571533,"186":0.21922262012958527,"187":-0.19560150802135468,"188":0.3419996500015259,"189":-0.009448274970054626,"190":-0.45734432339668274,"191":0.04966598376631737,"192":-0.6858680248260498,"193":-0.3292791545391083,"194":-0.30193543434143066,"195":0.3340625762939453,"196":-0.37013089656829834,"197":-0.3589189350605011,"198":0.8497498631477356,"199":0.039625074714422226,"200":0.3626999855041504,"201":0.569306492805481,"202":1.5383368730545044,"203":-1.4738906621932983,"204":-0.876287579536438,"205":-1.2129818201065063,"206":-0.47236600518226624,"207":0.7128982543945312,"208":-0.9202656149864197,"209":-1.2098660469055176,"210":1.031436562538147,"211":1.3166810274124146,"212":0.8911471962928772,"213":1.0240617990493774,"214":0.08011728525161743,"215":-0.9507985711097717,"216":1.2554082870483398,"217":1.469693660736084,"218":-0.6931432485580444,"219":0.06366486847400665,"220":-0.31728437542915344,"221":-0.9027926325798035,"222":-0.5349270105361938,"223":-0.5621854662895203,"224":0.12300571799278259,"225":0.23060423135757446,"226":0.11469528079032898,"227":0.14495746791362762,"228":-0.1253051906824112,"229":0.07483239471912384,"230":-0.5278663039207458,"231":-0.07838123291730881,"232":-0.09635359048843384,"233":-0.2065398395061493,"234":0.0731426253914833,"235":0.20496731996536255,"236":-0.01231915969401598,"237":-0.38739603757858276,"238":1.027785301208496,"239":-0.3919939696788788,"240":-0.6019349098205566,"241":0.6787070035934448,"242":1.193074107170105,"243":-1.3129198551177979,"244":-1.2553850412368774,"245":-1.2307592630386353,"246":-0.927274227142334,"247":0.3865482211112976,"248":-0.7450401782989502,"249":-0.7586020827293396,"250":0.8546141386032104,"251":1.4637715816497803,"252":0.22596944868564606,"253":0.9138319492340088,"254":0.3994077146053314,"255":-0.606209933757782,"256":0.7181980013847351,"257":1.2100478410720825,"258":-1.7817126512527466,"259":-0.7423484921455383,"260":-1.076053500175476,"261":-0.25822094082832336,"262":0.3099195957183838,"263":-0.33117786049842834,"264":-0.4509429633617401,"265":0.19867978990077972,"266":0.25667428970336914,"267":-0.19237186014652252,"268":-0.1746853142976761,"269":0.3471078872680664,"270":-0.6759132742881775,"271":-0.23900271952152252,"272":0.40926915407180786,"273":0.5355775356292725,"274":0.036931976675987244,"275":-0.4295291304588318,"276":0.5052555799484253,"277":0.5941629409790039,"278":2.211127996444702,"279":1.1676762104034424,"280":-0.5690625905990601,"281":0.09559935331344604,"282":0.2204255759716034,"283":2.2330007553100586,"284":-0.5675819516181946,"285":0.17549830675125122,"286":0.40724194049835205,"287":-0.024466266855597496,"288":1.101649284362793,"289":0.38893356919288635,"290":-0.978142261505127,"291":-0.40161561965942383,"292":0.35454055666923523,"293":-0.34777501225471497,"294":-1.2469135522842407,"295":0.6702944040298462,"296":-0.5060922503471375,"297":-0.7866712212562561,"298":-1.2115501165390015,"299":0.23188112676143646,"300":-2.227789878845215,"301":-0.7820785641670227,"302":0.9514452219009399,"303":-0.16920900344848633,"304":-0.7122666835784912,"305":-0.4922325909137726,"306":-0.5965916514396667,"307":-0.3864513039588928,"308":-0.23445956408977509,"309":-0.5149291157722473,"310":-0.17337380349636078,"311":0.515102207660675,"312":-0.5661761164665222,"313":0.39455708861351013,"314":0.5268412828445435,"315":-0.3386378586292267,"316":0.5702236294746399,"317":0.7556723356246948,"318":0.22545652091503143,"319":0.2323325127363205,"320":-1.951763391494751,"321":-0.18592427670955658,"322":0.5311529636383057,"323":0.0803385078907013,"324":-0.420259028673172,"325":-0.04782245680689812,"326":0.0796240046620369,"327":-0.11519528180360794,"328":0.48304298520088196,"329":0.05335739254951477,"330":-0.6939470171928406,"331":-0.18030984699726105,"332":-0.27872124314308167,"333":0.26315680146217346,"334":-0.1052083745598793,"335":0.011503023095428944,"336":0.2978692948818207,"337":0.418696790933609,"338":0.8369391560554504,"339":0.7616493105888367,"340":-1.1355421543121338,"341":-0.6999770998954773,"342":0.49340584874153137,"343":-1.377493143081665,"344":-0.6423434019088745,"345":-0.6977434754371643,"346":-0.34605592489242554,"347":-0.657487690448761,"348":-0.25226891040802,"349":-0.7531412243843079,"350":0.2791971266269684,"351":0.5467634201049805,"352":-0.2656673491001129,"353":0.5478349924087524,"354":0.4987669289112091,"355":-0.5805068016052246,"356":1.0001274347305298,"357":1.0549304485321045,"358":0.07648661732673645,"359":0.8996874690055847,"360":-0.5709280967712402,"361":-0.2054900825023651,"362":0.3311150372028351,"363":-0.401852011680603,"364":-0.12645970284938812,"365":-0.3685831129550934,"366":-0.23987554013729095,"367":-0.5986605286598206,"368":-0.02902238443493843,"369":-0.5266162753105164,"370":-0.7344850897789001,"371":0.3744691014289856,"372":0.33994510769844055,"373":-0.4404674768447876,"374":-1.4620529413223267,"375":0.05892525240778923,"376":-0.323224276304245,"377":-0.32428276538848877,"378":0.6033790707588196,"379":0.4738751947879791,"380":-0.7564998269081116,"381":-0.9524574279785156,"382":-0.623448371887207,"383":0.8087727427482605,"384":0.28750061988830566,"385":0.3058970272541046,"386":0.5118134021759033,"387":0.2698892652988434,"388":0.5578593611717224,"389":0.5760903358459473,"390":-0.7247939109802246,"391":-0.3447355329990387,"392":-1.375223159790039,"393":-0.03808311000466347,"394":-1.3711326122283936,"395":0.6814391613006592,"396":-0.3270372152328491,"397":-0.5840553641319275,"398":-0.03868319094181061,"399":-1.0717601776123047}},"outputBias":{"rows":20,"columns":1,"weights":{"0":-0.15739843249320984,"1":-0.21754403412342072,"2":-0.5718743205070496,"3":-0.33374157547950745,"4":-0.2715703547000885,"5":-0.6962646842002869,"6":-1.306455135345459,"7":-0.14985154569149017,"8":-0.5625715255737305,"9":-0.38728612661361694,"10":-0.1863071769475937,"11":-0.2773388922214508,"12":-0.38544824719429016,"13":-0.1330432891845703,"14":1.2878855466842651,"15":-0.7056235671043396,"16":-0.41058051586151123,"17":-0.8341522216796875,"18":-0.1382652223110199,"19":0.050245728343725204}},"cellActivationMatrix":{"rows":20,"columns":24,"weights":{"0":1.5782548189163208,"1":0.4401969611644745,"2":-0.17241500318050385,"3":-0.2632000744342804,"4":-0.3309797942638397,"5":-0.5295390486717224,"6":0.47580090165138245,"7":0.8384082317352295,"8":-0.375844806432724,"9":1.1273889541625977,"10":-1.2498383522033691,"11":1.6819958686828613,"12":-0.2702091336250305,"13":-0.3689038157463074,"14":0.9495802521705627,"15":0.01934121549129486,"16":0.7603924870491028,"17":-0.19160522520542145,"18":0.5259747505187988,"19":-0.7076847553253174,"20":0.5152132511138916,"21":1.792992353439331,"22":0.06751438975334167,"23":0.2311336100101471,"24":1.4873186349868774,"25":1.2665005922317505,"26":0.30986738204956055,"27":-0.7267634868621826,"28":-1.0035450458526611,"29":-0.5841972231864929,"30":0.5303300619125366,"31":0.37759044766426086,"32":0.28853896260261536,"33":0.37406012415885925,"34":-0.42328277230262756,"35":0.7740207314491272,"36":0.28399211168289185,"37":-1.336112141609192,"38":-0.06058226898312569,"39":0.7016904354095459,"40":0.4653890132904053,"41":0.39858922362327576,"42":0.597120463848114,"43":-0.719026505947113,"44":-0.4163886308670044,"45":1.564093828201294,"46":0.7910106778144836,"47":0.6815997958183289,"48":0.26668134331703186,"49":-0.18832643330097198,"50":-0.7561378479003906,"51":0.7243821024894714,"52":0.5273278951644897,"53":-0.14869661629199982,"54":0.11682958900928497,"55":-0.6830055713653564,"56":-0.26900750398635864,"57":-0.3326524496078491,"58":0.455137699842453,"59":0.14605790376663208,"60":0.5222468376159668,"61":0.09622742980718613,"62":0.09303581714630127,"63":-0.6715930700302124,"64":0.06980951130390167,"65":-0.28994449973106384,"66":-0.7629366517066956,"67":0.29889151453971863,"68":0.8215694427490234,"69":0.22006525099277496,"70":-0.45984551310539246,"71":-0.2611190974712372,"72":-0.3376791775226593,"73":0.017638154327869415,"74":1.3889755010604858,"75":-0.9672040939331055,"76":0.042549703270196915,"77":0.7847548127174377,"78":-0.6599220037460327,"79":-0.5390430092811584,"80":0.3877226710319519,"81":-0.6607988476753235,"82":0.3766809403896332,"83":-0.5444753766059875,"84":0.2418132871389389,"85":0.07105688005685806,"86":-0.2581970989704132,"87":0.4571130871772766,"88":-0.6394743919372559,"89":-0.41001707315444946,"90":0.3649195432662964,"91":-0.29734137654304504,"92":0.7785276174545288,"93":-0.386493444442749,"94":0.5181624293327332,"95":-0.6475430130958557,"96":-0.6216140389442444,"97":-0.04165221378207207,"98":0.3988475501537323,"99":-0.1895284801721573,"100":0.14153644442558289,"101":0.9206368923187256,"102":-0.7514645457267761,"103":-0.14263150095939636,"104":1.077748417854309,"105":-0.31499478220939636,"106":0.1722385436296463,"107":-0.9225968718528748,"108":-0.6818560361862183,"109":0.3856953978538513,"110":-0.6935033202171326,"111":0.02757294848561287,"112":-0.7223313450813293,"113":-0.5788280963897705,"114":0.6434153914451599,"115":-0.6178470253944397,"116":-0.048251088708639145,"117":-1.0352647304534912,"118":-0.05132788047194481,"119":-0.3552190065383911,"120":0.3662436604499817,"121":0.981482207775116,"122":0.5146271586418152,"123":-0.965002179145813,"124":-0.9907453656196594,"125":0.041898973286151886,"126":-0.11651468276977539,"127":-0.5938969254493713,"128":0.9549648761749268,"129":-0.23516078293323517,"130":0.6374198198318481,"131":0.1138828843832016,"132":0.730769157409668,"133":-0.8957327008247375,"134":-0.7078852653503418,"135":0.9258672595024109,"136":-0.08511754870414734,"137":-0.7136481404304504,"138":0.94545578956604,"139":-1.267519235610962,"140":0.13068310916423798,"141":0.13067498803138733,"142":0.9031544327735901,"143":-0.24651962518692017,"144":-0.47224828600883484,"145":0.2886478900909424,"146":1.585530161857605,"147":-0.5744252800941467,"148":-0.34209686517715454,"149":0.7206757664680481,"150":-1.619737982749939,"151":0.1663070023059845,"152":0.36777716875076294,"153":-0.3238235116004944,"154":0.009797907434403896,"155":-0.4745725393295288,"156":0.6126019954681396,"157":-0.3111877739429474,"158":-0.9106345176696777,"159":0.78244549036026,"160":-0.9193370938301086,"161":-0.4612214267253876,"162":0.3730674088001251,"163":-0.853992223739624,"164":-0.14510421454906464,"165":-0.5338436365127563,"166":0.7142211198806763,"167":-0.5020614862442017,"168":0.953181803226471,"169":1.3416893482208252,"170":0.43206512928009033,"171":-0.8271043300628662,"172":-0.8555579781532288,"173":-0.7810405492782593,"174":0.4092099070549011,"175":0.5918065905570984,"176":0.4258768856525421,"177":0.6735863089561462,"178":-0.7959392070770264,"179":0.7639086842536926,"180":-0.5936574339866638,"181":-1.2087575197219849,"182":0.10880468040704727,"183":0.6991332769393921,"184":0.6706254482269287,"185":0.5551669001579285,"186":0.6663316488265991,"187":-0.3900893032550812,"188":-0.24775370955467224,"189":0.9166944026947021,"190":0.7203782200813293,"191":0.7572876214981079,"192":-0.9797915816307068,"193":0.05268266052007675,"194":0.5832622647285461,"195":-0.5245386362075806,"196":-0.043655093759298325,"197":0.6730225086212158,"198":-0.8817424774169922,"199":-0.13744737207889557,"200":0.3050457239151001,"201":0.04645164683461189,"202":0.2900632917881012,"203":-0.588238000869751,"204":-0.08124848455190659,"205":-0.128427192568779,"206":-0.36651572585105896,"207":0.47032731771469116,"208":-0.8468685746192932,"209":-0.4288301169872284,"210":0.572108805179596,"211":-0.20590008795261383,"212":0.020417243242263794,"213":-0.8285291790962219,"214":0.11843260377645493,"215":-0.614362359046936,"216":0.5657254457473755,"217":0.6683565974235535,"218":0.5508968830108643,"219":-0.5977561473846436,"220":-0.6884598135948181,"221":-0.6083588004112244,"222":0.37017855048179626,"223":0.3009258806705475,"224":-0.026398640125989914,"225":0.5380921959877014,"226":-0.4761551022529602,"227":0.5782263278961182,"228":-0.3345622718334198,"229":-0.6478123664855957,"230":0.3124341070652008,"231":0.6215192079544067,"232":0.4871748983860016,"233":0.47618329524993896,"234":0.43288150429725647,"235":-0.41391393542289734,"236":-0.3834133446216583,"237":0.7213505506515503,"238":0.5643835067749023,"239":0.4990403652191162,"240":0.8171666264533997,"241":0.12059250473976135,"242":-0.643927812576294,"243":0.25195324420928955,"244":-0.185544952750206,"245":-1.199303150177002,"246":1.0413943529129028,"247":0.7554680705070496,"248":-0.5169702172279358,"249":0.5700981616973877,"250":-0.8600686192512512,"251":1.0532262325286865,"252":-0.5817909240722656,"253":0.10732857137918472,"254":0.7335381507873535,"255":-0.1327909678220749,"256":1.1231486797332764,"257":0.6307855248451233,"258":-0.39538460969924927,"259":0.18711507320404053,"260":-0.1891297698020935,"261":0.7584531903266907,"262":-0.06406118720769882,"263":0.9101991653442383,"264":-0.7790005803108215,"265":-1.2245261669158936,"266":-0.5959676504135132,"267":0.6731298565864563,"268":0.8188914656639099,"269":-0.00019610440358519554,"270":0.4893752336502075,"271":0.36540988087654114,"272":-0.5707527995109558,"273":0.20459048449993134,"274":-0.325715035200119,"275":-0.15436051785945892,"276":-0.49310940504074097,"277":1.0730648040771484,"278":0.3831728994846344,"279":-0.6187422275543213,"280":0.11422533541917801,"281":0.5036932826042175,"282":-0.4303393065929413,"283":1.48253333568573,"284":0.09548323601484299,"285":-0.05328855663537979,"286":-0.5859794616699219,"287":0.21937529742717743,"288":1.2633228302001953,"289":1.0071887969970703,"290":0.8941779136657715,"291":-0.943950891494751,"292":-0.8417102694511414,"293":-0.6437880396842957,"294":0.20052078366279602,"295":0.45758160948753357,"296":0.12250488996505737,"297":0.6465415358543396,"298":-0.4022219777107239,"299":1.1234524250030518,"300":-0.35063478350639343,"301":-0.7241124510765076,"302":0.17647430300712585,"303":0.7998614311218262,"304":0.7815508246421814,"305":-0.011925923638045788,"306":0.5789252519607544,"307":-0.41788291931152344,"308":-0.7647739052772522,"309":1.4218995571136475,"310":0.8213530778884888,"311":0.9414872527122498,"312":0.6463732719421387,"313":-0.14885090291500092,"314":-0.7309404015541077,"315":0.4417944550514221,"316":0.2531212568283081,"317":-0.5846807360649109,"318":0.40057021379470825,"319":0.12471499294042587,"320":-0.9239791035652161,"321":0.2276908904314041,"322":-0.24134232103824615,"323":0.5006592273712158,"324":0.16524292528629303,"325":0.2942160964012146,"326":0.7474649548530579,"327":-0.35049423575401306,"328":0.4685477912425995,"329":0.5053427219390869,"330":-0.9550866484642029,"331":0.6143641471862793,"332":0.14077818393707275,"333":0.5110316872596741,"334":-0.1824699491262436,"335":0.2008313238620758,"336":0.6424529552459717,"337":-0.10764872282743454,"338":-0.3185953199863434,"339":0.31507420539855957,"340":-0.022345667704939842,"341":-1.2868603467941284,"342":0.8435940146446228,"343":1.046593427658081,"344":-0.29362237453460693,"345":0.8946061730384827,"346":-0.9845580458641052,"347":1.2121121883392334,"348":-0.14918053150177002,"349":0.026461834087967873,"350":0.3942311108112335,"351":-0.22284647822380066,"352":1.1707673072814941,"353":0.5086120963096619,"354":0.022509625181555748,"355":-0.08752650022506714,"356":-0.5910884737968445,"357":0.6880497336387634,"358":-0.3520030677318573,"359":1.0350608825683594,"360":-1.0585949420928955,"361":0.030973894521594048,"362":0.8893290758132935,"363":-0.5966060757637024,"364":0.008444390259683132,"365":1.0109896659851074,"366":-0.8491953611373901,"367":-0.5167933106422424,"368":0.5725052356719971,"369":-0.2861942648887634,"370":0.6172852516174316,"371":-0.7307411432266235,"372":0.14345581829547882,"373":-0.3670022487640381,"374":-0.6431496739387512,"375":0.3552617132663727,"376":-0.8703787922859192,"377":-0.5663406848907471,"378":0.5397533774375916,"379":-0.6291323304176331,"380":-0.07404998689889908,"381":-0.8727859854698181,"382":0.16096606850624084,"383":-0.7803231477737427,"384":0.620413601398468,"385":-0.2839277982711792,"386":-0.9647333025932312,"387":0.8987745046615601,"388":-0.020096948370337486,"389":-0.7590552568435669,"390":0.7783228158950806,"391":0.4778895676136017,"392":-1.0436081886291504,"393":-0.04626719653606415,"394":-0.5469905138015747,"395":0.4134015738964081,"396":-0.09766729176044464,"397":0.3823736906051636,"398":0.7393901944160461,"399":-0.4363410770893097,"400":0.4729599356651306,"401":0.7105010151863098,"402":-0.7910770177841187,"403":0.741058349609375,"404":0.031086422502994537,"405":0.4470054805278778,"406":-0.2767285704612732,"407":0.20527204871177673,"408":1.174906849861145,"409":0.1307554841041565,"410":-0.684642493724823,"411":0.4500344395637512,"412":-0.2939559519290924,"413":-1.0446372032165527,"414":0.7938034534454346,"415":0.628777801990509,"416":-0.7042179107666016,"417":0.6874591112136841,"418":-0.693993866443634,"419":1.176897644996643,"420":0.06374610960483551,"421":-0.43721863627433777,"422":0.3710934817790985,"423":-0.23671945929527283,"424":0.9478940963745117,"425":0.8337445259094238,"426":-0.8873022794723511,"427":0.6055381298065186,"428":0.34453901648521423,"429":1.0804004669189453,"430":0.12659630179405212,"431":0.6672351360321045,"432":-0.6499798893928528,"433":-0.22702156007289886,"434":0.5061873197555542,"435":-0.0944950208067894,"436":-0.0326935350894928,"437":0.12594150006771088,"438":-0.6100252270698547,"439":0.11137741059064865,"440":0.452602356672287,"441":0.03365480154752731,"442":0.28352734446525574,"443":-0.49780336022377014,"444":-0.31388792395591736,"445":0.021520644426345825,"446":-0.7326866388320923,"447":0.2576998472213745,"448":-0.6039130091667175,"449":0.18192210793495178,"450":0.01597980223596096,"451":0.00403929129242897,"452":-0.8163604140281677,"453":-0.8544761538505554,"454":0.32791078090667725,"455":0.1395762860774994,"456":-0.7944821119308472,"457":-0.7099304795265198,"458":-0.5388408899307251,"459":0.6572840213775635,"460":0.8488855957984924,"461":0.3264268636703491,"462":-0.416917085647583,"463":-0.5938225388526917,"464":-0.11809886991977692,"465":-0.6630764603614807,"466":0.8098011612892151,"467":-0.7153733968734741,"468":0.39037567377090454,"469":0.742523729801178,"470":-0.43785154819488525,"471":-0.6272767186164856,"472":-0.3035910129547119,"473":-0.18825788795948029,"474":-0.18449170887470245,"475":0.4510214924812317,"476":-0.08696434646844864,"477":-1.2293381690979004,"478":-0.6856324672698975,"479":-0.10198882222175598}},"cellActivationHidden":{"rows":20,"columns":20,"weights":{"0":1.1641467809677124,"1":1.0043655633926392,"2":0.7848531603813171,"3":-0.27273544669151306,"4":-0.3820061981678009,"5":-0.760633111000061,"6":-0.5833245515823364,"7":0.8167733550071716,"8":-0.28327253460884094,"9":-0.8874392509460449,"10":-0.0013465768424794078,"11":0.9251568913459778,"12":1.944726586341858,"13":0.03676572069525719,"14":0.019762206822633743,"15":-0.38487738370895386,"16":0.350538432598114,"17":0.566076934337616,"18":0.42663463950157166,"19":0.5807457566261292,"20":0.10609566420316696,"21":0.05162147805094719,"22":0.5476120710372925,"23":0.022023029625415802,"24":-0.9939963221549988,"25":0.2996533215045929,"26":-0.13410432636737823,"27":-0.2508613169193268,"28":0.10871860384941101,"29":0.07457389682531357,"30":-0.22088666260242462,"31":-0.21424026787281036,"32":-0.3732289969921112,"33":0.25260594487190247,"34":-0.2749902904033661,"35":0.08789199590682983,"36":0.22002361714839935,"37":0.25653645396232605,"38":-0.04108641669154167,"39":0.632709801197052,"40":-0.7915076017379761,"41":-0.7279793620109558,"42":0.09715639054775238,"43":-0.6780475378036499,"44":0.002634294331073761,"45":-0.5508595108985901,"46":-0.5643218159675598,"47":-0.8812437653541565,"48":-0.30401384830474854,"49":-0.43321529030799866,"50":-0.5140035152435303,"51":0.49870195984840393,"52":-1.4475336074829102,"53":-0.15944425761699677,"54":0.5937842726707458,"55":0.422539621591568,"56":-0.1213613748550415,"57":-0.21435056626796722,"58":0.1709868162870407,"59":0.5455111265182495,"60":0.43853652477264404,"61":0.47890225052833557,"62":-0.31059515476226807,"63":-0.36870670318603516,"64":-0.001138889230787754,"65":0.5397774577140808,"66":0.49375301599502563,"67":0.39380088448524475,"68":-0.35955560207366943,"69":0.4764646887779236,"70":0.23704947531223297,"71":-0.41887515783309937,"72":0.3687729835510254,"73":0.4871459901332855,"74":0.2297990769147873,"75":-0.31419679522514343,"76":0.5113705992698669,"77":0.41592466831207275,"78":-0.5194308757781982,"79":-0.49945029616355896,"80":0.19451025128364563,"81":0.5477051734924316,"82":0.30430537462234497,"83":-0.45671314001083374,"84":-0.3600795567035675,"85":0.4958917200565338,"86":0.4526510238647461,"87":0.5990409851074219,"88":-0.8165735006332397,"89":0.39313894510269165,"90":0.7873507738113403,"91":-0.2968303859233856,"92":0.07560586929321289,"93":1.1145179271697998,"94":0.8851082921028137,"95":-1.071144700050354,"96":1.1076395511627197,